{
  "args": {
    "n_input_params": 6,
    "num_qubits": 4,
    "num_layers": 1,
    "initial_number": null,
    "simplify_circuit": false,
    "add_rbs_gates": false,
    "remove_entanglement": false,
    "seed": 43,
    "max_epochs": 3,
    "learning_rate": 0.005,
    "strategy": "ale_two",
    "class_strategy": "binary",
    "dataset": "statlog",
    "output_qubit": 2,
    "requires_embedding": false,
    "hidden_dim": 128,
    "batch_size": 32,
    "patience": 10,
    "k_folds": 2,
    "debug_k_fold": true,
    "debug_tuning": true,
    "n_trials": 1,
    "n_jobs": 1,
    "output_size": 1
  },
  "accuracy": 0.5048335123523093,
  "qc_configurations": {
    "0": {
      "orig_angles": [
        1.3512190580368042,
        2.5646345615386963,
        0.9145674109458923,
        1.1887028217315674,
        0.9019807577133179,
        2.412947177886963,
        -2.4219653606414795,
        2.4419291019439697,
        -1.0682971477508545,
        3.03462553024292,
        -0.8278114795684814,
        0.06282638758420944,
        1.1216621398925781,
        -2.6966423988342285,
        1.969643473625183,
        -1.881388545036316,
        1.5589115619659424,
        -0.22181344032287598,
        0.8739335536956787,
        2.1552329063415527,
        1.672743558883667
      ],
      "input": [
        1.3512190580368042,
        2.5646345615386963,
        0.9145674109458923,
        1.1887028217315674,
        2.1552329063415527,
        1.672743558883667
      ],
      "weights": [
        0.9019807577133179,
        2.412947177886963,
        -2.4219653606414795,
        2.4419291019439697,
        -1.0682971477508545,
        3.03462553024292,
        -0.8278114795684814,
        0.06282638758420944,
        1.1216621398925781,
        -2.6966423988342285,
        1.969643473625183,
        -1.881388545036316,
        1.5589115619659424,
        -0.22181344032287598,
        0.8739335536956787
      ],
      "label": 0,
      "noiseless_label": 0,
      "angles": {
        "0": {
          "1": 1.3512190580368042,
          "2": 2.5646345615386963,
          "3": -1.0682971477508545
        },
        "1": {
          "1": 0.9145674109458923,
          "2": 1.1887028217315674,
          "3": 3.03462553024292,
          "4": 1.1216621398925781
        },
        "2": {
          "1": 0.9019807577133179,
          "2": 2.412947177886963,
          "3": -0.8278114795684814,
          "4": -2.6966423988342285
        },
        "3": {
          "1": -2.4219653606414795,
          "2": 2.4419291019439697,
          "3": 0.06282638758420944,
          "4": 1.969643473625183
        }
      },
      "predicted_label_pennylane": 0,
      "sigmoid(expval)_pennylane": 0.49709678154939974,
      "tomography": [
        [
          0.03674672313585247,
          0.023202007665528344
        ],
        [
          -0.026222806644317073,
          0.12152737358184731
        ],
        [
          -0.033241343987538995,
          0.028775843764963022
        ],
        [
          0.12048543889775029,
          -0.036097213160245424
        ],
        [
          0.06029998968330375,
          0.07010834552999265
        ],
        [
          -0.12909673110752024,
          0.23090399374172446
        ],
        [
          -0.024471453752474982,
          0.0902959702566841
        ],
        [
          0.16975589641307903,
          -0.2069059463640582
        ],
        [
          -0.05178435039985976,
          -0.07186443824262202
        ],
        [
          0.14218348805172873,
          -0.2097512526298152
        ],
        [
          0.08476840869769578,
          -0.029065588486139562
        ],
        [
          -0.2552736214340146,
          -0.02357998354115591
        ],
        [
          -0.10189087204351527,
          0.1585658799771188
        ],
        [
          -0.5261443498200318,
          -0.11791438460296691
        ],
        [
          -0.1906241159957672,
          0.0047042900342280924
        ],
        [
          0.5029084184261775,
          0.21129760220556884
        ]
      ],
      "qibo_sigmoid_expval": 0.48333950343058857,
      "qibo_predicted_label": 0,
      "qibo_correct": true
    },
    "1": {
      "orig_angles": [
        0.8617511987686157,
        2.1718690395355225,
        1.2689640522003174,
        1.3485594987869263,
        0.9019807577133179,
        2.412947177886963,
        -2.4219653606414795,
        2.4419291019439697,
        -1.0682971477508545,
        3.03462553024292,
        -0.8278114795684814,
        0.06282638758420944,
        1.1216621398925781,
        -2.6966423988342285,
        1.969643473625183,
        -1.881388545036316,
        1.5589115619659424,
        -0.22181344032287598,
        0.8739335536956787,
        2.0600597858428955,
        0.8922732472419739
      ],
      "input": [
        0.8617511987686157,
        2.1718690395355225,
        1.2689640522003174,
        1.3485594987869263,
        2.0600597858428955,
        0.8922732472419739
      ],
      "weights": [
        0.9019807577133179,
        2.412947177886963,
        -2.4219653606414795,
        2.4419291019439697,
        -1.0682971477508545,
        3.03462553024292,
        -0.8278114795684814,
        0.06282638758420944,
        1.1216621398925781,
        -2.6966423988342285,
        1.969643473625183,
        -1.881388545036316,
        1.5589115619659424,
        -0.22181344032287598,
        0.8739335536956787
      ],
      "label": 0,
      "noiseless_label": 0,
      "angles": {
        "0": {
          "1": 0.8617511987686157,
          "2": 2.1718690395355225,
          "3": -1.0682971477508545
        },
        "1": {
          "1": 1.2689640522003174,
          "2": 1.3485594987869263,
          "3": 3.03462553024292,
          "4": 1.1216621398925781
        },
        "2": {
          "1": 0.9019807577133179,
          "2": 2.412947177886963,
          "3": -0.8278114795684814,
          "4": -2.6966423988342285
        },
        "3": {
          "1": -2.4219653606414795,
          "2": 2.4419291019439697,
          "3": 0.06282638758420944,
          "4": 1.969643473625183
        }
      },
      "predicted_label_pennylane": 0,
      "sigmoid(expval)_pennylane": 0.49709678154939974,
      "tomography": [
        [
          0.07323866037403752,
          0.056887660542559906
        ],
        [
          -0.0808618899169997,
          0.252673036244121
        ],
        [
          -0.07655872667035696,
          0.05423063470008616
        ],
        [
          0.2633669707295221,
          -0.05171125744856596
        ],
        [
          0.08561431282486398,
          0.096393919418467
        ],
        [
          -0.1748392000438475,
          0.32474688650622174
        ],
        [
          -0.03211008801747224,
          0.12641649342022437
        ],
        [
          0.2320509523544585,
          -0.2921954490946427
        ],
        [
          -0.04442184100682068,
          -0.08817632716687959
        ],
        [
          0.19324333596841944,
          -0.2060012868029605
        ],
        [
          0.09840326632215564,
          -0.01715335734404485
        ],
        [
          -0.27687954287908323,
          -0.070653852028993
        ],
        [
          -0.07927904961182936,
          0.11205217679061508
        ],
        [
          -0.37895652404480396,
          -0.102875705561018
        ],
        [
          -0.13883778339894953,
          -0.002769006722036213
        ],
        [
          0.35901854670599825,
          0.17006019789760898
        ]
      ],
      "qibo_sigmoid_expval": 0.5099986668799655,
      "qibo_predicted_label": 1,
      "qibo_correct": false
    },
    "2": {
      "orig_angles": [
        0.6124536395072937,
        1.5285483598709106,
        1.311195969581604,
        1.597947359085083,
        0.9019807577133179,
        2.412947177886963,
        -2.4219653606414795,
        2.4419291019439697,
        -1.0682971477508545,
        3.03462553024292,
        -0.8278114795684814,
        0.06282638758420944,
        1.1216621398925781,
        -2.6966423988342285,
        1.969643473625183,
        -1.881388545036316,
        1.5589115619659424,
        -0.22181344032287598,
        0.8739335536956787,
        1.8491041660308838,
        1.877393126487732
      ],
      "input": [
        0.6124536395072937,
        1.5285483598709106,
        1.311195969581604,
        1.597947359085083,
        1.8491041660308838,
        1.877393126487732
      ],
      "weights": [
        0.9019807577133179,
        2.412947177886963,
        -2.4219653606414795,
        2.4419291019439697,
        -1.0682971477508545,
        3.03462553024292,
        -0.8278114795684814,
        0.06282638758420944,
        1.1216621398925781,
        -2.6966423988342285,
        1.969643473625183,
        -1.881388545036316,
        1.5589115619659424,
        -0.22181344032287598,
        0.8739335536956787
      ],
      "label": 0,
      "noiseless_label": 0,
      "angles": {
        "0": {
          "1": 0.6124536395072937,
          "2": 1.5285483598709106,
          "3": -1.0682971477508545
        },
        "1": {
          "1": 1.311195969581604,
          "2": 1.597947359085083,
          "3": 3.03462553024292,
          "4": 1.1216621398925781
        },
        "2": {
          "1": 0.9019807577133179,
          "2": 2.412947177886963,
          "3": -0.8278114795684814,
          "4": -2.6966423988342285
        },
        "3": {
          "1": -2.4219653606414795,
          "2": 2.4419291019439697,
          "3": 0.06282638758420944,
          "4": 1.969643473625183
        }
      },
      "predicted_label_pennylane": 0,
      "sigmoid(expval)_pennylane": 0.49709678154939974,
      "tomography": [
        [
          0.06158720541353838,
          0.10218190275431083
        ],
        [
          -0.21400214209147606,
          0.2658826025603276
        ],
        [
          -0.11699790866595608,
          0.029666492759950147
        ],
        [
          0.34007406420038305,
          0.05981224139234807
        ],
        [
          0.087438038832664,
          0.1272843503744655
        ],
        [
          -0.2560387089679952,
          0.36000419251001126
        ],
        [
          -0.05694113381461721,
          0.14548125448366683
        ],
        [
          0.3192020107842665,
          -0.3128177324857898
        ],
        [
          -0.007969502722807519,
          -0.07626394668148352
        ],
        [
          0.19706249948835278,
          -0.09635971124612555
        ],
        [
          0.07617939624956417,
          0.014648162844966402
        ],
        [
          -0.18159309218928263,
          -0.1275676722279076
        ],
        [
          -0.06652949381915788,
          0.0736492398294196
        ],
        [
          -0.26325163789913997,
          -0.10636262423104892
        ],
        [
          -0.09944226502928047,
          -0.013895798140602593
        ],
        [
          0.24317475474362912,
          0.15288826624749302
        ]
      ],
      "qibo_sigmoid_expval": 0.47834688488309984,
      "qibo_predicted_label": 0,
      "qibo_correct": true
    },
    "3": {
      "orig_angles": [
        1.8887611627578735,
        2.8970351219177246,
        1.8338679075241089,
        1.4035753011703491,
        0.9019807577133179,
        2.412947177886963,
        -2.4219653606414795,
        2.4419291019439697,
        -1.0682971477508545,
        3.03462553024292,
        -0.8278114795684814,
        0.06282638758420944,
        1.1216621398925781,
        -2.6966423988342285,
        1.969643473625183,
        -1.881388545036316,
        1.5589115619659424,
        -0.22181344032287598,
        0.8739335536956787,
        1.7101974487304688,
        1.5158296823501587
      ],
      "input": [
        1.8887611627578735,
        2.8970351219177246,
        1.8338679075241089,
        1.4035753011703491,
        1.7101974487304688,
        1.5158296823501587
      ],
      "weights": [
        0.9019807577133179,
        2.412947177886963,
        -2.4219653606414795,
        2.4419291019439697,
        -1.0682971477508545,
        3.03462553024292,
        -0.8278114795684814,
        0.06282638758420944,
        1.1216621398925781,
        -2.6966423988342285,
        1.969643473625183,
        -1.881388545036316,
        1.5589115619659424,
        -0.22181344032287598,
        0.8739335536956787
      ],
      "label": 0,
      "noiseless_label": 0,
      "angles": {
        "0": {
          "1": 1.8887611627578735,
          "2": 2.8970351219177246,
          "3": -1.0682971477508545
        },
        "1": {
          "1": 1.8338679075241089,
          "2": 1.4035753011703491,
          "3": 3.03462553024292,
          "4": 1.1216621398925781
        },
        "2": {
          "1": 0.9019807577133179,
          "2": 2.412947177886963,
          "3": -0.8278114795684814,
          "4": -2.6966423988342285
        },
        "3": {
          "1": -2.4219653606414795,
          "2": 2.4419291019439697,
          "3": 0.06282638758420944,
          "4": 1.969643473625183
        }
      },
      "predicted_label_pennylane": 0,
      "sigmoid(expval)_pennylane": 0.49709678154939974,
      "tomography": [
        [
          0.018431003534284503,
          0.01890776156831198
        ],
        [
          -0.03268545645127235,
          0.06809927182347404
        ],
        [
          -0.023712320046013684,
          0.012301007129571061
        ],
        [
          0.07629916385274392,
          -0.0042858705034661895
        ],
        [
          0.011351632835245741,
          0.017239174717056792
        ],
        [
          -0.035159804029420975,
          0.04743967551022702
        ],
        [
          -0.007990669681768219,
          0.01929273406533294
        ],
        [
          0.0434772382396308,
          -0.04096826601806258
        ],
        [
          -0.09994799216469452,
          -0.1507106859842377
        ],
        [
          0.30668290865636283,
          -0.41663630647249045
        ],
        [
          0.17523514914768656,
          -0.05257800317064338
        ],
        [
          -0.5189027579044667,
          -0.06833298831675255
        ],
        [
          -0.06814670571744766,
          0.12385632264512204
        ],
        [
          -0.399729814034507,
          -0.06136646107980889
        ],
        [
          -0.14240187024581036,
          0.013254435753516765
        ],
        [
          0.3871112367538589,
          0.13243072531470906
        ]
      ],
      "qibo_sigmoid_expval": 0.4850044983805899,
      "qibo_predicted_label": 0,
      "qibo_correct": true
    },
    "4": {
      "orig_angles": [
        1.0267400741577148,
        2.3377058506011963,
        1.6611567735671997,
        1.1943129301071167,
        0.9019807577133179,
        2.412947177886963,
        -2.4219653606414795,
        2.4419291019439697,
        -1.0682971477508545,
        3.03462553024292,
        -0.8278114795684814,
        0.06282638758420944,
        1.1216621398925781,
        -2.6966423988342285,
        1.969643473625183,
        -1.881388545036316,
        1.5589115619659424,
        -0.22181344032287598,
        0.8739335536956787,
        2.0597023963928223,
        2.07240629196167
      ],
      "input": [
        1.0267400741577148,
        2.3377058506011963,
        1.6611567735671997,
        1.1943129301071167,
        2.0597023963928223,
        2.07240629196167
      ],
      "weights": [
        0.9019807577133179,
        2.412947177886963,
        -2.4219653606414795,
        2.4419291019439697,
        -1.0682971477508545,
        3.03462553024292,
        -0.8278114795684814,
        0.06282638758420944,
        1.1216621398925781,
        -2.6966423988342285,
        1.969643473625183,
        -1.881388545036316,
        1.5589115619659424,
        -0.22181344032287598,
        0.8739335536956787
      ],
      "label": 0,
      "noiseless_label": 0,
      "angles": {
        "0": {
          "1": 1.0267400741577148,
          "2": 2.3377058506011963,
          "3": -1.0682971477508545
        },
        "1": {
          "1": 1.6611567735671997,
          "2": 1.1943129301071167,
          "3": 3.03462553024292,
          "4": 1.1216621398925781
        },
        "2": {
          "1": 0.9019807577133179,
          "2": 2.412947177886963,
          "3": -0.8278114795684814,
          "4": -2.6966423988342285
        },
        "3": {
          "1": -2.4219653606414795,
          "2": 2.4419291019439697,
          "3": 0.06282638758420944,
          "4": 1.969643473625183
        }
      },
      "predicted_label_pennylane": 0,
      "sigmoid(expval)_pennylane": 0.49709678154939974,
      "tomography": [
        [
          0.08816593243348327,
          0.05029717169314782
        ],
        [
          -0.04848576593189968,
          0.2863005845146166
        ],
        [
          -0.07455497006082709,
          0.07061659589365489
        ],
        [
          0.2773567958902793,
          -0.09681685468765905
        ],
        [
          0.06014774692251326,
          0.07544715729997152
        ],
        [
          -0.14358986653162129,
          0.2357416917027111
        ],
        [
          -0.029028400479291228,
          0.0931995296682629
        ],
        [
          0.18505165316282704,
          -0.20913754689614605
        ],
        [
          -0.07845092442168654,
          -0.1086743157745219
        ],
        [
          0.21487215208299043,
          -0.3175699369675027
        ],
        [
          0.1282294974870617,
          -0.044090816173073824
        ],
        [
          -0.3862978690997592,
          -0.03534809802512304
        ],
        [
          -0.07734200438141504,
          0.10124932591653811
        ],
        [
          -0.3480294119885463,
          -0.10828805215929435
        ],
        [
          -0.12869216472635744,
          -0.007280179889247403
        ],
        [
          0.3272549192685069,
          0.16993186549056116
        ]
      ],
      "qibo_sigmoid_expval": 0.5066662716330296,
      "qibo_predicted_label": 1,
      "qibo_correct": false
    },
    "5": {
      "orig_angles": [
        0.7509724497795105,
        2.1089367866516113,
        1.4736748933792114,
        1.5995880365371704,
        0.9019807577133179,
        2.412947177886963,
        -2.4219653606414795,
        2.4419291019439697,
        -1.0682971477508545,
        3.03462553024292,
        -0.8278114795684814,
        0.06282638758420944,
        1.1216621398925781,
        -2.6966423988342285,
        1.969643473625183,
        -1.881388545036316,
        1.5589115619659424,
        -0.22181344032287598,
        0.8739335536956787,
        2.0998332500457764,
        1.626577377319336
      ],
      "input": [
        0.7509724497795105,
        2.1089367866516113,
        1.4736748933792114,
        1.5995880365371704,
        2.0998332500457764,
        1.626577377319336
      ],
      "weights": [
        0.9019807577133179,
        2.412947177886963,
        -2.4219653606414795,
        2.4419291019439697,
        -1.0682971477508545,
        3.03462553024292,
        -0.8278114795684814,
        0.06282638758420944,
        1.1216621398925781,
        -2.6966423988342285,
        1.969643473625183,
        -1.881388545036316,
        1.5589115619659424,
        -0.22181344032287598,
        0.8739335536956787
      ],
      "label": 0,
      "noiseless_label": 0,
      "angles": {
        "0": {
          "1": 0.7509724497795105,
          "2": 2.1089367866516113,
          "3": -1.0682971477508545
        },
        "1": {
          "1": 1.4736748933792114,
          "2": 1.5995880365371704,
          "3": 3.03462553024292,
          "4": 1.1216621398925781
        },
        "2": {
          "1": 0.9019807577133179,
          "2": 2.412947177886963,
          "3": -0.8278114795684814,
          "4": -2.6966423988342285
        },
        "3": {
          "1": -2.4219653606414795,
          "2": 2.4419291019439697,
          "3": 0.06282638758420944,
          "4": 1.969643473625183
        }
      },
      "predicted_label_pennylane": 0,
      "sigmoid(expval)_pennylane": 0.4970967815493997,
      "tomography": [
        [
          0.08117028589010805,
          0.07851186695116259
        ],
        [
          -0.1311637539950622,
          0.2952337419663924
        ],
        [
          -0.09982226468772894,
          0.05556904847350704
        ],
        [
          0.32563772378189487,
          -0.027919042558993717
        ],
        [
          0.09277798674845013,
          0.08228746284122514
        ],
        [
          -0.12989998268073422,
          0.3301300411869411
        ],
        [
          -0.016230807639225756,
          0.12440631582503141
        ],
        [
          0.18825989462457776,
          -0.30557426245550195
        ],
        [
          -0.03261937243034936,
          -0.10284423273164801
        ],
        [
          0.2442497489336386,
          -0.188707078760973
        ],
        [
          0.10914431241363129,
          -0.001424252727952123
        ],
        [
          -0.2864581119563107,
          -0.12429300845832222
        ],
        [
          -0.06172011559421224,
          0.10113795507230727
        ],
        [
          -0.3323777754455174,
          -0.06642695412140434
        ],
        [
          -0.11972978113086229,
          0.005737751456742511
        ],
        [
          0.31913758843666895,
          0.12545300371374374
        ]
      ],
      "qibo_sigmoid_expval": 0.5016666604938546,
      "qibo_predicted_label": 1,
      "qibo_correct": false
    },
    "6": {
      "orig_angles": [
        0.9094201326370239,
        2.261291027069092,
        1.6978728771209717,
        1.460875391960144,
        0.9019807577133179,
        2.412947177886963,
        -2.4219653606414795,
        2.4419291019439697,
        -1.0682971477508545,
        3.03462553024292,
        -0.8278114795684814,
        0.06282638758420944,
        1.1216621398925781,
        -2.6966423988342285,
        1.969643473625183,
        -1.881388545036316,
        1.5589115619659424,
        -0.22181344032287598,
        0.8739335536956787,
        2.1366593837738037,
        2.036863327026367
      ],
      "input": [
        0.9094201326370239,
        2.261291027069092,
        1.6978728771209717,
        1.460875391960144,
        2.1366593837738037,
        2.036863327026367
      ],
      "weights": [
        0.9019807577133179,
        2.412947177886963,
        -2.4219653606414795,
        2.4419291019439697,
        -1.0682971477508545,
        3.03462553024292,
        -0.8278114795684814,
        0.06282638758420944,
        1.1216621398925781,
        -2.6966423988342285,
        1.969643473625183,
        -1.881388545036316,
        1.5589115619659424,
        -0.22181344032287598,
        0.8739335536956787
      ],
      "label": 0,
      "noiseless_label": 0,
      "angles": {
        "0": {
          "1": 0.9094201326370239,
          "2": 2.261291027069092,
          "3": -1.0682971477508545
        },
        "1": {
          "1": 1.6978728771209717,
          "2": 1.460875391960144,
          "3": 3.03462553024292,
          "4": 1.1216621398925781
        },
        "2": {
          "1": 0.9019807577133179,
          "2": 2.412947177886963,
          "3": -0.8278114795684814,
          "4": -2.6966423988342285
        },
        "3": {
          "1": -2.4219653606414795,
          "2": 2.4419291019439697,
          "3": 0.06282638758420944,
          "4": 1.969643473625183
        }
      },
      "predicted_label_pennylane": 0,
      "sigmoid(expval)_pennylane": 0.49709678154939974,
      "tomography": [
        [
          0.08982813198746373,
          0.0689461433792666
        ],
        [
          -0.09695549830647168,
          0.3090936228633195
        ],
        [
          -0.09309922068325623,
          0.06675715399067969
        ],
        [
          0.32121734836156124,
          -0.06499698634176498
        ],
        [
          0.07223943642114994,
          0.07050973100751583
        ],
        [
          -0.11844161382941197,
          0.2633755704079965
        ],
        [
          -0.018029091319496204,
          0.10052147896952732
        ],
        [
          0.16493892069818414,
          -0.24114301319983222
        ],
        [
          -0.05776860350476223,
          -0.11757289298517384
        ],
        [
          0.25910507997270127,
          -0.27074886201372855
        ],
        [
          0.13078036954985645,
          -0.021455694526133648
        ],
        [
          -0.3664063276030814,
          -0.0974011637483651
        ],
        [
          -0.06205388572009092,
          0.09892838038438637
        ],
        [
          -0.3267694343906189,
          -0.06949513869667717
        ],
        [
          -0.11806906310617604,
          0.004203807816632467
        ],
        [
          0.3130052390297944,
          0.12750772318719372
        ]
      ],
      "qibo_sigmoid_expval": 0.4883354501562881,
      "qibo_predicted_label": 0,
      "qibo_correct": true
    },
    "7": {
      "orig_angles": [
        0.7846051454544067,
        2.0961215496063232,
        1.5893945693969727,
        1.5758975744247437,
        0.9019807577133179,
        2.412947177886963,
        -2.4219653606414795,
        2.4419291019439697,
        -1.0682971477508545,
        3.03462553024292,
        -0.8278114795684814,
        0.06282638758420944,
        1.1216621398925781,
        -2.6966423988342285,
        1.969643473625183,
        -1.881388545036316,
        1.5589115619659424,
        -0.22181344032287598,
        0.8739335536956787,
        2.060570478439331,
        1.473158597946167
      ],
      "input": [
        0.7846051454544067,
        2.0961215496063232,
        1.5893945693969727,
        1.5758975744247437,
        2.060570478439331,
        1.473158597946167
      ],
      "weights": [
        0.9019807577133179,
        2.412947177886963,
        -2.4219653606414795,
        2.4419291019439697,
        -1.0682971477508545,
        3.03462553024292,
        -0.8278114795684814,
        0.06282638758420944,
        1.1216621398925781,
        -2.6966423988342285,
        1.969643473625183,
        -1.881388545036316,
        1.5589115619659424,
        -0.22181344032287598,
        0.8739335536956787
      ],
      "label": 0,
      "noiseless_label": 0,
      "angles": {
        "0": {
          "1": 0.7846051454544067,
          "2": 2.0961215496063232,
          "3": -1.0682971477508545
        },
        "1": {
          "1": 1.5893945693969727,
          "2": 1.5758975744247437,
          "3": 3.03462553024292,
          "4": 1.1216621398925781
        },
        "2": {
          "1": 0.9019807577133179,
          "2": 2.412947177886963,
          "3": -0.8278114795684814,
          "4": -2.6966423988342285
        },
        "3": {
          "1": -2.4219653606414795,
          "2": 2.4419291019439697,
          "3": 0.06282638758420944,
          "4": 1.969643473625183
        }
      },
      "predicted_label_pennylane": 0,
      "sigmoid(expval)_pennylane": 0.4970967815493997,
      "tomography": [
        [
          0.08530081303685469,
          0.08275219152800507
        ],
        [
          -0.13849674367747672,
          0.3104982047298846
        ],
        [
          -0.10513923337327,
          0.05832493132567287
        ],
        [
          0.34274338633791446,
          -0.02887392674797276
        ],
        [
          0.0842803037897321,
          0.08058108180443066
        ],
        [
          -0.13366663786844324,
          0.3056227939516751
        ],
        [
          -0.019626400640356048,
          0.11632191152872967
        ],
        [
          0.1876381885465203,
          -0.28049731493971825
        ],
        [
          -0.03811593921524903,
          -0.10881471334255968
        ],
        [
          0.2548885859547288,
          -0.20934192398961662
        ],
        [
          0.11653709385227667,
          -0.004995426092488181
        ],
        [
          -0.3099363526459135,
          -0.12364541094566367
        ],
        [
          -0.05952012670466934,
          0.09619865807037468
        ],
        [
          -0.316945572449585,
          -0.0653704514900054
        ],
        [
          -0.11434479102812202,
          0.004775714189150161
        ],
        [
          0.3039583406498517,
          0.121647470315207
        ]
      ],
      "qibo_sigmoid_expval": 0.4983333395061454,
      "qibo_predicted_label": 0,
      "qibo_correct": true
    },
    "8": {
      "orig_angles": [
        0.7650512456893921,
        2.0197701454162598,
        1.9097388982772827,
        1.408063292503357,
        0.9019807577133179,
        2.412947177886963,
        -2.4219653606414795,
        2.4419291019439697,
        -1.0682971477508545,
        3.03462553024292,
        -0.8278114795684814,
        0.06282638758420944,
        1.1216621398925781,
        -2.6966423988342285,
        1.969643473625183,
        -1.881388545036316,
        1.5589115619659424,
        -0.22181344032287598,
        0.8739335536956787,
        2.072942018508911,
        1.4763771295547485
      ],
      "input": [
        0.7650512456893921,
        2.0197701454162598,
        1.9097388982772827,
        1.408063292503357,
        2.072942018508911,
        1.4763771295547485
      ],
      "weights": [
        0.9019807577133179,
        2.412947177886963,
        -2.4219653606414795,
        2.4419291019439697,
        -1.0682971477508545,
        3.03462553024292,
        -0.8278114795684814,
        0.06282638758420944,
        1.1216621398925781,
        -2.6966423988342285,
        1.969643473625183,
        -1.881388545036316,
        1.5589115619659424,
        -0.22181344032287598,
        0.8739335536956787
      ],
      "label": 0,
      "noiseless_label": 0,
      "angles": {
        "0": {
          "1": 0.7650512456893921,
          "2": 2.0197701454162598,
          "3": -1.0682971477508545
        },
        "1": {
          "1": 1.9097388982772827,
          "2": 1.408063292503357,
          "3": 3.03462553024292,
          "4": 1.1216621398925781
        },
        "2": {
          "1": 0.9019807577133179,
          "2": 2.412947177886963,
          "3": -0.8278114795684814,
          "4": -2.6966423988342285
        },
        "3": {
          "1": -2.4219653606414795,
          "2": 2.4419291019439697,
          "3": 0.06282638758420944,
          "4": 1.969643473625183
        }
      },
      "predicted_label_pennylane": 0,
      "sigmoid(expval)_pennylane": 0.49709678154939974,
      "tomography": [
        [
          0.10521381347262657,
          0.08997368428740685
        ],
        [
          -0.13832885232226935,
          0.37109439476396655
        ],
        [
          -0.11797096127542285,
          0.0754879069556007
        ],
        [
          0.39635440894123875,
          -0.058607256986330875
        ],
        [
          0.06200059011264117,
          0.07845618600886864
        ],
        [
          -0.14985319063785985,
          0.24367675795014992
        ],
        [
          -0.03049611598600966,
          0.09645936559217538
        ],
        [
          0.19270460845741202,
          -0.21592195837238418
        ],
        [
          -0.051690552457366826,
          -0.11629313660094184
        ],
        [
          0.2616400313490722,
          -0.25316158457363575
        ],
        [
          0.127758844745816,
          -0.015945933395509024
        ],
        [
          -0.3520602424749036,
          -0.10823387583164239
        ],
        [
          -0.05741213129655425,
          0.07179214342628502
        ],
        [
          -0.24930217545642308,
          -0.08369252481404427
        ],
        [
          -0.09271093984461953,
          -0.0073156167165827
        ],
        [
          0.23332839422761936,
          0.1278239578057901
        ]
      ],
      "qibo_sigmoid_expval": 0.5,
      "qibo_predicted_label": 0,
      "qibo_correct": true
    },
    "9": {
      "orig_angles": [
        1.2249747514724731,
        2.518683433532715,
        1.6766282320022583,
        0.9570509195327759,
        0.9019807577133179,
        2.412947177886963,
        -2.4219653606414795,
        2.4419291019439697,
        -1.0682971477508545,
        3.03462553024292,
        -0.8278114795684814,
        0.06282638758420944,
        1.1216621398925781,
        -2.6966423988342285,
        1.969643473625183,
        -1.881388545036316,
        1.5589115619659424,
        -0.22181344032287598,
        0.8739335536956787,
        2.216881513595581,
        1.3664813041687012
      ],
      "input": [
        1.2249747514724731,
        2.518683433532715,
        1.6766282320022583,
        0.9570509195327759,
        2.216881513595581,
        1.3664813041687012
      ],
      "weights": [
        0.9019807577133179,
        2.412947177886963,
        -2.4219653606414795,
        2.4419291019439697,
        -1.0682971477508545,
        3.03462553024292,
        -0.8278114795684814,
        0.06282638758420944,
        1.1216621398925781,
        -2.6966423988342285,
        1.969643473625183,
        -1.881388545036316,
        1.5589115619659424,
        -0.22181344032287598,
        0.8739335536956787
      ],
      "label": 0,
      "noiseless_label": 0,
      "angles": {
        "0": {
          "1": 1.2249747514724731,
          "2": 2.518683433532715,
          "3": -1.0682971477508545
        },
        "1": {
          "1": 1.6766282320022583,
          "2": 0.9570509195327759,
          "3": 3.03462553024292,
          "4": 1.1216621398925781
        },
        "2": {
          "1": 0.9019807577133179,
          "2": 2.412947177886963,
          "3": -0.8278114795684814,
          "4": -2.6966423988342285
        },
        "3": {
          "1": -2.4219653606414795,
          "2": 2.4419291019439697,
          "3": 0.06282638758420944,
          "4": 1.969643473625183
        }
      },
      "predicted_label_pennylane": 0,
      "sigmoid(expval)_pennylane": 0.49709678154939974,
      "tomography": [
        [
          0.07816559915103412,
          0.02866979163290168
        ],
        [
          -0.0002083993576668941,
          0.2381788661234119
        ],
        [
          -0.05068170503749443,
          0.06727609324202602
        ],
        [
          0.21114695811453385,
          -0.11610018099600014
        ],
        [
          0.045197091319210944,
          0.06562162136351611
        ],
        [
          -0.1318848574020599,
          0.1859184602668589
        ],
        [
          -0.02928892170330333,
          0.07510211208739911
        ],
        [
          0.16450597318571855,
          -0.16161083036156998
        ],
        [
          -0.10306625883758269,
          -0.10262441872366546
        ],
        [
          0.17442745905031815,
          -0.3777571851211613
        ],
        [
          0.12959021752395822,
          -0.06969868220179923
        ],
        [
          -0.4198824019013489,
          0.02987399139833563
        ],
        [
          -0.0924971304843962,
          0.10401919027113019
        ],
        [
          -0.3703647788203348,
          -0.1462824858777316
        ],
        [
          -0.1396156686582461,
          -0.018397936936155455
        ],
        [
          0.34271796370531293,
          0.21175273587517765
        ]
      ],
      "qibo_sigmoid_expval": 0.5049998333399998,
      "qibo_predicted_label": 1,
      "qibo_correct": false
    },
    "10": {
      "orig_angles": [
        0.6704186797142029,
        1.9974223375320435,
        2.109384775161743,
        1.5281051397323608,
        0.9019807577133179,
        2.412947177886963,
        -2.4219653606414795,
        2.4419291019439697,
        -1.0682971477508545,
        3.03462553024292,
        -0.8278114795684814,
        0.06282638758420944,
        1.1216621398925781,
        -2.6966423988342285,
        1.969643473625183,
        -1.881388545036316,
        1.5589115619659424,
        -0.22181344032287598,
        0.8739335536956787,
        2.201380968093872,
        1.3246538639068604
      ],
      "input": [
        0.6704186797142029,
        1.9974223375320435,
        2.109384775161743,
        1.5281051397323608,
        2.201380968093872,
        1.3246538639068604
      ],
      "weights": [
        0.9019807577133179,
        2.412947177886963,
        -2.4219653606414795,
        2.4419291019439697,
        -1.0682971477508545,
        3.03462553024292,
        -0.8278114795684814,
        0.06282638758420944,
        1.1216621398925781,
        -2.6966423988342285,
        1.969643473625183,
        -1.881388545036316,
        1.5589115619659424,
        -0.22181344032287598,
        0.8739335536956787
      ],
      "label": 0,
      "noiseless_label": 0,
      "angles": {
        "0": {
          "1": 0.6704186797142029,
          "2": 1.9974223375320435,
          "3": -1.0682971477508545
        },
        "1": {
          "1": 2.109384775161743,
          "2": 1.5281051397323608,
          "3": 3.03462553024292,
          "4": 1.1216621398925781
        },
        "2": {
          "1": 0.9019807577133179,
          "2": 2.412947177886963,
          "3": -0.8278114795684814,
          "4": -2.6966423988342285
        },
        "3": {
          "1": -2.4219653606414795,
          "2": 2.4419291019439697,
          "3": 0.06282638758420944,
          "4": 1.969643473625183
        }
      },
      "predicted_label_pennylane": 0,
      "sigmoid(expval)_pennylane": 0.49709678154939974,
      "tomography": [
        [
          0.1129243813957315,
          0.1029069494508014
        ],
        [
          -0.165498443438818,
          0.4045201675512286
        ],
        [
          -0.13275469799059758,
          0.07916092437834057
        ],
        [
          0.4392371424830031,
          -0.05085215451699407
        ],
        [
          0.05834836394775847,
          0.06519492658214687
        ],
        [
          -0.11781405554411511,
          0.22083199253592548
        ],
        [
          -0.021465158612316924,
          0.0858722246694534
        ],
        [
          0.1567232767573878,
          -0.19888908705217498
        ],
        [
          -0.04115617740819575,
          -0.12444372446974948
        ],
        [
          0.2938904728050847,
          -0.2328694015363253
        ],
        [
          0.13256139103999962,
          -0.003355877188807921
        ],
        [
          -0.34982523864050796,
          -0.146717451882163
        ],
        [
          -0.047233712233666694,
          0.05833666910462115
        ],
        [
          -0.2031491767020787,
          -0.06957005178240262
        ],
        [
          -0.07566518393838328,
          -0.0064317774667194474
        ],
        [
          0.1898879103311032,
          0.10552576031208137
        ]
      ],
      "qibo_sigmoid_expval": 0.5116645498437119,
      "qibo_predicted_label": 1,
      "qibo_correct": false
    },
    "11": {
      "orig_angles": [
        1.349631667137146,
        2.570204973220825,
        0.6446654200553894,
        1.2040313482284546,
        0.9019807577133179,
        2.412947177886963,
        -2.4219653606414795,
        2.4419291019439697,
        -1.0682971477508545,
        3.03462553024292,
        -0.8278114795684814,
        0.06282638758420944,
        1.1216621398925781,
        -2.6966423988342285,
        1.969643473625183,
        -1.881388545036316,
        1.5589115619659424,
        -0.22181344032287598,
        0.8739335536956787,
        2.1173417568206787,
        1.0310298204421997
      ],
      "input": [
        1.349631667137146,
        2.570204973220825,
        0.6446654200553894,
        1.2040313482284546,
        2.1173417568206787,
        1.0310298204421997
      ],
      "weights": [
        0.9019807577133179,
        2.412947177886963,
        -2.4219653606414795,
        2.4419291019439697,
        -1.0682971477508545,
        3.03462553024292,
        -0.8278114795684814,
        0.06282638758420944,
        1.1216621398925781,
        -2.6966423988342285,
        1.969643473625183,
        -1.881388545036316,
        1.5589115619659424,
        -0.22181344032287598,
        0.8739335536956787
      ],
      "label": 0,
      "noiseless_label": 0,
      "angles": {
        "0": {
          "1": 1.349631667137146,
          "2": 2.570204973220825,
          "3": -1.0682971477508545
        },
        "1": {
          "1": 0.6446654200553894,
          "2": 1.2040313482284546,
          "3": 3.03462553024292,
          "4": 1.1216621398925781
        },
        "2": {
          "1": 0.9019807577133179,
          "2": 2.412947177886963,
          "3": -0.8278114795684814,
          "4": -2.6966423988342285
        },
        "3": {
          "1": -2.4219653606414795,
          "2": 2.4419291019439697,
          "3": 0.06282638758420944,
          "4": 1.969643473625183
        }
      },
      "predicted_label_pennylane": 0,
      "sigmoid(expval)_pennylane": 0.4970967815493997,
      "tomography": [
        [
          0.025097907038052175,
          0.017821368979603767
        ],
        [
          -0.0232147957302323,
          0.08494325517933761
        ],
        [
          -0.02461551137992742,
          0.019074802297644536
        ],
        [
          0.08660044635182955,
          -0.02090127204583981
        ],
        [
          0.06494361927835982,
          0.07233305738022908
        ],
        [
          -0.13051022303132995,
          0.2455661384000532
        ],
        [
          -0.02369797988751663,
          0.09544741614069041
        ],
        [
          0.17377953286920925,
          -0.22125465721839124
        ],
        [
          -0.03359444742994691,
          -0.05317631902803863
        ],
        [
          0.10985119198716017,
          -0.1425155873180456
        ],
        [
          0.06133946003595103,
          -0.016933615480904298
        ],
        [
          -0.17991210256249732,
          -0.027757147777049504
        ],
        [
          -0.10493221112700853,
          0.16866120027505568
        ],
        [
          -0.5562558203917647,
          -0.11616421527184317
        ],
        [
          -0.20080422474511284,
          0.007889079211301789
        ],
        [
          0.5332063981931313,
          0.21492728862549706
        ]
      ],
      "qibo_sigmoid_expval": 0.5099986668799655,
      "qibo_predicted_label": 1,
      "qibo_correct": false
    },
    "12": {
      "orig_angles": [
        1.1313772201538086,
        2.4338345527648926,
        0.9837946891784668,
        1.1717803478240967,
        0.9019807577133179,
        2.412947177886963,
        -2.4219653606414795,
        2.4419291019439697,
        -1.0682971477508545,
        3.03462553024292,
        -0.8278114795684814,
        0.06282638758420944,
        1.1216621398925781,
        -2.6966423988342285,
        1.969643473625183,
        -1.881388545036316,
        1.5589115619659424,
        -0.22181344032287598,
        0.8739335536956787,
        2.092860460281372,
        0.6589499711990356
      ],
      "input": [
        1.1313772201538086,
        2.4338345527648926,
        0.9837946891784668,
        1.1717803478240967,
        2.092860460281372,
        0.6589499711990356
      ],
      "weights": [
        0.9019807577133179,
        2.412947177886963,
        -2.4219653606414795,
        2.4419291019439697,
        -1.0682971477508545,
        3.03462553024292,
        -0.8278114795684814,
        0.06282638758420944,
        1.1216621398925781,
        -2.6966423988342285,
        1.969643473625183,
        -1.881388545036316,
        1.5589115619659424,
        -0.22181344032287598,
        0.8739335536956787
      ],
      "label": 0,
      "noiseless_label": 0,
      "angles": {
        "0": {
          "1": 1.1313772201538086,
          "2": 2.4338345527648926,
          "3": -1.0682971477508545
        },
        "1": {
          "1": 0.9837946891784668,
          "2": 1.1717803478240967,
          "3": 3.03462553024292,
          "4": 1.1216621398925781
        },
        "2": {
          "1": 0.9019807577133179,
          "2": 2.412947177886963,
          "3": -0.8278114795684814,
          "4": -2.6966423988342285
        },
        "3": {
          "1": -2.4219653606414795,
          "2": 2.4419291019439697,
          "3": 0.06282638758420944,
          "4": 1.969643473625183
        }
      },
      "predicted_label_pennylane": 0,
      "sigmoid(expval)_pennylane": 0.49709678154939974,
      "tomography": [
        [
          0.049877570510084124,
          0.0295401711498626
        ],
        [
          -0.030346884309713107,
          0.163034199502941
        ],
        [
          -0.04322890653017968,
          0.03963106046306253
        ],
        [
          0.15927722907630076,
          -0.052707619433814766
        ],
        [
          0.07392456363996538,
          0.0858992580047733
        ],
        [
          -0.15813182688902694,
          0.28302698583470787
        ],
        [
          -0.029958972064510814,
          0.11066974439477939
        ],
        [
          0.20796961231948438,
          -0.2536307514514575
        ],
        [
          -0.050633841881934274,
          -0.07235478442132226
        ],
        [
          0.1446315396677724,
          -0.20714212694575473
        ],
        [
          0.08490579506515578,
          -0.02780781702065634
        ],
        [
          -0.25415693043683407,
          -0.027022989829788388
        ],
        [
          -0.09935160994467165,
          0.14119938973310867
        ],
        [
          -0.4769912068775566,
          -0.12815920639229625
        ],
        [
          -0.1746404607102373,
          -0.003029031849227079
        ],
        [
          0.4521326609239671,
          0.21272963901713454
        ]
      ],
      "qibo_sigmoid_expval": 0.5016666604938546,
      "qibo_predicted_label": 1,
      "qibo_correct": false
    },
    "13": {
      "orig_angles": [
        1.0298935174942017,
        2.28381609916687,
        1.668684959411621,
        1.5479381084442139,
        0.9019807577133179,
        2.412947177886963,
        -2.4219653606414795,
        2.4419291019439697,
        -1.0682971477508545,
        3.03462553024292,
        -0.8278114795684814,
        0.06282638758420944,
        1.1216621398925781,
        -2.6966423988342285,
        1.969643473625183,
        -1.881388545036316,
        1.5589115619659424,
        -0.22181344032287598,
        0.8739335536956787,
        2.1896252632141113,
        1.2810890674591064
      ],
      "input": [
        1.0298935174942017,
        2.28381609916687,
        1.668684959411621,
        1.5479381084442139,
        2.1896252632141113,
        1.2810890674591064
      ],
      "weights": [
        0.9019807577133179,
        2.412947177886963,
        -2.4219653606414795,
        2.4419291019439697,
        -1.0682971477508545,
        3.03462553024292,
        -0.8278114795684814,
        0.06282638758420944,
        1.1216621398925781,
        -2.6966423988342285,
        1.969643473625183,
        -1.881388545036316,
        1.5589115619659424,
        -0.22181344032287598,
        0.8739335536956787
      ],
      "label": 0,
      "noiseless_label": 0,
      "angles": {
        "0": {
          "1": 1.0298935174942017,
          "2": 2.28381609916687,
          "3": -1.0682971477508545
        },
        "1": {
          "1": 1.668684959411621,
          "2": 1.5479381084442139,
          "3": 3.03462553024292,
          "4": 1.1216621398925781
        },
        "2": {
          "1": 0.9019807577133179,
          "2": 2.412947177886963,
          "3": -0.8278114795684814,
          "4": -2.6966423988342285
        },
        "3": {
          "1": -2.4219653606414795,
          "2": 2.4419291019439697,
          "3": 0.06282638758420944,
          "4": 1.969643473625183
        }
      },
      "predicted_label_pennylane": 0,
      "sigmoid(expval)_pennylane": 0.49709678154939974,
      "tomography": [
        [
          0.07829873107512567,
          0.07079193130693787
        ],
        [
          -0.11324501123714953,
          0.279932107047736
        ],
        [
          -0.09150537094357118,
          0.05505256680676658
        ],
        [
          0.30333089615206643,
          -0.03632581998227788
        ],
        [
          0.06930256111874254,
          0.06641333867125458
        ],
        [
          -0.11032225752437504,
          0.25145948190465656
        ],
        [
          -0.0162663051566984,
          0.09573658012862812
        ],
        [
          0.15472738323610602,
          -0.23072536286889186
        ],
        [
          -0.05840532014449735,
          -0.12207071341111495
        ],
        [
          0.270563415586906,
          -0.2768797329355964
        ],
        [
          0.13532208840528004,
          -0.020753195377252565
        ],
        [
          -0.37743300563338544,
          -0.10456090701794842
        ],
        [
          -0.05693671794847949,
          0.10909139524645083
        ],
        [
          -0.3490449982826799,
          -0.045759389885459856
        ],
        [
          -0.12367396954130948,
          0.014258645320305387
        ],
        [
          0.3394227476615984,
          0.10784555455753514
        ]
      ],
      "qibo_sigmoid_expval": 0.5033332839514952,
      "qibo_predicted_label": 1,
      "qibo_correct": false
    },
    "14": {
      "orig_angles": [
        0.48512813448905945,
        1.8213975429534912,
        1.9021334648132324,
        1.5404741764068604,
        0.9019807577133179,
        2.412947177886963,
        -2.4219653606414795,
        2.4419291019439697,
        -1.0682971477508545,
        3.03462553024292,
        -0.8278114795684814,
        0.06282638758420944,
        1.1216621398925781,
        -2.6966423988342285,
        1.969643473625183,
        -1.881388545036316,
        1.5589115619659424,
        -0.22181344032287598,
        0.8739335536956787,
        2.3230624198913574,
        1.2447748184204102
      ],
      "input": [
        0.48512813448905945,
        1.8213975429534912,
        1.9021334648132324,
        1.5404741764068604,
        2.3230624198913574,
        1.2447748184204102
      ],
      "weights": [
        0.9019807577133179,
        2.412947177886963,
        -2.4219653606414795,
        2.4419291019439697,
        -1.0682971477508545,
        3.03462553024292,
        -0.8278114795684814,
        0.06282638758420944,
        1.1216621398925781,
        -2.6966423988342285,
        1.969643473625183,
        -1.881388545036316,
        1.5589115619659424,
        -0.22181344032287598,
        0.8739335536956787
      ],
      "label": 0,
      "noiseless_label": 0,
      "angles": {
        "0": {
          "1": 0.48512813448905945,
          "2": 1.8213975429534912,
          "3": -1.0682971477508545
        },
        "1": {
          "1": 1.9021334648132324,
          "2": 1.5404741764068604,
          "3": 3.03462553024292,
          "4": 1.1216621398925781
        },
        "2": {
          "1": 0.9019807577133179,
          "2": 2.412947177886963,
          "3": -0.8278114795684814,
          "4": -2.6966423988342285
        },
        "3": {
          "1": -2.4219653606414795,
          "2": 2.4419291019439697,
          "3": 0.06282638758420944,
          "4": 1.969643473625183
        }
      },
      "predicted_label_pennylane": 0,
      "sigmoid(expval)_pennylane": 0.49709678154939974,
      "tomography": [
        [
          0.10852629488456624,
          0.10840872467882509
        ],
        [
          -0.18460201053700367,
          0.3981109217697512
        ],
        [
          -0.1367920232209125,
          0.07328908101785274
        ],
        [
          0.44288488254329483,
          -0.030795738226744945
        ],
        [
          0.07284033279777417,
          0.08249571811869792
        ],
        [
          -0.15005323500189766,
          0.27676920583318565
        ],
        [
          -0.02772453852353781,
          0.10782953585386745
        ],
        [
          0.1988082352619581,
          -0.248840504654751
        ],
        [
          -0.01769100904144061,
          -0.10808451923295467
        ],
        [
          0.27299942425885987,
          -0.15374968617421667
        ],
        [
          0.10984041995989313,
          0.014566814664157816
        ],
        [
          -0.2695194177924582,
          -0.16683454993121224
        ],
        [
          -0.05629226055723292,
          0.05481978350399388
        ],
        [
          -0.202602830595413,
          -0.09736342257932806
        ],
        [
          -0.07786315507507932,
          -0.016013719184837624
        ],
        [
          0.18438489958005314,
          0.13310557307456442
        ]
      ],
      "qibo_sigmoid_expval": 0.4850044983805899,
      "qibo_predicted_label": 0,
      "qibo_correct": true
    },
    "15": {
      "orig_angles": [
        0.9720556735992432,
        2.419919013977051,
        1.2837730646133423,
        1.9692453145980835,
        0.9019807577133179,
        2.412947177886963,
        -2.4219653606414795,
        2.4419291019439697,
        -1.0682971477508545,
        3.03462553024292,
        -0.8278114795684814,
        0.06282638758420944,
        1.1216621398925781,
        -2.6966423988342285,
        1.969643473625183,
        -1.881388545036316,
        1.5589115619659424,
        -0.22181344032287598,
        0.8739335536956787,
        2.1290946006774902,
        1.0775270462036133
      ],
      "input": [
        0.9720556735992432,
        2.419919013977051,
        1.2837730646133423,
        1.9692453145980835,
        2.1290946006774902,
        1.0775270462036133
      ],
      "weights": [
        0.9019807577133179,
        2.412947177886963,
        -2.4219653606414795,
        2.4419291019439697,
        -1.0682971477508545,
        3.03462553024292,
        -0.8278114795684814,
        0.06282638758420944,
        1.1216621398925781,
        -2.6966423988342285,
        1.969643473625183,
        -1.881388545036316,
        1.5589115619659424,
        -0.22181344032287598,
        0.8739335536956787
      ],
      "label": 0,
      "noiseless_label": 0,
      "angles": {
        "0": {
          "1": 0.9720556735992432,
          "2": 2.419919013977051,
          "3": -1.0682971477508545
        },
        "1": {
          "1": 1.2837730646133423,
          "2": 1.9692453145980835,
          "3": 3.03462553024292,
          "4": 1.1216621398925781
        },
        "2": {
          "1": 0.9019807577133179,
          "2": 2.412947177886963,
          "3": -0.8278114795684814,
          "4": -2.6966423988342285
        },
        "3": {
          "1": -2.4219653606414795,
          "2": 2.4419291019439697,
          "3": 0.06282638758420944,
          "4": 1.969643473625183
        }
      },
      "predicted_label_pennylane": 0,
      "sigmoid(expval)_pennylane": 0.49709678154939974,
      "tomography": [
        [
          0.057306627990280384,
          0.06435651709513913
        ],
        [
          -0.1165853094157978,
          0.2172092650995886
        ],
        [
          -0.0791183112758047,
          0.03661423389716834
        ],
        [
          0.24938434047338548,
          -0.0027432034381727755
        ],
        [
          0.10096241213769482,
          0.04435698191939322
        ],
        [
          -0.019950805638922875,
          0.31484252133122115
        ],
        [
          0.020177300518317183,
          0.10972509298819813
        ],
        [
          0.07604228741444334,
          -0.3099679330253783
        ],
        [
          -0.02361627035195922,
          -0.11143372038538674
        ],
        [
          0.27617450092912055,
          -0.17296021934890374
        ],
        [
          0.11482087192151472,
          0.00981186195471559
        ],
        [
          -0.28809161273874867,
          -0.1602688581179349
        ],
        [
          -0.03748921097458493,
          0.1408670422810386
        ],
        [
          -0.41530299000923737,
          0.03771679430837016
        ],
        [
          -0.13924058630370473,
          0.04858344358314209
        ],
        [
          0.4202979961284468,
          0.0365398831086132
        ]
      ],
      "qibo_sigmoid_expval": 0.4766835901961499,
      "qibo_predicted_label": 0,
      "qibo_correct": true
    },
    "16": {
      "orig_angles": [
        1.0723267793655396,
        2.3513615131378174,
        1.4539047479629517,
        1.9218581914901733,
        0.9019807577133179,
        2.412947177886963,
        -2.4219653606414795,
        2.4419291019439697,
        -1.0682971477508545,
        3.03462553024292,
        -0.8278114795684814,
        0.06282638758420944,
        1.1216621398925781,
        -2.6966423988342285,
        1.969643473625183,
        -1.881388545036316,
        1.5589115619659424,
        -0.22181344032287598,
        0.8739335536956787,
        2.146026849746704,
        0.9518594741821289
      ],
      "input": [
        1.0723267793655396,
        2.3513615131378174,
        1.4539047479629517,
        1.9218581914901733,
        2.146026849746704,
        0.9518594741821289
      ],
      "weights": [
        0.9019807577133179,
        2.412947177886963,
        -2.4219653606414795,
        2.4419291019439697,
        -1.0682971477508545,
        3.03462553024292,
        -0.8278114795684814,
        0.06282638758420944,
        1.1216621398925781,
        -2.6966423988342285,
        1.969643473625183,
        -1.881388545036316,
        1.5589115619659424,
        -0.22181344032287598,
        0.8739335536956787
      ],
      "label": 0,
      "noiseless_label": 0,
      "angles": {
        "0": {
          "1": 1.0723267793655396,
          "2": 2.3513615131378174,
          "3": -1.0682971477508545
        },
        "1": {
          "1": 1.4539047479629517,
          "2": 1.9218581914901733,
          "3": 3.03462553024292,
          "4": 1.1216621398925781
        },
        "2": {
          "1": 0.9019807577133179,
          "2": 2.412947177886963,
          "3": -0.8278114795684814,
          "4": -2.6966423988342285
        },
        "3": {
          "1": -2.4219653606414795,
          "2": 2.4419291019439697,
          "3": 0.06282638758420944,
          "4": 1.969643473625183
        }
      },
      "predicted_label_pennylane": 0,
      "sigmoid(expval)_pennylane": 0.49709678154939974,
      "tomography": [
        [
          0.05725851826590803,
          0.07244744766408484
        ],
        [
          -0.1383700880504943,
          0.22503137874718204
        ],
        [
          -0.08693822015277766,
          0.03419496461708019
        ],
        [
          0.26695121861438886,
          0.012740873993055166
        ],
        [
          0.08593308932475806,
          0.051141710649772465
        ],
        [
          -0.05294907465289675,
          0.2811316877798937
        ],
        [
          0.0059633288595111675,
          0.10099206620991459
        ],
        [
          0.10288798898761968,
          -0.2705102770958251
        ],
        [
          -0.0332052863430725,
          -0.12303200705603073
        ],
        [
          0.29791142590800346,
          -0.21012077363292467
        ],
        [
          0.12886288001586602,
          0.003928557264380829
        ],
        [
          -0.3316312939280057,
          -0.16138677790867573
        ],
        [
          -0.036745621234395454,
          0.13301909915974813
        ],
        [
          -0.3934875501366104,
          0.03200198814178082
        ],
        [
          -0.13224686116770754,
          0.04475052809870976
        ],
        [
          0.397554020920076,
          0.038338469057791785
        ]
      ],
      "qibo_sigmoid_expval": 0.5283030450758288,
      "qibo_predicted_label": 1,
      "qibo_correct": false
    },
    "17": {
      "orig_angles": [
        1.0864620208740234,
        2.3919596672058105,
        1.5485711097717285,
        1.583657145500183,
        0.9019807577133179,
        2.412947177886963,
        -2.4219653606414795,
        2.4419291019439697,
        -1.0682971477508545,
        3.03462553024292,
        -0.8278114795684814,
        0.06282638758420944,
        1.1216621398925781,
        -2.6966423988342285,
        1.969643473625183,
        -1.881388545036316,
        1.5589115619659424,
        -0.22181344032287598,
        0.8739335536956787,
        2.26126766204834,
        1.4355294704437256
      ],
      "input": [
        1.0864620208740234,
        2.3919596672058105,
        1.5485711097717285,
        1.583657145500183,
        2.26126766204834,
        1.4355294704437256
      ],
      "weights": [
        0.9019807577133179,
        2.412947177886963,
        -2.4219653606414795,
        2.4419291019439697,
        -1.0682971477508545,
        3.03462553024292,
        -0.8278114795684814,
        0.06282638758420944,
        1.1216621398925781,
        -2.6966423988342285,
        1.969643473625183,
        -1.881388545036316,
        1.5589115619659424,
        -0.22181344032287598,
        0.8739335536956787
      ],
      "label": 0,
      "noiseless_label": 0,
      "angles": {
        "0": {
          "1": 1.0864620208740234,
          "2": 2.3919596672058105,
          "3": -1.0682971477508545
        },
        "1": {
          "1": 1.5485711097717285,
          "2": 1.583657145500183,
          "3": 3.03462553024292,
          "4": 1.1216621398925781
        },
        "2": {
          "1": 0.9019807577133179,
          "2": 2.412947177886963,
          "3": -0.8278114795684814,
          "4": -2.6966423988342285
        },
        "3": {
          "1": -2.4219653606414795,
          "2": 2.4419291019439697,
          "3": 0.06282638758420944,
          "4": 1.969643473625183
        }
      },
      "predicted_label_pennylane": 0,
      "sigmoid(expval)_pennylane": 0.49709678154939974,
      "tomography": [
        [
          0.07054090381606623,
          0.06061015586848463
        ],
        [
          -0.0935141541886146,
          0.24908339340398017
        ],
        [
          -0.07937189626943791,
          0.05052690890816485
        ],
        [
          0.2663634145059611,
          -0.03874780317170369
        ],
        [
          0.07320169923127892,
          0.060474884292146494
        ],
        [
          -0.09053582826197963,
          0.2560990812220989
        ],
        [
          -0.009079989545642472,
          0.09563008546344817
        ],
        [
          0.13585139740870072,
          -0.23887591767970445
        ],
        [
          -0.05624140393689397,
          -0.12056192673460647
        ],
        [
          0.26863642399012505,
          -0.2695832862596763
        ],
        [
          0.13322663635752985,
          -0.019100446313262638
        ],
        [
          -0.37002697471638396,
          -0.10641574739487114
        ],
        [
          -0.058151051528836185,
          0.12274281740254789
        ],
        [
          -0.38691497905255245,
          -0.035605934611520174
        ],
        [
          -0.1357945605406263,
          0.020992228678085423
        ],
        [
          0.37894616488396443,
          0.10449133927247467
        ]
      ],
      "qibo_sigmoid_expval": 0.5,
      "qibo_predicted_label": 0,
      "qibo_correct": true
    },
    "18": {
      "orig_angles": [
        1.0251798629760742,
        2.4059014320373535,
        1.5338586568832397,
        1.5457836389541626,
        0.9019807577133179,
        2.412947177886963,
        -2.4219653606414795,
        2.4419291019439697,
        -1.0682971477508545,
        3.03462553024292,
        -0.8278114795684814,
        0.06282638758420944,
        1.1216621398925781,
        -2.6966423988342285,
        1.969643473625183,
        -1.881388545036316,
        1.5589115619659424,
        -0.22181344032287598,
        0.8739335536956787,
        2.181410551071167,
        1.3535431623458862
      ],
      "input": [
        1.0251798629760742,
        2.4059014320373535,
        1.5338586568832397,
        1.5457836389541626,
        2.181410551071167,
        1.3535431623458862
      ],
      "weights": [
        0.9019807577133179,
        2.412947177886963,
        -2.4219653606414795,
        2.4419291019439697,
        -1.0682971477508545,
        3.03462553024292,
        -0.8278114795684814,
        0.06282638758420944,
        1.1216621398925781,
        -2.6966423988342285,
        1.969643473625183,
        -1.881388545036316,
        1.5589115619659424,
        -0.22181344032287598,
        0.8739335536956787
      ],
      "label": 0,
      "noiseless_label": 0,
      "angles": {
        "0": {
          "1": 1.0251798629760742,
          "2": 2.4059014320373535,
          "3": -1.0682971477508545
        },
        "1": {
          "1": 1.5338586568832397,
          "2": 1.5457836389541626,
          "3": 3.03462553024292,
          "4": 1.1216621398925781
        },
        "2": {
          "1": 0.9019807577133179,
          "2": 2.412947177886963,
          "3": -0.8278114795684814,
          "4": -2.6966423988342285
        },
        "3": {
          "1": -2.4219653606414795,
          "2": 2.4419291019439697,
          "3": 0.06282638758420944,
          "4": 1.969643473625183
        }
      },
      "predicted_label_pennylane": 0,
      "sigmoid(expval)_pennylane": 0.49709678154939974,
      "tomography": [
        [
          0.07514158544478447,
          0.057699967935716946
        ],
        [
          -0.08117417465481042,
          0.2585838255774159
        ],
        [
          -0.07790327856508578,
          0.055834924372472554
        ],
        [
          0.268756860233776,
          -0.054320342791003534
        ],
        [
          0.07714609664218927,
          0.061319201180538206
        ],
        [
          -0.08892785294974365,
          0.26752604961128784
        ],
        [
          -0.0075476068087782094,
          0.09941232012728371
        ],
        [
          0.13628895932264584,
          -0.250542059820739
        ],
        [
          -0.05542410738110881,
          -0.11746648550826608
        ],
        [
          0.26112325551766075,
          -0.26434544943586374
        ],
        [
          0.12998981104958396,
          -0.019216848066320298
        ],
        [
          -0.3617177237533553,
          -0.1023157311389312
        ],
        [
          -0.061687190850238625,
          0.12020109393648903
        ],
        [
          -0.3835614010288633,
          -0.04760418389046506
        ],
        [
          -0.1356738179087969,
          0.016588172719123453
        ],
        [
          0.3734658423354736,
          0.11584112652442578
        ]
      ],
      "qibo_sigmoid_expval": 0.4850044983805899,
      "qibo_predicted_label": 0,
      "qibo_correct": true
    },
    "19": {
      "orig_angles": [
        0.9121466875076294,
        2.342963218688965,
        1.6474992036819458,
        1.5467565059661865,
        0.9019807577133179,
        2.412947177886963,
        -2.4219653606414795,
        2.4419291019439697,
        -1.0682971477508545,
        3.03462553024292,
        -0.8278114795684814,
        0.06282638758420944,
        1.1216621398925781,
        -2.6966423988342285,
        1.969643473625183,
        -1.881388545036316,
        1.5589115619659424,
        -0.22181344032287598,
        0.8739335536956787,
        2.060401439666748,
        1.2308140993118286
      ],
      "input": [
        0.9121466875076294,
        2.342963218688965,
        1.6474992036819458,
        1.5467565059661865,
        2.060401439666748,
        1.2308140993118286
      ],
      "weights": [
        0.9019807577133179,
        2.412947177886963,
        -2.4219653606414795,
        2.4419291019439697,
        -1.0682971477508545,
        3.03462553024292,
        -0.8278114795684814,
        0.06282638758420944,
        1.1216621398925781,
        -2.6966423988342285,
        1.969643473625183,
        -1.881388545036316,
        1.5589115619659424,
        -0.22181344032287598,
        0.8739335536956787
      ],
      "label": 0,
      "noiseless_label": 0,
      "angles": {
        "0": {
          "1": 0.9121466875076294,
          "2": 2.342963218688965,
          "3": -1.0682971477508545
        },
        "1": {
          "1": 1.6474992036819458,
          "2": 1.5467565059661865,
          "3": 3.03462553024292,
          "4": 1.1216621398925781
        },
        "2": {
          "1": 0.9019807577133179,
          "2": 2.412947177886963,
          "3": -0.8278114795684814,
          "4": -2.6966423988342285
        },
        "3": {
          "1": -2.4219653606414795,
          "2": 2.4419291019439697,
          "3": 0.06282638758420944,
          "4": 1.969643473625183
        }
      },
      "predicted_label_pennylane": 0,
      "sigmoid(expval)_pennylane": 0.49709678154939974,
      "tomography": [
        [
          0.08633599956013671,
          0.06529132567280385
        ],
        [
          -0.09056817781452493,
          0.2961197105688803
        ],
        [
          -0.08853637809091587,
          0.06444769327949246
        ],
        [
          0.3066029929043444,
          -0.06432246849667539
        ],
        [
          0.07847237271345363,
          0.06286362111200311
        ],
        [
          -0.09177377005775701,
          0.2726070690047747
        ],
        [
          -0.008087867712038843,
          0.10139971651768669
        ],
        [
          0.1400295557797106,
          -0.25509408455743754
        ],
        [
          -0.05302231709498672,
          -0.11982616853544187
        ],
        [
          0.2698232590411237,
          -0.26021165965201765
        ],
        [
          0.13157023498395504,
          -0.016199339033268097
        ],
        [
          -0.36230241865255863,
          -0.11204283753311076
        ],
        [
          -0.0593755429424068,
          0.10625058200404804
        ],
        [
          -0.3438094842876719,
          -0.055103470290816
        ],
        [
          -0.12267979472472756,
          0.010603633239081
        ],
        [
          0.3325419108658029,
          0.11621647934781738
        ]
      ],
      "qibo_sigmoid_expval": 0.51499550161941,
      "qibo_predicted_label": 1,
      "qibo_correct": false
    },
    "20": {
      "orig_angles": [
        0.7398077249526978,
        2.1735944747924805,
        1.854957938194275,
        1.6874182224273682,
        0.9019807577133179,
        2.412947177886963,
        -2.4219653606414795,
        2.4419291019439697,
        -1.0682971477508545,
        3.03462553024292,
        -0.8278114795684814,
        0.06282638758420944,
        1.1216621398925781,
        -2.6966423988342285,
        1.969643473625183,
        -1.881388545036316,
        1.5589115619659424,
        -0.22181344032287598,
        0.8739335536956787,
        2.2606661319732666,
        1.4303864240646362
      ],
      "input": [
        0.7398077249526978,
        2.1735944747924805,
        1.854957938194275,
        1.6874182224273682,
        2.2606661319732666,
        1.4303864240646362
      ],
      "weights": [
        0.9019807577133179,
        2.412947177886963,
        -2.4219653606414795,
        2.4419291019439697,
        -1.0682971477508545,
        3.03462553024292,
        -0.8278114795684814,
        0.06282638758420944,
        1.1216621398925781,
        -2.6966423988342285,
        1.969643473625183,
        -1.881388545036316,
        1.5589115619659424,
        -0.22181344032287598,
        0.8739335536956787
      ],
      "label": 0,
      "noiseless_label": 0,
      "angles": {
        "0": {
          "1": 0.7398077249526978,
          "2": 2.1735944747924805,
          "3": -1.0682971477508545
        },
        "1": {
          "1": 1.854957938194275,
          "2": 1.6874182224273682,
          "3": 3.03462553024292,
          "4": 1.1216621398925781
        },
        "2": {
          "1": 0.9019807577133179,
          "2": 2.412947177886963,
          "3": -0.8278114795684814,
          "4": -2.6966423988342285
        },
        "3": {
          "1": -2.4219653606414795,
          "2": 2.4419291019439697,
          "3": 0.06282638758420944,
          "4": 1.969643473625183
        }
      },
      "predicted_label_pennylane": 0,
      "sigmoid(expval)_pennylane": 0.49709678154939974,
      "tomography": [
        [
          0.09727767845056069,
          0.09088817976697683
        ],
        [
          -0.14858502382839,
          0.3506714985214374
        ],
        [
          -0.11652912556161382,
          0.06753559179247874
        ],
        [
          0.3832654339584279,
          -0.03954851691631403
        ],
        [
          0.07782279365989991,
          0.060696761855066776
        ],
        [
          -0.08659055185948725,
          0.26873239498733786
        ],
        [
          -0.006642214372044597,
          0.09962557792755465
        ],
        [
          0.13417665833007103,
          -0.25216039267902063
        ],
        [
          -0.03685924535673,
          -0.1250759644057466
        ],
        [
          0.29981189320114315,
          -0.2219463831935828
        ],
        [
          0.13191346839454907,
          0.0009900193465863655
        ],
        [
          -0.343037569635806,
          -0.1572971850794614
        ],
        [
          -0.04825062095203759,
          0.08376224028345511
        ],
        [
          -0.27245815575142407,
          -0.047315131864523435
        ],
        [
          -0.09753290293589015,
          0.007151743112818999
        ],
        [
          0.26287818859184264,
          0.09573002794597986
        ]
      ],
      "qibo_sigmoid_expval": 0.49333372836697054,
      "qibo_predicted_label": 0,
      "qibo_correct": true
    },
    "21": {
      "orig_angles": [
        1.2985780239105225,
        2.6961748600006104,
        0.397501677274704,
        0.9682222008705139,
        0.9019807577133179,
        2.412947177886963,
        -2.4219653606414795,
        2.4419291019439697,
        -1.0682971477508545,
        3.03462553024292,
        -0.8278114795684814,
        0.06282638758420944,
        1.1216621398925781,
        -2.6966423988342285,
        1.969643473625183,
        -1.881388545036316,
        1.5589115619659424,
        -0.22181344032287598,
        0.8739335536956787,
        2.2335948944091797,
        0.8440178632736206
      ],
      "input": [
        1.2985780239105225,
        2.6961748600006104,
        0.397501677274704,
        0.9682222008705139,
        2.2335948944091797,
        0.8440178632736206
      ],
      "weights": [
        0.9019807577133179,
        2.412947177886963,
        -2.4219653606414795,
        2.4419291019439697,
        -1.0682971477508545,
        3.03462553024292,
        -0.8278114795684814,
        0.06282638758420944,
        1.1216621398925781,
        -2.6966423988342285,
        1.969643473625183,
        -1.881388545036316,
        1.5589115619659424,
        -0.22181344032287598,
        0.8739335536956787
      ],
      "label": 0,
      "noiseless_label": 0,
      "angles": {
        "0": {
          "1": 1.2985780239105225,
          "2": 2.6961748600006104,
          "3": -1.0682971477508545
        },
        "1": {
          "1": 0.397501677274704,
          "2": 0.9682222008705139,
          "3": 3.03462553024292,
          "4": 1.1216621398925781
        },
        "2": {
          "1": 0.9019807577133179,
          "2": 2.412947177886963,
          "3": -0.8278114795684814,
          "4": -2.6966423988342285
        },
        "3": {
          "1": -2.4219653606414795,
          "2": 2.4419291019439697,
          "3": 0.06282638758420944,
          "4": 1.969643473625183
        }
      },
      "predicted_label_pennylane": 0,
      "sigmoid(expval)_pennylane": 0.4970967815493997,
      "tomography": [
        [
          0.015535447961229618,
          0.007386449485802082
        ],
        [
          -0.00457733237355127,
          0.04899734993114603
        ],
        [
          -0.011707717653897325,
          0.012876050692989775
        ],
        [
          0.04565027392198262,
          -0.01986584684506331
        ],
        [
          0.06834771223226085,
          0.07019195476811979
        ],
        [
          -0.12141245494091474,
          0.2526075747204958
        ],
        [
          -0.019972474127693172,
          0.09708228747486555
        ],
        [
          0.16597610779955702,
          -0.2298899264614423
        ],
        [
          -0.019573629925544622,
          -0.030500872132904044
        ],
        [
          0.06270917029389451,
          -0.08256224650377351
        ],
        [
          0.03527238987759525,
          -0.010007640494168097
        ],
        [
          -0.10377282012812367,
          -0.015256318333369018
        ],
        [
          -0.13020474720605518,
          0.16015614809748632
        ],
        [
          -0.5582423241894066,
          -0.19242102075587555
        ],
        [
          -0.20803058218500003,
          -0.01810179108554509
        ],
        [
          0.5215787201823567,
          0.2912200463832371
        ]
      ],
      "qibo_sigmoid_expval": 0.5199893401555818,
      "qibo_predicted_label": 1,
      "qibo_correct": false
    },
    "22": {
      "orig_angles": [
        1.0784149169921875,
        2.4716336727142334,
        0.6547181606292725,
        1.286895513534546,
        0.9019807577133179,
        2.412947177886963,
        -2.4219653606414795,
        2.4419291019439697,
        -1.0682971477508545,
        3.03462553024292,
        -0.8278114795684814,
        0.06282638758420944,
        1.1216621398925781,
        -2.6966423988342285,
        1.969643473625183,
        -1.881388545036316,
        1.5589115619659424,
        -0.22181344032287598,
        0.8739335536956787,
        2.3603546619415283,
        1.2691508531570435
      ],
      "input": [
        1.0784149169921875,
        2.4716336727142334,
        0.6547181606292725,
        1.286895513534546,
        2.3603546619415283,
        1.2691508531570435
      ],
      "weights": [
        0.9019807577133179,
        2.412947177886963,
        -2.4219653606414795,
        2.4419291019439697,
        -1.0682971477508545,
        3.03462553024292,
        -0.8278114795684814,
        0.06282638758420944,
        1.1216621398925781,
        -2.6966423988342285,
        1.969643473625183,
        -1.881388545036316,
        1.5589115619659424,
        -0.22181344032287598,
        0.8739335536956787
      ],
      "label": 0,
      "noiseless_label": 0,
      "angles": {
        "0": {
          "1": 1.0784149169921875,
          "2": 2.4716336727142334,
          "3": -1.0682971477508545
        },
        "1": {
          "1": 0.6547181606292725,
          "2": 1.286895513534546,
          "3": 3.03462553024292,
          "4": 1.1216621398925781
        },
        "2": {
          "1": 0.9019807577133179,
          "2": 2.412947177886963,
          "3": -0.8278114795684814,
          "4": -2.6966423988342285
        },
        "3": {
          "1": -2.4219653606414795,
          "2": 2.4419291019439697,
          "3": 0.06282638758420944,
          "4": 1.969643473625183
        }
      },
      "predicted_label_pennylane": 0,
      "sigmoid(expval)_pennylane": 0.49709678154939974,
      "tomography": [
        [
          0.033163232352390874,
          0.022734688466970798
        ],
        [
          -0.02848896156830063,
          0.11144052973196092
        ],
        [
          -0.03173799536439195,
          0.02544318309445067
        ],
        [
          0.11265409486699429,
          -0.029164573882016175
        ],
        [
          0.09074326156792878,
          0.08302397670893458
        ],
        [
          -0.1338783652628802,
          0.32538725625665665
        ],
        [
          -0.018002724635221547,
          0.12312066252999754
        ],
        [
          0.1913754448800089,
          -0.3001414549409907
        ],
        [
          -0.027647935222221233,
          -0.05305167817432238
        ],
        [
          0.11536026463984558,
          -0.12641689929447122
        ],
        [
          0.05947494620310502,
          -0.01121247566096377
        ],
        [
          -0.168337064650747,
          -0.04049839894613931
        ],
        [
          -0.09687883570253827,
          0.15524994126929367
        ],
        [
          -0.5123100008292198,
          -0.10770753814004921
        ],
        [
          -0.18500195915461973,
          0.0070185924312070325
        ],
        [
          0.4909529731381333,
          0.19866503319651707
        ]
      ],
      "qibo_sigmoid_expval": 0.5049998333399998,
      "qibo_predicted_label": 1,
      "qibo_correct": false
    },
    "23": {
      "orig_angles": [
        0.7927444577217102,
        2.3028171062469482,
        1.3135756254196167,
        1.9692717790603638,
        0.9019807577133179,
        2.412947177886963,
        -2.4219653606414795,
        2.4419291019439697,
        -1.0682971477508545,
        3.03462553024292,
        -0.8278114795684814,
        0.06282638758420944,
        1.1216621398925781,
        -2.6966423988342285,
        1.969643473625183,
        -1.881388545036316,
        1.5589115619659424,
        -0.22181344032287598,
        0.8739335536956787,
        2.312330484390259,
        1.8801296949386597
      ],
      "input": [
        0.7927444577217102,
        2.3028171062469482,
        1.3135756254196167,
        1.9692717790603638,
        2.312330484390259,
        1.8801296949386597
      ],
      "weights": [
        0.9019807577133179,
        2.412947177886963,
        -2.4219653606414795,
        2.4419291019439697,
        -1.0682971477508545,
        3.03462553024292,
        -0.8278114795684814,
        0.06282638758420944,
        1.1216621398925781,
        -2.6966423988342285,
        1.969643473625183,
        -1.881388545036316,
        1.5589115619659424,
        -0.22181344032287598,
        0.8739335536956787
      ],
      "label": 0,
      "noiseless_label": 0,
      "angles": {
        "0": {
          "1": 0.7927444577217102,
          "2": 2.3028171062469482,
          "3": -1.0682971477508545
        },
        "1": {
          "1": 1.3135756254196167,
          "2": 1.9692717790603638,
          "3": 3.03462553024292,
          "4": 1.1216621398925781
        },
        "2": {
          "1": 0.9019807577133179,
          "2": 2.412947177886963,
          "3": -0.8278114795684814,
          "4": -2.6966423988342285
        },
        "3": {
          "1": -2.4219653606414795,
          "2": 2.4419291019439697,
          "3": 0.06282638758420944,
          "4": 1.969643473625183
        }
      },
      "predicted_label_pennylane": 0,
      "sigmoid(expval)_pennylane": 0.49709678154939974,
      "tomography": [
        [
          0.06489745612936447,
          0.07442367898226866
        ],
        [
          -0.13617235846566444,
          0.24749667400721553
        ],
        [
          -0.09109183880996367,
          0.04101180617435358
        ],
        [
          0.28578425132933083,
          -0.0001746025326429812
        ],
        [
          0.11154844199889408,
          0.05080922110608982
        ],
        [
          -0.026882285971758846,
          0.3496244212074535
        ],
        [
          0.020784528939916565,
          0.1222525973641749
        ],
        [
          0.0891506718708517,
          -0.34336783967623874
        ],
        [
          -0.016589171300573115,
          -0.10560372435317533
        ],
        [
          0.26741722845266336,
          -0.1483514308942341
        ],
        [
          0.10711528150659716,
          0.01490616568495965
        ],
        [
          -0.2620107722819218,
          -0.16452384763815905
        ],
        [
          -0.04126234500296294,
          0.12611821531686546
        ],
        [
          -0.37938610384908733,
          0.01308528374911494
        ],
        [
          -0.12903264174261372,
          0.0370505118341269
        ],
        [
          0.3801363141461632,
          0.054660161532765816
        ]
      ],
      "qibo_sigmoid_expval": 0.5116645498437119,
      "qibo_predicted_label": 1,
      "qibo_correct": false
    },
    "24": {
      "orig_angles": [
        0.9300369620323181,
        2.3406851291656494,
        1.7682862281799316,
        1.7776761054992676,
        0.9019807577133179,
        2.412947177886963,
        -2.4219653606414795,
        2.4419291019439697,
        -1.0682971477508545,
        3.03462553024292,
        -0.8278114795684814,
        0.06282638758420944,
        1.1216621398925781,
        -2.6966423988342285,
        1.969643473625183,
        -1.881388545036316,
        1.5589115619659424,
        -0.22181344032287598,
        0.8739335536956787,
        2.0564470291137695,
        1.0498276948928833
      ],
      "input": [
        0.9300369620323181,
        2.3406851291656494,
        1.7682862281799316,
        1.7776761054992676,
        2.0564470291137695,
        1.0498276948928833
      ],
      "weights": [
        0.9019807577133179,
        2.412947177886963,
        -2.4219653606414795,
        2.4419291019439697,
        -1.0682971477508545,
        3.03462553024292,
        -0.8278114795684814,
        0.06282638758420944,
        1.1216621398925781,
        -2.6966423988342285,
        1.969643473625183,
        -1.881388545036316,
        1.5589115619659424,
        -0.22181344032287598,
        0.8739335536956787
      ],
      "label": 0,
      "noiseless_label": 0,
      "angles": {
        "0": {
          "1": 0.9300369620323181,
          "2": 2.3406851291656494,
          "3": -1.0682971477508545
        },
        "1": {
          "1": 1.7682862281799316,
          "2": 1.7776761054992676,
          "3": 3.03462553024292,
          "4": 1.1216621398925781
        },
        "2": {
          "1": 0.9019807577133179,
          "2": 2.412947177886963,
          "3": -0.8278114795684814,
          "4": -2.6966423988342285
        },
        "3": {
          "1": -2.4219653606414795,
          "2": 2.4419291019439697,
          "3": 0.06282638758420944,
          "4": 1.969643473625183
        }
      },
      "predicted_label_pennylane": 0,
      "sigmoid(expval)_pennylane": 0.49709678154939974,
      "tomography": [
        [
          0.08253343725547799,
          0.07914200008718755
        ],
        [
          -0.13151706324550422,
          0.2995153163858898
        ],
        [
          -0.10083213685715457,
          0.05670412710480005
        ],
        [
          0.3296040298921065,
          -0.02969635376247065
        ],
        [
          0.07697730996654314,
          0.04994124413879178
        ],
        [
          -0.05852513966613841,
          0.25589088369588847
        ],
        [
          0.0018840244297970293,
          0.09281129629668028
        ],
        [
          0.10393725318879607,
          -0.24437999803672775
        ],
        [
          -0.04314015905332214,
          -0.13340406473191277
        ],
        [
          0.31601401180329103,
          -0.24700544648132322
        ],
        [
          0.14181901929307728,
          -0.002649217025975592
        ],
        [
          -0.3731521478383885,
          -0.15941907953646936
        ],
        [
          -0.04346004698910915,
          0.10377656847961796
        ],
        [
          -0.32152171109563793,
          -0.014775441290364733
        ],
        [
          -0.1115723345640275,
          0.02252605985364977
        ],
        [
          0.31754262583446285,
          0.07208025159809726
        ]
      ],
      "qibo_sigmoid_expval": 0.4966667160485049,
      "qibo_predicted_label": 0,
      "qibo_correct": true
    },
    "25": {
      "orig_angles": [
        0.9551142454147339,
        2.375796318054199,
        0.1376708298921585,
        1.4600504636764526,
        0.9019807577133179,
        2.412947177886963,
        -2.4219653606414795,
        2.4419291019439697,
        -1.0682971477508545,
        3.03462553024292,
        -0.8278114795684814,
        0.06282638758420944,
        1.1216621398925781,
        -2.6966423988342285,
        1.969643473625183,
        -1.881388545036316,
        1.5589115619659424,
        -0.22181344032287598,
        0.8739335536956787,
        2.194312810897827,
        0.6993674039840698
      ],
      "input": [
        0.9551142454147339,
        2.375796318054199,
        0.1376708298921585,
        1.4600504636764526,
        2.194312810897827,
        0.6993674039840698
      ],
      "weights": [
        0.9019807577133179,
        2.412947177886963,
        -2.4219653606414795,
        2.4419291019439697,
        -1.0682971477508545,
        3.03462553024292,
        -0.8278114795684814,
        0.06282638758420944,
        1.1216621398925781,
        -2.6966423988342285,
        1.969643473625183,
        -1.881388545036316,
        1.5589115619659424,
        -0.22181344032287598,
        0.8739335536956787
      ],
      "label": 0,
      "noiseless_label": 0,
      "angles": {
        "0": {
          "1": 0.9551142454147339,
          "2": 2.375796318054199,
          "3": -1.0682971477508545
        },
        "1": {
          "1": 0.1376708298921585,
          "2": 1.4600504636764526,
          "3": 3.03462553024292,
          "4": 1.1216621398925781
        },
        "2": {
          "1": 0.9019807577133179,
          "2": 2.412947177886963,
          "3": -0.8278114795684814,
          "4": -2.6966423988342285
        },
        "3": {
          "1": -2.4219653606414795,
          "2": 2.4419291019439697,
          "3": 0.06282638758420944,
          "4": 1.969643473625183
        }
      },
      "predicted_label_pennylane": 0,
      "sigmoid(expval)_pennylane": 0.49709678154939974,
      "tomography": [
        [
          0.0037102587488933095,
          0.011168564364184893
        ],
        [
          -0.02635976430121496,
          0.020944081130130947
        ],
        [
          -0.011901969464329736,
          0.000317234353443354
        ],
        [
          0.03142759525869587,
          0.013131404137800395
        ],
        [
          0.11283461038152831,
          0.08742424579252125
        ],
        [
          -0.12399005988227077,
          0.3890633464741383
        ],
        [
          -0.009145259906925232,
          0.14411729292718023
        ],
        [
          0.19288964756232319,
          -0.3653158948619251
        ],
        [
          0.002671108055892924,
          -0.014754274535531606
        ],
        [
          0.04226460526465725,
          -0.0073234410433768975
        ],
        [
          0.013502468649820205,
          0.006913022452697798
        ],
        [
          -0.02712377509970715,
          -0.033874279279696995
        ],
        [
          -0.0850244670690036,
          0.160760050636641
        ],
        [
          -0.5154638472547107,
          -0.07044393461128554
        ],
        [
          -0.18288574495880464,
          0.020073272192679542
        ],
        [
          0.5007422911438196,
          0.1621197749551615
        ]
      ],
      "qibo_sigmoid_expval": 0.48001065984441826,
      "qibo_predicted_label": 0,
      "qibo_correct": true
    },
    "26": {
      "orig_angles": [
        0.7143644094467163,
        2.1016910076141357,
        0.9608687162399292,
        1.7448080778121948,
        0.9019807577133179,
        2.412947177886963,
        -2.4219653606414795,
        2.4419291019439697,
        -1.0682971477508545,
        3.03462553024292,
        -0.8278114795684814,
        0.06282638758420944,
        1.1216621398925781,
        -2.6966423988342285,
        1.969643473625183,
        -1.881388545036316,
        1.5589115619659424,
        -0.22181344032287598,
        0.8739335536956787,
        2.1986567974090576,
        1.6301202774047852
      ],
      "input": [
        0.7143644094467163,
        2.1016910076141357,
        0.9608687162399292,
        1.7448080778121948,
        2.1986567974090576,
        1.6301202774047852
      ],
      "weights": [
        0.9019807577133179,
        2.412947177886963,
        -2.4219653606414795,
        2.4419291019439697,
        -1.0682971477508545,
        3.03462553024292,
        -0.8278114795684814,
        0.06282638758420944,
        1.1216621398925781,
        -2.6966423988342285,
        1.969643473625183,
        -1.881388545036316,
        1.5589115619659424,
        -0.22181344032287598,
        0.8739335536956787
      ],
      "label": 0,
      "noiseless_label": 0,
      "angles": {
        "0": {
          "1": 0.7143644094467163,
          "2": 2.1016910076141357,
          "3": -1.0682971477508545
        },
        "1": {
          "1": 0.9608687162399292,
          "2": 1.7448080778121948,
          "3": 3.03462553024292,
          "4": 1.1216621398925781
        },
        "2": {
          "1": 0.9019807577133179,
          "2": 2.412947177886963,
          "3": -0.8278114795684814,
          "4": -2.6966423988342285
        },
        "3": {
          "1": -2.4219653606414795,
          "2": 2.4419291019439697,
          "3": 0.06282638758420944,
          "4": 1.969643473625183
        }
      },
      "predicted_label_pennylane": 0,
      "sigmoid(expval)_pennylane": 0.49709678154939974,
      "tomography": [
        [
          0.05154963964038614,
          0.06144957141609672
        ],
        [
          -0.1144330480526814,
          0.19888544935164318
        ],
        [
          -0.0746154182357612,
          0.03189251832449493
        ],
        [
          0.23209721076468626,
          0.004295865724424017
        ],
        [
          0.12164892096205018,
          0.08742023506137533
        ],
        [
          -0.11531701460275337,
          0.4127403726170528
        ],
        [
          -0.00413769026186471,
          0.15149577597218677
        ],
        [
          0.1884773252560656,
          -0.3904414961860869
        ],
        [
          -0.013240284188200554,
          -0.07335406942856965
        ],
        [
          0.1840648135623987,
          -0.10766077247957372
        ],
        [
          0.07490758794313251,
          0.00869141650301667
        ],
        [
          -0.18526092831640675,
          -0.11053324116703345
        ],
        [
          -0.06305143776747009,
          0.12411747315873342
        ],
        [
          -0.3954240559481039,
          -0.047420613494656205
        ],
        [
          -0.13972777480557902,
          0.017669279351981364
        ],
        [
          0.38531170632627626,
          0.11777488040885621
        ]
      ],
      "qibo_sigmoid_expval": 0.4667159617488687,
      "qibo_predicted_label": 0,
      "qibo_correct": true
    },
    "27": {
      "orig_angles": [
        0.9874697327613831,
        2.3684821128845215,
        1.2046892642974854,
        2.125969648361206,
        0.9019807577133179,
        2.412947177886963,
        -2.4219653606414795,
        2.4419291019439697,
        -1.0682971477508545,
        3.03462553024292,
        -0.8278114795684814,
        0.06282638758420944,
        1.1216621398925781,
        -2.6966423988342285,
        1.969643473625183,
        -1.881388545036316,
        1.5589115619659424,
        -0.22181344032287598,
        0.8739335536956787,
        2.0758516788482666,
        0.718437135219574
      ],
      "input": [
        0.9874697327613831,
        2.3684821128845215,
        1.2046892642974854,
        2.125969648361206,
        2.0758516788482666,
        0.718437135219574
      ],
      "weights": [
        0.9019807577133179,
        2.412947177886963,
        -2.4219653606414795,
        2.4419291019439697,
        -1.0682971477508545,
        3.03462553024292,
        -0.8278114795684814,
        0.06282638758420944,
        1.1216621398925781,
        -2.6966423988342285,
        1.969643473625183,
        -1.881388545036316,
        1.5589115619659424,
        -0.22181344032287598,
        0.8739335536956787
      ],
      "label": 0,
      "noiseless_label": 0,
      "angles": {
        "0": {
          "1": 0.9874697327613831,
          "2": 2.3684821128845215,
          "3": -1.0682971477508545
        },
        "1": {
          "1": 1.2046892642974854,
          "2": 2.125969648361206,
          "3": 3.03462553024292,
          "4": 1.1216621398925781
        },
        "2": {
          "1": 0.9019807577133179,
          "2": 2.412947177886963,
          "3": -0.8278114795684814,
          "4": -2.6966423988342285
        },
        "3": {
          "1": -2.4219653606414795,
          "2": 2.4419291019439697,
          "3": 0.06282638758420944,
          "4": 1.969643473625183
        }
      },
      "predicted_label_pennylane": 0,
      "sigmoid(expval)_pennylane": 0.49709678154939974,
      "tomography": [
        [
          0.04757051896872507,
          0.06846970837450497
        ],
        [
          -0.1372041827532511,
          0.19509398919671472
        ],
        [
          -0.08024575513012046,
          0.025981073604424965
        ],
        [
          0.23985511243757834,
          0.026323967456270844
        ],
        [
          0.10621578005908565,
          0.04152148470620856
        ],
        [
          -0.0071700660206165945,
          0.32616989550207387
        ],
        [
          0.025534167274140047,
          0.11251424150883631
        ],
        [
          0.0653359778402306,
          -0.3235283629008966
        ],
        [
          -0.014425152583857091,
          -0.10762622624779647
        ],
        [
          0.27497767410474744,
          -0.14452508510958856
        ],
        [
          0.10843895806063952,
          0.017594573894106014
        ],
        [
          -0.26231152628891347,
          -0.17309111431403304
        ],
        [
          -0.025728379726724482,
          0.14628946724313133
        ],
        [
          -0.41831318305643017,
          0.07464292370790082
        ],
        [
          -0.13710405325000533,
          0.061510017093243205
        ],
        [
          0.4298840479381534,
          0.00030505863828397817
        ]
      ],
      "qibo_sigmoid_expval": 0.5,
      "qibo_predicted_label": 0,
      "qibo_correct": true
    },
    "28": {
      "orig_angles": [
        1.068065881729126,
        2.3932533264160156,
        1.4416930675506592,
        1.7710627317428589,
        0.9019807577133179,
        2.412947177886963,
        -2.4219653606414795,
        2.4419291019439697,
        -1.0682971477508545,
        3.03462553024292,
        -0.8278114795684814,
