{
  "args": {
    "n_input_params": 6,
    "num_qubits": 4,
    "num_layers": 1,
    "initial_number": null,
    "simplify_circuit": false,
    "add_rbs_gates": false,
    "remove_entanglement": false,
    "seed": 42,
    "max_epochs": 20,
    "learning_rate": 0.0005,
    "strategy": "ale_one",
    "class_strategy": "binary",
    "dataset": "yeast",
    "output_qubit": 0,
    "requires_embedding": false,
    "hidden_dim": 128,
    "batch_size": 32,
    "patience": 10,
    "k_folds": 8,
    "debug_k_fold": true,
    "debug_tuning": true,
    "n_trials": 30,
    "n_jobs": 10,
    "output_size": 1
  },
  "accuracy": 0.37988826815642457,
  "qc_configurations": {
    "0": {
      "orig_angles": [
        1.0161617994308472,
        1.8517297506332397,
        1.0082182884216309,
        1.1170649528503418,
        2.4963293075561523,
        2.1027238368988037,
        1.9421643018722534,
        1.4942784309387207,
        -0.583864152431488,
        -1.4777590036392212,
        2.613046407699585,
        2.258571147918701,
        -2.5087854862213135,
        2.3550021648406982,
        -2.560384750366211
      ],
      "input": [
        1.0161617994308472,
        1.8517297506332397,
        1.0082182884216309,
        1.1170649528503418,
        2.4963293075561523,
        2.1027238368988037
      ],
      "weights": [
        0.5275135040283203,
        2.40683913230896,
        -1.6032309532165527,
        1.9585349559783936,
        -2.065887451171875,
        -2.775766372680664,
        1.9421643018722534,
        1.4942784309387207,
        -0.583864152431488,
        -1.4777590036392212,
        2.613046407699585,
        2.258571147918701,
        -2.5087854862213135,
        2.3550021648406982,
        -2.560384750366211
      ],
      "label": 0,
      "noiseless_label": 1,
      "angles": {
        "0": {
          "1": 1.0161617994308472,
          "2": 1.8517297506332397,
          "3": -0.583864152431488
        },
        "1": {
          "1": 1.0082182884216309,
          "2": 1.1170649528503418,
          "3": -1.4777590036392212,
          "4": -2.5087854862213135
        },
        "2": {
          "1": 2.4963293075561523,
          "2": 2.1027238368988037,
          "3": 2.613046407699585,
          "4": 2.3550021648406982
        },
        "3": {
          "1": 1.9421643018722534,
          "2": 1.4942784309387207,
          "3": 2.258571147918701,
          "4": -2.560384750366211
        }
      },
      "predicted_label_pennylane": 1,
      "sigmoid(expval)_pennylane": 0.5767547094229263,
      "tomography": [
        [
          -0.42622256534004943,
          0.2644721197898666
        ],
        [
          -0.14916665045976232,
          0.39279975629969266
        ],
        [
          -0.06973594625265901,
          -0.1283019814158785
        ],
        [
          -0.09016556534852685,
          0.0826586479403201
        ],
        [
          -0.04179072872277699,
          -0.3183467388345939
        ],
        [
          -0.18972578440944382,
          -0.19062460706553813
        ],
        [
          0.006598057707992114,
          0.09323960024171202
        ],
        [
          0.07444990107129001,
          -0.024240799401333384
        ],
        [
          -0.21018230050212136,
          0.2975034810548941
        ],
        [
          0.011421271008259806,
          0.3049058696256165
        ],
        [
          -0.08295038840310187,
          -0.06606450759837791
        ],
        [
          -0.03690304584079297,
          0.0807984616095304
        ],
        [
          -0.2272468659313965,
          0.05218279586014594
        ],
        [
          -0.12470659996320421,
          0.15030885925206017
        ],
        [
          0.06694704518548854,
          -0.011205156898389738
        ],
        [
          -0.02266213146048339,
          -0.052146351646708555
        ]
      ],
      "qibo_sigmoid_expval": 0.5760714244567121,
      "qibo_predicted_label": 1,
      "qibo_correct": false
    },
    "1": {
      "orig_angles": [
        1.3403338193893433,
        1.7088693380355835,
        0.7122457027435303,
        0.6972253322601318,
        2.352515459060669,
        2.623830556869507,
        1.9421643018722534,
        1.4942784309387207,
        -0.583864152431488,
        -1.4777590036392212,
        2.613046407699585,
        2.258571147918701,
        -2.5087854862213135,
        2.3550021648406982,
        -2.560384750366211
      ],
      "input": [
        1.3403338193893433,
        1.7088693380355835,
        0.7122457027435303,
        0.6972253322601318,
        2.352515459060669,
        2.623830556869507
      ],
      "weights": [
        0.5275135040283203,
        2.40683913230896,
        -1.6032309532165527,
        1.9585349559783936,
        -2.065887451171875,
        -2.775766372680664,
        1.9421643018722534,
        1.4942784309387207,
        -0.583864152431488,
        -1.4777590036392212,
        2.613046407699585,
        2.258571147918701,
        -2.5087854862213135,
        2.3550021648406982,
        -2.560384750366211
      ],
      "label": 0,
      "noiseless_label": 1,
      "angles": {
        "0": {
          "1": 1.3403338193893433,
          "2": 1.7088693380355835,
          "3": -0.583864152431488
        },
        "1": {
          "1": 0.7122457027435303,
          "2": 0.6972253322601318,
          "3": -1.4777590036392212,
          "4": -2.5087854862213135
        },
        "2": {
          "1": 2.352515459060669,
          "2": 2.623830556869507,
          "3": 2.613046407699585,
          "4": 2.3550021648406982
        },
        "3": {
          "1": 1.9421643018722534,
          "2": 1.4942784309387207,
          "3": 2.258571147918701,
          "4": -2.560384750366211
        }
      },
      "predicted_label_pennylane": 1,
      "sigmoid(expval)_pennylane": 0.5291471022645325,
      "tomography": [
        [
          -0.4915897327343439,
          0.07350156032023092
        ],
        [
          -0.28980035696610784,
          0.29894286321906594
        ],
        [
          -0.07457981704956847,
          -0.0694263914129234
        ],
        [
          -0.04133036443172412,
          0.07467547137687838
        ],
        [
          0.17426470697261603,
          -0.19355995556702876
        ],
        [
          0.017539134729865784,
          -0.21745731000966861
        ],
        [
          -0.0033412639012512894,
          0.053285712329679574
        ],
        [
          0.04398748330179751,
          -0.008072745286700166
        ],
        [
          -0.29350576582718274,
          0.33056132472029043
        ],
        [
          -0.027222387998076802,
          0.369286304877759
        ],
        [
          -0.09049044959174415,
          -0.0048313301517252105
        ],
        [
          0.014394305251482869,
          0.07452943560196065
        ],
        [
          -0.21822667845620497,
          -0.07765747685864577
        ],
        [
          -0.18474000232451213,
          0.05930446306758281
        ],
        [
          0.04494437446312861,
          -0.015318413057310404
        ],
        [
          -0.021550620443809444,
          -0.03342963594516553
        ]
      ],
      "qibo_sigmoid_expval": 0.548183344550421,
      "qibo_predicted_label": 1,
      "qibo_correct": false
    },
    "2": {
      "orig_angles": [
        1.5255430936813354,
        1.4336189031600952,
        0.6851515769958496,
        1.2368007898330688,
        2.0457799434661865,
        2.0014259815216064,
        1.9421643018722534,
        1.4942784309387207,
        -0.583864152431488,
        -1.4777590036392212,
        2.613046407699585,
        2.258571147918701,
        -2.5087854862213135,
        2.3550021648406982,
        -2.560384750366211
      ],
      "input": [
        1.5255430936813354,
        1.4336189031600952,
        0.6851515769958496,
        1.2368007898330688,
        2.0457799434661865,
        2.0014259815216064
      ],
      "weights": [
        0.5275135040283203,
        2.40683913230896,
        -1.6032309532165527,
        1.9585349559783936,
        -2.065887451171875,
        -2.775766372680664,
        1.9421643018722534,
        1.4942784309387207,
        -0.583864152431488,
        -1.4777590036392212,
        2.613046407699585,
        2.258571147918701,
        -2.5087854862213135,
        2.3550021648406982,
        -2.560384750366211
      ],
      "label": 1,
      "noiseless_label": 1,
      "angles": {
        "0": {
          "1": 1.5255430936813354,
          "2": 1.4336189031600952,
          "3": -0.583864152431488
        },
        "1": {
          "1": 0.6851515769958496,
          "2": 1.2368007898330688,
          "3": -1.4777590036392212,
          "4": -2.5087854862213135
        },
        "2": {
          "1": 2.0457799434661865,
          "2": 2.0014259815216064,
          "3": 2.613046407699585,
          "4": 2.3550021648406982
        },
        "3": {
          "1": 1.9421643018722534,
          "2": 1.4942784309387207,
          "3": 2.258571147918701,
          "4": -2.560384750366211
        }
      },
      "predicted_label_pennylane": 1,
      "sigmoid(expval)_pennylane": 0.5282321553431281,
      "tomography": [
        [
          -0.3783361356295987,
          0.14914464761308105
        ],
        [
          -0.17595094340293693,
          0.2916871149539656
        ],
        [
          -0.1333188747717211,
          -0.160958524724559
        ],
        [
          -0.10383564269841229,
          0.1409511275330737
        ],
        [
          0.11037432012791513,
          -0.2848719169322595
        ],
        [
          -0.07142521922723166,
          -0.2457363437779169
        ],
        [
          -0.008754270188814424,
          0.1567651474035845
        ],
        [
          0.12919222465879215,
          -0.024624088714962758
        ],
        [
          -0.06054645746603002,
          0.35794099279589514
        ],
        [
          0.1417517448817472,
          0.2690258247035276
        ],
        [
          -0.18451177625662227,
          0.027636477429081957
        ],
        [
          0.059820487044775994,
          0.1443769833206025
        ],
        [
          -0.2559117206570235,
          0.09425661206082633
        ],
        [
          -0.12238604544638204,
          0.1928905563120916
        ],
        [
          0.11014073247566475,
          -0.08667944551243963
        ],
        [
          -0.0927534035941072,
          -0.07197349493108668
        ]
      ],
      "qibo_sigmoid_expval": 0.5432251644818576,
      "qibo_predicted_label": 1,
      "qibo_correct": true
    },
    "3": {
      "orig_angles": [
        1.1335970163345337,
        1.9580225944519043,
        1.4393855333328247,
        1.0531266927719116,
        2.0202629566192627,
        1.4238741397857666,
        1.9421643018722534,
        1.4942784309387207,
        -0.583864152431488,
        -1.4777590036392212,
        2.613046407699585,
        2.258571147918701,
        -2.5087854862213135,
        2.3550021648406982,
        -2.560384750366211
      ],
      "input": [
        1.1335970163345337,
        1.9580225944519043,
        1.4393855333328247,
        1.0531266927719116,
        2.0202629566192627,
        1.4238741397857666
      ],
      "weights": [
        0.5275135040283203,
        2.40683913230896,
        -1.6032309532165527,
        1.9585349559783936,
        -2.065887451171875,
        -2.775766372680664,
        1.9421643018722534,
        1.4942784309387207,
        -0.583864152431488,
        -1.4777590036392212,
        2.613046407699585,
        2.258571147918701,
        -2.5087854862213135,
        2.3550021648406982,
        -2.560384750366211
      ],
      "label": 0,
      "noiseless_label": 1,
      "angles": {
        "0": {
          "1": 1.1335970163345337,
          "2": 1.9580225944519043,
          "3": -0.583864152431488
        },
        "1": {
          "1": 1.4393855333328247,
          "2": 1.0531266927719116,
          "3": -1.4777590036392212,
          "4": -2.5087854862213135
        },
        "2": {
          "1": 2.0202629566192627,
          "2": 1.4238741397857666,
          "3": 2.613046407699585,
          "4": 2.3550021648406982
        },
        "3": {
          "1": 1.9421643018722534,
          "2": 1.4942784309387207,
          "3": 2.258571147918701,
          "4": -2.560384750366211
        }
      },
      "predicted_label_pennylane": 1,
      "sigmoid(expval)_pennylane": 0.5410765580605464,
      "tomography": [
        [
          -0.3158539753183488,
          0.26126171056818753
        ],
        [
          -0.07734235543517962,
          0.33452945407745177
        ],
        [
          -0.15287021804622739,
          -0.2557038102225339
        ],
        [
          -0.17688677453584425,
          0.17602529602586997
        ],
        [
          -0.1605963095864631,
          -0.17355172684352954
        ],
        [
          -0.1951553455440198,
          -0.033829946144243256
        ],
        [
          0.0958997569854812,
          0.14260867142346567
        ],
        [
          0.09649685740658184,
          -0.10682139088507675
        ],
        [
          -0.16509549319207717,
          0.3053698515490991
        ],
        [
          0.04543016957937873,
          0.2872102291261966
        ],
        [
          -0.20117494142432651,
          -0.15226308340817743
        ],
        [
          -0.0830293792185745,
          0.19434447022157414
        ],
        [
          -0.1358011180546734,
          0.14716814872912767
        ],
        [
          -0.01553416093664816,
          0.16701807739466565
        ],
        [
          0.11399598855251171,
          -0.09048261058719119
        ],
        [
          -0.09662520058299716,
          -0.07433706160504881
        ]
      ],
      "qibo_sigmoid_expval": 0.5760714244567121,
      "qibo_predicted_label": 1,
      "qibo_correct": false
    },
    "4": {
      "orig_angles": [
        1.0378056764602661,
        1.840611457824707,
        0.8675952553749084,
        1.0940861701965332,
        1.795117974281311,
        1.689319372177124,
        1.9421643018722534,
        1.4942784309387207,
        -0.583864152431488,
        -1.4777590036392212,
        2.613046407699585,
        2.258571147918701,
        -2.5087854862213135,
        2.3550021648406982,
        -2.560384750366211
      ],
      "input": [
        1.0378056764602661,
        1.840611457824707,
        0.8675952553749084,
        1.0940861701965332,
        1.795117974281311,
        1.689319372177124
      ],
      "weights": [
        0.5275135040283203,
        2.40683913230896,
        -1.6032309532165527,
        1.9585349559783936,
        -2.065887451171875,
        -2.775766372680664,
        1.9421643018722534,
        1.4942784309387207,
        -0.583864152431488,
        -1.4777590036392212,
        2.613046407699585,
        2.258571147918701,
        -2.5087854862213135,
        2.3550021648406982,
        -2.560384750366211
      ],
      "label": 1,
      "noiseless_label": 1,
      "angles": {
        "0": {
          "1": 1.0378056764602661,
          "2": 1.840611457824707,
          "3": -0.583864152431488
        },
        "1": {
          "1": 0.8675952553749084,
          "2": 1.0940861701965332,
          "3": -1.4777590036392212,
          "4": -2.5087854862213135
        },
        "2": {
          "1": 1.795117974281311,
          "2": 1.689319372177124,
          "3": 2.613046407699585,
          "4": 2.3550021648406982
        },
        "3": {
          "1": 1.9421643018722534,
          "2": 1.4942784309387207,
          "3": 2.258571147918701,
          "4": -2.560384750366211
        }
      },
      "predicted_label_pennylane": 1,
      "sigmoid(expval)_pennylane": 0.5738020598320086,
      "tomography": [
        [
          -0.32389747670667285,
          0.25084315891695036
        ],
        [
          -0.08799468824882394,
          0.33168619751197176
        ],
        [
          -0.23862213225407428,
          -0.20906988777463636
        ],
        [
          -0.12162055308226599,
          0.23628325159388436
        ],
        [
          -0.020897937137227006,
          -0.2646366076149657
        ],
        [
          -0.14850331427009839,
          -0.1655032928555629
        ],
        [
          0.0545887223222498,
          0.19819513749510623
        ],
        [
          0.1500419983533073,
          -0.0844978717482319
        ],
        [
          -0.14202331408887406,
          0.2659355013799086
        ],
        [
          0.04072977915948271,
          0.24922970019265406
        ],
        [
          -0.22317012834900027,
          -0.0685877585508204
        ],
        [
          -0.01056422534648177,
          0.19528089629717024
        ],
        [
          -0.19165577266562944,
          0.03784093878270181
        ],
        [
          -0.10831281251842714,
          0.12266180162492137
        ],
        [
          0.14021717675068798,
          -0.05680198295565042
        ],
        [
          -0.07455825672742436,
          -0.10246900586108555
        ]
      ],
      "qibo_sigmoid_expval": 0.574442516811659,
      "qibo_predicted_label": 1,
      "qibo_correct": true
    },
    "5": {
      "orig_angles": [
        1.338496208190918,
        1.117822527885437,
        1.5374833345413208,
        1.631608009338379,
        2.017369031906128,
        1.6583865880966187,
        1.9421643018722534,
        1.4942784309387207,
        -0.583864152431488,
        -1.4777590036392212,
        2.613046407699585,
        2.258571147918701,
        -2.5087854862213135,
        2.3550021648406982,
        -2.560384750366211
      ],
      "input": [
        1.338496208190918,
        1.117822527885437,
        1.5374833345413208,
        1.631608009338379,
        2.017369031906128,
        1.6583865880966187
      ],
      "weights": [
        0.5275135040283203,
        2.40683913230896,
        -1.6032309532165527,
        1.9585349559783936,
        -2.065887451171875,
        -2.775766372680664,
        1.9421643018722534,
        1.4942784309387207,
        -0.583864152431488,
        -1.4777590036392212,
        2.613046407699585,
        2.258571147918701,
        -2.5087854862213135,
        2.3550021648406982,
        -2.560384750366211
      ],
      "label": 1,
      "noiseless_label": 1,
      "angles": {
        "0": {
          "1": 1.338496208190918,
          "2": 1.117822527885437,
          "3": -0.583864152431488
        },
        "1": {
          "1": 1.5374833345413208,
          "2": 1.631608009338379,
          "3": -1.4777590036392212,
          "4": -2.5087854862213135
        },
        "2": {
          "1": 2.017369031906128,
          "2": 1.6583865880966187,
          "3": 2.613046407699585,
          "4": 2.3550021648406982
        },
        "3": {
          "1": 1.9421643018722534,
          "2": 1.4942784309387207,
          "3": 2.258571147918701,
          "4": -2.560384750366211
        }
      },
      "predicted_label_pennylane": 1,
      "sigmoid(expval)_pennylane": 0.6051210100743735,
      "tomography": [
        [
          -0.36894403918341073,
          0.05879620855098783
        ],
        [
          -0.21565123079550944,
          0.22677781958319043
        ],
        [
          -0.04746971439595647,
          -0.23615327203307995
        ],
        [
          -0.18233598665892958,
          0.08639672685083724
        ],
        [
          -0.10666306420938523,
          -0.38104285465143334
        ],
        [
          -0.26478963780919296,
          -0.1993586083936027
        ],
        [
          0.078042159365763,
          0.24288993408311882
        ],
        [
          0.18162170956966858,
          -0.11261016418880812
        ],
        [
          -0.051537581140398,
          0.23110696996474347
        ],
        [
          0.08323979598844226,
          0.18002802633054069
        ],
        [
          -0.1502240844595947,
          -0.027193265356196955
        ],
        [
          0.00831240440087469,
          0.1276088744502688
        ],
        [
          -0.09989402572450692,
          0.23003052689905878
        ],
        [
          0.05050811586160123,
          0.2039057236694642
        ],
        [
          0.05873294692395745,
          -0.15064817041235826
        ],
        [
          -0.13433928897779582,
          -0.01723740112494837
        ]
      ],
      "qibo_sigmoid_expval": 0.6130141761393355,
      "qibo_predicted_label": 1,
      "qibo_correct": true
    },
    "6": {
      "orig_angles": [
        0.8292871713638306,
        2.142932653427124,
        0.6895155310630798,
        1.4018726348876953,
        2.356560230255127,
        1.7713698148727417,
        1.9421643018722534,
        1.4942784309387207,
        -0.583864152431488,
        -1.4777590036392212,
        2.613046407699585,
        2.258571147918701,
        -2.5087854862213135,
        2.3550021648406982,
        -2.560384750366211
      ],
      "input": [
        0.8292871713638306,
        2.142932653427124,
        0.6895155310630798,
        1.4018726348876953,
        2.356560230255127,
        1.7713698148727417
      ],
      "weights": [
        0.5275135040283203,
        2.40683913230896,
        -1.6032309532165527,
        1.9585349559783936,
        -2.065887451171875,
        -2.775766372680664,
        1.9421643018722534,
        1.4942784309387207,
        -0.583864152431488,
        -1.4777590036392212,
        2.613046407699585,
        2.258571147918701,
        -2.5087854862213135,
        2.3550021648406982,
        -2.560384750366211
      ],
      "label": 1,
      "noiseless_label": 1,
      "angles": {
        "0": {
          "1": 0.8292871713638306,
          "2": 2.142932653427124,
          "3": -0.583864152431488
        },
        "1": {
          "1": 0.6895155310630798,
          "2": 1.4018726348876953,
          "3": -1.4777590036392212,
          "4": -2.5087854862213135
        },
        "2": {
          "1": 2.356560230255127,
          "2": 1.7713698148727417,
          "3": 2.613046407699585,
          "4": 2.3550021648406982
        },
        "3": {
          "1": 1.9421643018722534,
          "2": 1.4942784309387207,
          "3": 2.258571147918701,
          "4": -2.560384750366211
        }
      },
      "predicted_label_pennylane": 1,
      "sigmoid(expval)_pennylane": 0.5850189497242513,
      "tomography": [
        [
          -0.20758250030831005,
          0.39045375544761984
        ],
        [
          0.0604262022504955,
          0.36544775631133275
        ],
        [
          -0.157589523640026,
          -0.11025162275510034
        ],
        [
          -0.057706744278979094,
          0.15041205078636202
        ],
        [
          -0.12876840290058056,
          -0.3461508924269958
        ],
        [
          -0.2617560184961267,
          -0.16489305516215025
        ],
        [
          0.036921876193768834,
          0.15632973567110603
        ],
        [
          0.11959045034696388,
          -0.061661816280216
        ],
        [
          -0.1205078280064347,
          0.28469240106073385
        ],
        [
          0.06458944199140235,
          0.2507707772462636
        ],
        [
          -0.11653399766560013,
          -0.06707107164854796
        ],
        [
          -0.03092164744868138,
          0.10829924356862287
        ],
        [
          -0.2557009657291946,
          0.03581888179390224
        ],
        [
          -0.1519672638062307,
          0.15388944786300668
        ],
        [
          0.11228506254888292,
          -0.001680618368670065
        ],
        [
          -0.02409993054765054,
          -0.090925797368682
        ]
      ],
      "qibo_sigmoid_expval": 0.5922641830607915,
      "qibo_predicted_label": 1,
      "qibo_correct": true
    },
    "7": {
      "orig_angles": [
        1.083364486694336,
        2.1008872985839844,
        1.0190614461898804,
        0.8887546062469482,
        2.1292507648468018,
        2.284929037094116,
        1.9421643018722534,
        1.4942784309387207,
        -0.583864152431488,
        -1.4777590036392212,
        2.613046407699585,
        2.258571147918701,
        -2.5087854862213135,
        2.3550021648406982,
        -2.560384750366211
      ],
      "input": [
        1.083364486694336,
        2.1008872985839844,
        1.0190614461898804,
        0.8887546062469482,
        2.1292507648468018,
        2.284929037094116
      ],
      "weights": [
        0.5275135040283203,
        2.40683913230896,
        -1.6032309532165527,
        1.9585349559783936,
        -2.065887451171875,
        -2.775766372680664,
        1.9421643018722534,
        1.4942784309387207,
        -0.583864152431488,
        -1.4777590036392212,
        2.613046407699585,
        2.258571147918701,
        -2.5087854862213135,
        2.3550021648406982,
        -2.560384750366211
      ],
      "label": 0,
      "noiseless_label": 1,
      "angles": {
        "0": {
          "1": 1.083364486694336,
          "2": 2.1008872985839844,
          "3": -0.583864152431488
        },
        "1": {
          "1": 1.0190614461898804,
          "2": 0.8887546062469482,
          "3": -1.4777590036392212,
          "4": -2.5087854862213135
        },
        "2": {
          "1": 2.1292507648468018,
          "2": 2.284929037094116,
          "3": 2.613046407699585,
          "4": 2.3550021648406982
        },
        "3": {
          "1": 1.9421643018722534,
          "2": 1.4942784309387207,
          "3": 2.258571147918701,
          "4": -2.560384750366211
        }
      },
      "predicted_label_pennylane": 1,
      "sigmoid(expval)_pennylane": 0.5360647726287036,
      "tomography": [
        [
          -0.4204182700215922,
          0.2335483658285098
        ],
        [
          -0.1610313860582464,
          0.36926601788508373
        ],
        [
          -0.16044241444636018,
          -0.09578878677929988
        ],
        [
          -0.04537363892888932,
          0.14980266672209036
        ],
        [
          -0.01006254457323185,
          -0.2465518528089141
        ],
        [
          -0.13209376678126128,
          -0.15897766334741562
        ],
        [
          0.051244129036498484,
          0.08103119041415384
        ],
        [
          0.05548750874342739,
          -0.058057642573942886
        ],
        [
          -0.30318960363909947,
          0.28454132457807135
        ],
        [
          -0.05707339874700596,
          0.34358236256136665
        ],
        [
          -0.15473311257226452,
          -0.04644739333384171
        ],
        [
          -0.00642455720033739,
          0.13517215041837916
        ],
        [
          -0.21330384362440397,
          -0.0037927278116181504
        ],
        [
          -0.14389586558716,
          0.10596225625178389
        ],
        [
          0.07252997559890051,
          -0.040127073522688655
        ],
        [
          -0.04730041660862409,
          -0.050828489550846255
        ]
      ],
      "qibo_sigmoid_expval": 0.5299640517645717,
      "qibo_predicted_label": 1,
      "qibo_correct": false
    },
    "8": {
      "orig_angles": [
        0.8869169354438782,
        1.8831537961959839,
        1.070931315422058,
        0.9807353615760803,
        2.1896705627441406,
        2.088493585586548,
        1.9421643018722534,
        1.4942784309387207,
        -0.583864152431488,
        -1.4777590036392212,
        2.613046407699585,
        2.258571147918701,
        -2.5087854862213135,
        2.3550021648406982,
        -2.560384750366211
      ],
      "input": [
        0.8869169354438782,
        1.8831537961959839,
        1.070931315422058,
        0.9807353615760803,
        2.1896705627441406,
        2.088493585586548
      ],
      "weights": [
        0.5275135040283203,
        2.40683913230896,
        -1.6032309532165527,
        1.9585349559783936,
        -2.065887451171875,
        -2.775766372680664,
        1.9421643018722534,
        1.4942784309387207,
        -0.583864152431488,
        -1.4777590036392212,
        2.613046407699585,
        2.258571147918701,
        -2.5087854862213135,
        2.3550021648406982,
        -2.560384750366211
      ],
      "label": 0,
      "noiseless_label": 1,
      "angles": {
        "0": {
          "1": 0.8869169354438782,
          "2": 1.8831537961959839,
          "3": -0.583864152431488
        },
        "1": {
          "1": 1.070931315422058,
          "2": 0.9807353615760803,
          "3": -1.4777590036392212,
          "4": -2.5087854862213135
        },
        "2": {
          "1": 2.1896705627441406,
          "2": 2.088493585586548,
          "3": 2.613046407699585,
          "4": 2.3550021648406982
        },
        "3": {
          "1": 1.9421643018722534,
          "2": 1.4942784309387207,
          "3": 2.258571147918701,
          "4": -2.560384750366211
        }
      },
      "predicted_label_pennylane": 1,
      "sigmoid(expval)_pennylane": 0.5976857418384398,
      "tomography": [
        [
          -0.4489568038984041,
          0.25676189109217057
        ],
        [
          -0.16821912028144448,
          0.3992307797090401
        ],
        [
          -0.15504272587958537,
          -0.1496155044949815
        ],
        [
          -0.09021761620218961,
          0.15631184560624906
        ],
        [
          -0.03956657049435951,
          -0.28360689763314517
        ],
        [
          -0.17057675134928052,
          -0.16863430653487615
        ],
        [
          0.04863615559643642,
          0.10892865456065338
        ],
        [
          0.07869078415192271,
          -0.061586153169863954
        ],
        [
          -0.2322865711833959,
          0.24864070320502873
        ],
        [
          -0.02814214445185969,
          0.2836269279232553
        ],
        [
          -0.12652876896398002,
          -0.06390705273449232
        ],
        [
          -0.0263263094617005,
          0.11578245553021373
        ],
        [
          -0.18672141406324833,
          0.025041959434188268
        ],
        [
          -0.11153826600525601,
          0.11163367069424866
        ],
        [
          0.07183313698861313,
          -0.03161773529712788
        ],
        [
          -0.04024288224011148,
          -0.051984946421599156
        ]
      ],
      "qibo_sigmoid_expval": 0.6082590307465144,
      "qibo_predicted_label": 1,
      "qibo_correct": false
    },
    "9": {
      "orig_angles": [
        1.3545769453048706,
        1.729426383972168,
        0.7270035743713379,
        1.0894206762313843,
        2.4533493518829346,
        1.973129391670227,
        1.9421643018722534,
        1.4942784309387207,
        -0.583864152431488,
        -1.4777590036392212,
        2.613046407699585,
        2.258571147918701,
        -2.5087854862213135,
        2.3550021648406982,
        -2.560384750366211
      ],
      "input": [
        1.3545769453048706,
        1.729426383972168,
        0.7270035743713379,
        1.0894206762313843,
        2.4533493518829346,
        1.973129391670227
      ],
      "weights": [
        0.5275135040283203,
        2.40683913230896,
        -1.6032309532165527,
        1.9585349559783936,
        -2.065887451171875,
        -2.775766372680664,
        1.9421643018722534,
        1.4942784309387207,
        -0.583864152431488,
        -1.4777590036392212,
        2.613046407699585,
        2.258571147918701,
        -2.5087854862213135,
        2.3550021648406982,
        -2.560384750366211
      ],
      "label": 0,
      "noiseless_label": 1,
      "angles": {
        "0": {
          "1": 1.3545769453048706,
          "2": 1.729426383972168,
          "3": -0.583864152431488
        },
        "1": {
          "1": 0.7270035743713379,
          "2": 1.0894206762313843,
          "3": -1.4777590036392212,
          "4": -2.5087854862213135
        },
        "2": {
          "1": 2.4533493518829346,
          "2": 1.973129391670227,
          "3": 2.613046407699585,
          "4": 2.3550021648406982
        },
        "3": {
          "1": 1.9421643018722534,
          "2": 1.4942784309387207,
          "3": 2.258571147918701,
          "4": -2.560384750366211
        }
      },
      "predicted_label_pennylane": 1,
      "sigmoid(expval)_pennylane": 0.5234693828784353,
      "tomography": [
        [
          -0.3787075756896055,
          0.2339775149888849
        ],
        [
          -0.13305207746408654,
          0.34833754178568826
        ],
        [
          -0.06838958402187034,
          -0.13518926293742575
        ],
        [
          -0.09603618743082026,
          0.08295875617268784
        ],
        [
          0.05210662157851348,
          -0.29528041314977227
        ],
        [
          -0.11549974261279215,
          -0.22302883030539458
        ],
        [
          -0.026445255600622483,
          0.09856135163346189
        ],
        [
          0.08546560587972081,
          0.0015395573219004442
        ],
        [
          -0.13131241376918912,
          0.3832567254695632
        ],
        [
          0.10752823812194298,
          0.32186664517882235
        ],
        [
          -0.1261664940827918,
          -0.05561384169710164
        ],
        [
          -0.01965887926666534,
          0.11380890239884567
        ],
        [
          -0.2670306084687993,
          0.05619914410682572
        ],
        [
          -0.1491424186582264,
          0.17321603877118236
        ],
        [
          0.09220379980691501,
          -0.011114179160405874
        ],
        [
          -0.027701819337078465,
          -0.07269363415882807
        ]
      ],
      "qibo_sigmoid_expval": 0.5679110497092322,
      "qibo_predicted_label": 1,
      "qibo_correct": false
    },
    "10": {
      "orig_angles": [
        1.0156869888305664,
        1.9256742000579834,
        0.8546926379203796,
        1.2900720834732056,
        2.4126555919647217,
        1.9564242362976074,
        1.9421643018722534,
        1.4942784309387207,
        -0.583864152431488,
        -1.4777590036392212,
        2.613046407699585,
        2.258571147918701,
        -2.5087854862213135,
        2.3550021648406982,
        -2.560384750366211
      ],
      "input": [
        1.0156869888305664,
        1.9256742000579834,
        0.8546926379203796,
        1.2900720834732056,
        2.4126555919647217,
        1.9564242362976074
      ],
      "weights": [
        0.5275135040283203,
        2.40683913230896,
        -1.6032309532165527,
        1.9585349559783936,
        -2.065887451171875,
        -2.775766372680664,
        1.9421643018722534,
        1.4942784309387207,
        -0.583864152431488,
        -1.4777590036392212,
        2.613046407699585,
        2.258571147918701,
        -2.5087854862213135,
        2.3550021648406982,
        -2.560384750366211
      ],
      "label": 0,
      "noiseless_label": 1,
      "angles": {
        "0": {
          "1": 1.0156869888305664,
          "2": 1.9256742000579834,
          "3": -0.583864152431488
        },
        "1": {
          "1": 0.8546926379203796,
          "2": 1.2900720834732056,
          "3": -1.4777590036392212,
          "4": -2.5087854862213135
        },
        "2": {
          "1": 2.4126555919647217,
          "2": 1.9564242362976074,
          "3": 2.613046407699585,
          "4": 2.3550021648406982
        },
        "3": {
          "1": 1.9421643018722534,
          "2": 1.4942784309387207,
          "3": 2.258571147918701,
          "4": -2.560384750366211
        }
      },
      "predicted_label_pennylane": 1,
      "sigmoid(expval)_pennylane": 0.5687963793502567,
      "tomography": [
        [
          -0.33660689498342256,
          0.3121749690934497
        ],
        [
          -0.06526017022295857,
          0.3789703276966396
        ],
        [
          -0.10647041770581005,
          -0.1264562042593371
        ],
        [
          -0.08122782194354741,
          0.11214296996058301
        ],
        [
          -0.06331405932218098,
          -0.3426011322345369
        ],
        [
          -0.21638669912334818,
          -0.19582061595435782
        ],
        [
          0.01656228397194976,
          0.12435653767206348
        ],
        [
          0.09772454280365947,
          -0.03863991378055781
        ],
        [
          -0.15889434860566481,
          0.3067445653453782
        ],
        [
          0.05025659507820267,
          0.28497127763720875
        ],
        [
          -0.10758466936575113,
          -0.06244433892787683
        ],
        [
          -0.028972942603130682,
          0.10008841214793693
        ],
        [
          -0.2556977560881088,
          0.05789179904674327
        ],
        [
          -0.14073881952923603,
          0.1685787049677534
        ],
        [
          0.09300529658747689,
          -0.016186810693808517
        ],
        [
          -0.03198716476612895,
          -0.07231806057329179
        ]
      ],
      "qibo_sigmoid_expval": 0.5662743941954392,
      "qibo_predicted_label": 1,
      "qibo_correct": false
    },
    "11": {
      "orig_angles": [
        1.4758793115615845,
        1.8001303672790527,
        0.760277271270752,
        1.202474594116211,
        2.190883159637451,
        1.961573839187622,
        1.9421643018722534,
        1.4942784309387207,
        -0.583864152431488,
        -1.4777590036392212,
        2.613046407699585,
        2.258571147918701,
        -2.5087854862213135,
        2.3550021648406982,
        -2.560384750366211
      ],
      "input": [
        1.4758793115615845,
        1.8001303672790527,
        0.760277271270752,
        1.202474594116211,
        2.190883159637451,
        1.961573839187622
      ],
      "weights": [
        0.5275135040283203,
        2.40683913230896,
        -1.6032309532165527,
        1.9585349559783936,
        -2.065887451171875,
        -2.775766372680664,
        1.9421643018722534,
        1.4942784309387207,
        -0.583864152431488,
        -1.4777590036392212,
        2.613046407699585,
        2.258571147918701,
        -2.5087854862213135,
        2.3550021648406982,
        -2.560384750366211
      ],
      "label": 0,
      "noiseless_label": 0,
      "angles": {
        "0": {
          "1": 1.4758793115615845,
          "2": 1.8001303672790527,
          "3": -0.583864152431488
        },
        "1": {
          "1": 0.760277271270752,
          "2": 1.202474594116211,
          "3": -1.4777590036392212,
          "4": -2.5087854862213135
        },
        "2": {
          "1": 2.190883159637451,
          "2": 1.961573839187622,
          "3": 2.613046407699585,
          "4": 2.3550021648406982
        },
        "3": {
          "1": 1.9421643018722534,
          "2": 1.4942784309387207,
          "3": 2.258571147918701,
          "4": -2.560384750366211
        }
      },
      "predicted_label_pennylane": 0,
      "sigmoid(expval)_pennylane": 0.4885826240662327,
      "tomography": [
        [
          -0.33344172286820595,
          0.20395671038988109
        ],
        [
          -0.11819346865979996,
          0.305334583833749
        ],
        [
          -0.11711826753652108,
          -0.13335429252199915
        ],
        [
          -0.0846788071467156,
          0.12219424365112681
        ],
        [
          0.03493078102842137,
          -0.2801385248439241
        ],
        [
          -0.11923014545970495,
          -0.20421531866612436
        ],
        [
          0.005801612514871823,
          0.12805535424316838
        ],
        [
          0.10290963675344403,
          -0.030642451306602748
        ],
        [
          -0.13164173912832905,
          0.38739848111670117
        ],
        [
          0.1094155528736244,
          0.3247907345446996
        ],
        [
          -0.18353148349888423,
          -0.028838711538100213
        ],
        [
          0.013718591842704297,
          0.15501450279204027
        ],
        [
          -0.2851929033429788,
          0.07740817145131539
        ],
        [
          -0.15044361471794915,
          0.1965693177811509
        ],
        [
          0.12172158429025529,
          -0.05646827600662976
        ],
        [
          -0.07054228799594094,
          -0.08750322634733303
        ]
      ],
      "qibo_sigmoid_expval": 0.45512110762641994,
      "qibo_predicted_label": 0,
      "qibo_correct": true
    },
    "12": {
      "orig_angles": [
        1.8683063983917236,
        1.5524845123291016,
        0.2963234484195709,
        1.4146932363510132,
        2.3449654579162598,
        2.083939790725708,
        1.9421643018722534,
        1.4942784309387207,
        -0.583864152431488,
        -1.4777590036392212,
        2.613046407699585,
        2.258571147918701,
        -2.5087854862213135,
        2.3550021648406982,
        -2.560384750366211
      ],
      "input": [
        1.8683063983917236,
        1.5524845123291016,
        0.2963234484195709,
        1.4146932363510132,
        2.3449654579162598,
        2.083939790725708
      ],
      "weights": [
        0.5275135040283203,
        2.40683913230896,
        -1.6032309532165527,
        1.9585349559783936,
        -2.065887451171875,
        -2.775766372680664,
        1.9421643018722534,
        1.4942784309387207,
        -0.583864152431488,
        -1.4777590036392212,
        2.613046407699585,
        2.258571147918701,
        -2.5087854862213135,
        2.3550021648406982,
        -2.560384750366211
      ],
      "label": 1,
      "noiseless_label": 0,
      "angles": {
        "0": {
          "1": 1.8683063983917236,
          "2": 1.5524845123291016,
          "3": -0.583864152431488
        },
        "1": {
          "1": 0.2963234484195709,
          "2": 1.4146932363510132,
          "3": -1.4777590036392212,
          "4": -2.5087854862213135
        },
        "2": {
          "1": 2.3449654579162598,
          "2": 2.083939790725708,
          "3": 2.613046407699585,
          "4": 2.3550021648406982
        },
        "3": {
          "1": 1.9421643018722534,
          "2": 1.4942784309387207,
          "3": 2.258571147918701,
          "4": -2.560384750366211
        }
      },
      "predicted_label_pennylane": 0,
      "sigmoid(expval)_pennylane": 0.4415366137843355,
      "tomography": [
        [
          -0.28685096170967855,
          0.17666606130483964
        ],
        [
          -0.1010644916796775,
          0.26347486325378405
        ],
        [
          -0.07416785217064549,
          -0.09205708350071776
        ],
        [
          -0.059808154382493706,
          0.07892257022002008
        ],
        [
          0.15876999005572995,
          -0.24789976468706038
        ],
        [
          -0.020410838180305743,
          -0.24574317998953432
        ],
        [
          -0.044546399534587694,
          0.09320384993436576
        ],
        [
          0.08477585892956724,
          0.017337002883030347
        ],
        [
          0.04336428639533599,
          0.4258105187878815
        ],
        [
          0.2454292715011796,
          0.26134807595992093
        ],
        [
          -0.14631804217050148,
          0.03389916867545202
        ],
        [
          0.05717791098921824,
          0.11206487314453248
        ],
        [
          -0.36280142045881475,
          0.09088172831771513
        ],
        [
          -0.1952442108620575,
          0.24500857230740328
        ],
        [
          0.12239834098285096,
          -0.04736677881051579
        ],
        [
          -0.06328154918051827,
          -0.08989604294361497
        ]
      ],
      "qibo_sigmoid_expval": 0.4386441153736561,
      "qibo_predicted_label": 0,
      "qibo_correct": false
    },
    "13": {
      "orig_angles": [
        1.372599482536316,
        1.641360878944397,
        0.9364728927612305,
        1.5773617029190063,
        2.4546666145324707,
        1.9181642532348633,
        1.9421643018722534,
        1.4942784309387207,
        -0.583864152431488,
        -1.4777590036392212,
        2.613046407699585,
        2.258571147918701,
        -2.5087854862213135,
        2.3550021648406982,
        -2.560384750366211
      ],
      "input": [
        1.372599482536316,
        1.641360878944397,
        0.9364728927612305,
        1.5773617029190063,
        2.4546666145324707,
        1.9181642532348633
      ],
      "weights": [
        0.5275135040283203,
        2.40683913230896,
        -1.6032309532165527,
        1.9585349559783936,
        -2.065887451171875,
        -2.775766372680664,
        1.9421643018722534,
        1.4942784309387207,
        -0.583864152431488,
        -1.4777590036392212,
        2.613046407699585,
        2.258571147918701,
        -2.5087854862213135,
        2.3550021648406982,
        -2.560384750366211
      ],
      "label": 0,
      "noiseless_label": 1,
      "angles": {
        "0": {
          "1": 1.372599482536316,
          "2": 1.641360878944397,
          "3": -0.583864152431488
        },
        "1": {
          "1": 0.9364728927612305,
          "2": 1.5773617029190063,
          "3": -1.4777590036392212,
          "4": -2.5087854862213135
        },
        "2": {
          "1": 2.4546666145324707,
          "2": 1.9181642532348633,
          "3": 2.613046407699585,
          "4": 2.3550021648406982
        },
        "3": {
          "1": 1.9421643018722534,
          "2": 1.4942784309387207,
          "3": 2.258571147918701,
          "4": -2.560384750366211
        }
      },
      "predicted_label_pennylane": 1,
      "sigmoid(expval)_pennylane": 0.5315024917565966,
      "tomography": [
        [
          -0.3235358680734272,
          0.2227363047920338
        ],
        [
          -0.10204918983734922,
          0.3127954358530406
        ],
        [
          -0.0642595331359165,
          -0.12359627045740879
        ],
        [
          -0.08744951905228165,
          0.07725463528212022
        ],
        [
          -0.04623800891548604,
          -0.37082767677631645
        ],
        [
          -0.2193775821885739,
          -0.2232920209857263
        ],
        [
          -0.00024014683652690688,
          0.13253098065594474
        ],
        [
          0.10777070757856738,
          -0.026637830428782663
        ],
        [
          -0.06813848867419035,
          0.3392217453467982
        ],
        [
          0.12717815106639319,
          0.2604283242893864
        ],
        [
          -0.11641171450930264,
          -0.038798008048544205
        ],
        [
          -0.007965866493116681,
          0.10247551563335332
        ],
        [
          -0.2738006346005772,
          0.18273274030967823
        ],
        [
          -0.08929317398939032,
          0.2608752031950404
        ],
        [
          0.10446935077572067,
          -0.05210382976361098
        ],
        [
          -0.06350184481199084,
          -0.07436414531542554
        ]
      ],
      "qibo_sigmoid_expval": 0.5299640517645717,
      "qibo_predicted_label": 1,
      "qibo_correct": false
    },
    "14": {
      "orig_angles": [
        1.4115164279937744,
        0.0,
        2.0494725704193115,
        0.9073227643966675,
        0.0,
        2.602769374847412,
        1.9421643018722534,
        1.4942784309387207,
        -0.583864152431488,
        -1.4777590036392212,
        2.613046407699585,
        2.258571147918701,
        -2.5087854862213135,
        2.3550021648406982,
        -2.560384750366211
      ],
      "input": [
        1.4115164279937744,
        0.0,
        2.0494725704193115,
        0.9073227643966675,
        0.0,
        2.602769374847412
      ],
      "weights": [
        0.5275135040283203,
        2.40683913230896,
        -1.6032309532165527,
        1.9585349559783936,
        -2.065887451171875,
        -2.775766372680664,
        1.9421643018722534,
        1.4942784309387207,
        -0.583864152431488,
        -1.4777590036392212,
        2.613046407699585,
        2.258571147918701,
        -2.5087854862213135,
        2.3550021648406982,
        -2.560384750366211
      ],
      "label": 0,
      "noiseless_label": 1,
      "angles": {
        "0": {
          "1": 1.4115164279937744,
          "2": 0.0,
          "3": -0.583864152431488
        },
        "1": {
          "1": 2.0494725704193115,
          "2": 0.9073227643966675,
          "3": -1.4777590036392212,
          "4": -2.5087854862213135
        },
        "2": {
          "1": 0.0,
          "2": 2.602769374847412,
          "3": 2.613046407699585,
          "4": 2.3550021648406982
        },
        "3": {
          "1": 1.9421643018722534,
          "2": 1.4942784309387207,
          "3": 2.258571147918701,
          "4": -2.560384750366211
        }
      },
      "predicted_label_pennylane": 1,
      "sigmoid(expval)_pennylane": 0.662980851308597,
      "tomography": [
        [
          -0.05474022579545054,
          -0.14912394635741674
        ],
        [
          -0.11227759081523783,
          -0.07141026109857936
        ],
        [
          -0.3104273205098548,
          -0.4982440960187767
        ],
        [
          -0.3421252115888033,
          0.3531949569869539
        ],
        [
          0.0386269569056539,
          -0.08298324823745776
        ],
        [
          -0.016496738865291703,
          -0.07487618567274615
        ],
        [
          0.32914268885805653,
          0.07798840630375217
        ],
        [
          -0.0032507091162306406,
          -0.2833194290249928
        ],
        [
          -0.019347358411101023,
          0.06703019346049266
        ],
        [
          0.02121476245206553,
          0.054452819233337495
        ],
        [
          -0.019476858498932957,
          0.2570826489079461
        ],
        [
          0.21290193489044335,
          -0.03621958343891251
        ],
        [
          0.00787443485700037,
          0.03942133080858195
        ],
        [
          0.025290651439897303,
          0.02223238455282401
        ],
        [
          -0.13682196395041046,
          0.057872186317094176
        ],
        [
          0.07474071002129803,
          0.09949267387318964
        ]
      ],
      "qibo_sigmoid_expval": 0.6487008049890769,
      "qibo_predicted_label": 1,
      "qibo_correct": false
    },
    "15": {
      "orig_angles": [
        1.5801953077316284,
        1.5555553436279297,
        0.7978434562683105,
        2.1328206062316895,
        2.2530524730682373,
        2.0599706172943115,
        1.9421643018722534,
        1.4942784309387207,
        -0.583864152431488,
        -1.4777590036392212,
        2.613046407699585,
        2.258571147918701,
        -2.5087854862213135,
        2.3550021648406982,
        -2.560384750366211
      ],
      "input": [
        1.5801953077316284,
        1.5555553436279297,
        0.7978434562683105,
        2.1328206062316895,
        2.2530524730682373,
        2.0599706172943115
      ],
      "weights": [
        0.5275135040283203,
        2.40683913230896,
        -1.6032309532165527,
        1.9585349559783936,
        -2.065887451171875,
        -2.775766372680664,
        1.9421643018722534,
        1.4942784309387207,
        -0.583864152431488,
        -1.4777590036392212,
        2.613046407699585,
        2.258571147918701,
        -2.5087854862213135,
        2.3550021648406982,
        -2.560384750366211
      ],
      "label": 0,
      "noiseless_label": 1,
      "angles": {
        "0": {
          "1": 1.5801953077316284,
          "2": 1.5555553436279297,
          "3": -0.583864152431488
        },
        "1": {
          "1": 0.7978434562683105,
          "2": 2.1328206062316895,
          "3": -1.4777590036392212,
          "4": -2.5087854862213135
        },
        "2": {
          "1": 2.2530524730682373,
          "2": 2.0599706172943115,
          "3": 2.613046407699585,
          "4": 2.3550021648406982
        },
        "3": {
          "1": 1.9421643018722534,
          "2": 1.4942784309387207,
          "3": 2.258571147918701,
          "4": -2.560384750366211
        }
      },
      "predicted_label_pennylane": 1,
      "sigmoid(expval)_pennylane": 0.5001397770724522,
      "tomography": [
        [
          -0.21693050711880277,
          0.19991799713424574
        ],
        [
          -0.042702153149576774,
          0.24338884846124922
        ],
        [
          -0.09481595400566542,
          -0.06844046321223404
        ],
        [
          -0.03643186465433504,
          0.09092392468422655
        ],
        [
          -0.008083708221055835,
          -0.4086363599821524
        ],
        [
          -0.21321307343871204,
          -0.26786135047434995
        ],
        [
          0.035096383607887936,
          0.1581650833441996
        ],
        [
          0.12145183373039681,
          -0.06054963902546795
        ],
        [
          0.038132811056571125,
          0.29236053020457764
        ],
        [
          0.1740746022909779,
          0.17518960108813914
        ],
        [
          -0.11053998774519977,
          0.037944579549031174
        ],
        [
          0.053222207412593855,
          0.08216516787749462
        ],
        [
          -0.32005884001898527,
          0.25382014765450744
        ],
        [
          -0.08392573899448498,
          0.3317152328531523
        ],
        [
          0.10452722302269102,
          -0.12366355520773674
        ],
        [
          -0.12167779542760329,
          -0.059922769722071806
        ]
      ],
      "qibo_sigmoid_expval": 0.46837560501823133,
      "qibo_predicted_label": 0,
      "qibo_correct": true
    },
    "16": {
      "orig_angles": [
        1.7516931295394897,
        2.100022792816162,
        0.7282785773277283,
        1.4665980339050293,
        2.282186269760132,
        2.0052003860473633,
        1.9421643018722534,
        1.4942784309387207,
        -0.583864152431488,
        -1.4777590036392212,
        2.613046407699585,
        2.258571147918701,
        -2.5087854862213135,
        2.3550021648406982,
        -2.560384750366211
      ],
      "input": [
        1.7516931295394897,
        2.100022792816162,
        0.7282785773277283,
        1.4665980339050293,
        2.282186269760132,
        2.0052003860473633
      ],
      "weights": [
        0.5275135040283203,
        2.40683913230896,
        -1.6032309532165527,
        1.9585349559783936,
        -2.065887451171875,
        -2.775766372680664,
        1.9421643018722534,
        1.4942784309387207,
        -0.583864152431488,
        -1.4777590036392212,
        2.613046407699585,
        2.258571147918701,
        -2.5087854862213135,
        2.3550021648406982,
        -2.560384750366211
      ],
      "label": 0,
      "noiseless_label": 0,
      "angles": {
        "0": {
          "1": 1.7516931295394897,
          "2": 2.100022792816162,
          "3": -0.583864152431488
        },
        "1": {
          "1": 0.7282785773277283,
          "2": 1.4665980339050293,
          "3": -1.4777590036392212,
          "4": -2.5087854862213135
        },
        "2": {
          "1": 2.282186269760132,
          "2": 2.0052003860473633,
          "3": 2.613046407699585,
          "4": 2.3550021648406982
        },
        "3": {
          "1": 1.9421643018722534,
          "2": 1.4942784309387207,
          "3": 2.258571147918701,
          "4": -2.560384750366211
        }
      },
      "predicted_label_pennylane": 0,
      "sigmoid(expval)_pennylane": 0.395589995705238,
      "tomography": [
        [
          -0.21908908763896554,
          0.18728663249012417
        ],
        [
          -0.050563146634278244,
          0.23607975148630575
        ],
        [
          -0.08533854044152694,
          -0.07737117364624867
        ],
        [
          -0.045609661509695074,
          0.08502878384301281
        ],
        [
          -0.005600908189330123,
          -0.2507240658121097
        ],
        [
          -0.13124626399971734,
          -0.1640237215355999
        ],
        [
          0.014678148982818773,
          0.09914626863643726
        ],
        [
          0.0776149373542352,
          -0.032004252545976705
        ],
        [
          -0.1256286375016608,
          0.43535927391499907
        ],
        [
          0.13781055111702045,
          0.3536533343664663
        ],
        [
          -0.17895008905719817,
          -0.027760714841474413
        ],
        [
          0.013667218107720737,
          0.15107245638101374
        ],
        [
          -0.3766827113407573,
          0.11640583409523193
        ],
        [
          -0.1915014811342654,
          0.2690564795248386
        ],
        [
          0.14358983666337077,
          -0.06487600426232433
        ],
        [
          -0.08180372548660778,
          -0.10357561171006208
        ]
      ],
      "qibo_sigmoid_expval": 0.3901535875736077,
      "qibo_predicted_label": 0,
      "qibo_correct": true
    },
    "17": {
      "orig_angles": [
        1.353423833847046,
        1.7698974609375,
        0.6636371612548828,
        1.8615944385528564,
        2.21461820602417,
        2.055263042449951,
        1.9421643018722534,
        1.4942784309387207,
        -0.583864152431488,
        -1.4777590036392212,
        2.613046407699585,
        2.258571147918701,
        -2.5087854862213135,
        2.3550021648406982,
        -2.560384750366211
      ],
      "input": [
        1.353423833847046,
        1.7698974609375,
        0.6636371612548828,
        1.8615944385528564,
        2.21461820602417,
        2.055263042449951
      ],
      "weights": [
        0.5275135040283203,
        2.40683913230896,
        -1.6032309532165527,
        1.9585349559783936,
        -2.065887451171875,
        -2.775766372680664,
        1.9421643018722534,
        1.4942784309387207,
        -0.583864152431488,
        -1.4777590036392212,
        2.613046407699585,
        2.258571147918701,
        -2.5087854862213135,
        2.3550021648406982,
        -2.560384750366211
      ],
      "label": 0,
      "noiseless_label": 1,
      "angles": {
        "0": {
          "1": 1.353423833847046,
          "2": 1.7698974609375,
          "3": -0.583864152431488
        },
        "1": {
          "1": 0.6636371612548828,
          "2": 1.8615944385528564,
          "3": -1.4777590036392212,
          "4": -2.5087854862213135
        },
        "2": {
          "1": 2.21461820602417,
          "2": 2.055263042449951,
          "3": 2.613046407699585,
          "4": 2.3550021648406982
        },
        "3": {
          "1": 1.9421643018722534,
          "2": 1.4942784309387207,
          "3": 2.258571147918701,
          "4": -2.560384750366211
        }
      },
      "predicted_label_pennylane": 1,
      "sigmoid(expval)_pennylane": 0.518359738135878,
      "tomography": [
        [
          -0.2340893939374235,
          0.2567715042699995
        ],
        [
          -0.025206700673177637,
          0.2899553956226836
        ],
        [
          -0.12604627939111662,
          -0.07001612355119512
        ],
        [
          -0.03138949168953729,
          0.116627164114325
        ],
        [
          -0.01912049026422452,
          -0.38469380307715034
        ],
        [
          -0.2083815247755977,
          -0.24631278177450855
        ],
        [
          0.04408814833345102,
          0.15363376443460314
        ],
        [
          0.11594821974444887,
          -0.06694076857450584
        ],
        [
          -0.027676678069047125,
          0.3216165461199657
        ],
        [
          0.14515396256756768,
          0.22813205916591284
        ],
        [
          -0.13252367381972668,
          0.019532932111475478
        ],
        [
          0.04270804462204688,
          0.1037613914514842
        ],
        [
          -0.3298870163584474,
          0.13864222335338208
        ],
        [
          -0.1490466061935786,
          0.2600558319243752
        ],
        [
          0.12019079273529752,
          -0.08720215205749383
        ],
        [
          -0.09521305898997197,
          -0.08003642220534056
        ]
      ],
      "qibo_sigmoid_expval": 0.5183251216999564,
      "qibo_predicted_label": 1,
      "qibo_correct": false
    },
    "18": {
      "orig_angles": [
        1.3190984725952148,
        1.7677178382873535,
        1.0993772745132446,
        1.0325286388397217,
        2.348576307296753,
        1.8410149812698364,
        1.9421643018722534,
        1.4942784309387207,
        -0.583864152431488,
        -1.4777590036392212,
        2.613046407699585,
        2.258571147918701,
        -2.5087854862213135,
        2.3550021648406982,
        -2.560384750366211
      ],
      "input": [
        1.3190984725952148,
        1.7677178382873535,
        1.0993772745132446,
        1.0325286388397217,
        2.348576307296753,
        1.8410149812698364
      ],
      "weights": [
        0.5275135040283203,
        2.40683913230896,
        -1.6032309532165527,
        1.9585349559783936,
        -2.065887451171875,
        -2.775766372680664,
        1.9421643018722534,
        1.4942784309387207,
        -0.583864152431488,
        -1.4777590036392212,
        2.613046407699585,
        2.258571147918701,
        -2.5087854862213135,
        2.3550021648406982,
        -2.560384750366211
      ],
      "label": 0,
      "noiseless_label": 1,
      "angles": {
        "0": {
          "1": 1.3190984725952148,
          "2": 1.7677178382873535,
          "3": -0.583864152431488
        },
        "1": {
          "1": 1.0993772745132446,
          "2": 1.0325286388397217,
          "3": -1.4777590036392212,
          "4": -2.5087854862213135
        },
        "2": {
          "1": 2.348576307296753,
          "2": 1.8410149812698364,
          "3": 2.613046407699585,
          "4": 2.3550021648406982
        },
        "3": {
          "1": 1.9421643018722534,
          "2": 1.4942784309387207,
          "3": 2.258571147918701,
          "4": -2.560384750366211
        }
      },
      "predicted_label_pennylane": 1,
      "sigmoid(expval)_pennylane": 0.5258110722109827,
      "tomography": [
        [
          -0.39863441673319056,
          0.2181065025255392
        ],
        [
          -0.15438663375619013,
          0.34790921441634143
        ],
        [
          -0.08042116550850062,
          -0.17235237093032316
        ],
        [
          -0.12380662864531408,
          0.10026237523051931
        ],
        [
          -0.04265656283230596,
          -0.25993881113214096
        ],
        [
          -0.16059571931349997,
          -0.15131016012849713
        ],
        [
          0.010590902033788815,
          0.10974413385109814
        ],
        [
          0.08705648328527986,
          -0.030827818167455355
        ],
        [
          -0.17213849499240164,
          0.3717139305102444
        ],
        [
          0.07448528267500593,
          0.33494838855977616
        ],
        [
          -0.15065134298445496,
          -0.08186159137858551
        ],
        [
          -0.03603587892189757,
          0.13902463282170927
        ],
        [
          -0.20908285982003919,
          0.11258197209331534
        ],
        [
          -0.08189825000518658,
          0.18127000905143428
        ],
        [
          0.09044833905278775,
          -0.041207281803715384
        ],
        [
          -0.05180627744618914,
          -0.06517395221491024
        ]
      ],
      "qibo_sigmoid_expval": 0.5349429451582145,
      "qibo_predicted_label": 1,
      "qibo_correct": false
    },
    "19": {
      "orig_angles": [
        0.7415124177932739,
        2.2060980796813965,
        1.1828439235687256,
        0.890524685382843,
        2.5013535022735596,
        1.6482223272323608,
        1.9421643018722534,
        1.4942784309387207,
        -0.583864152431488,
        -1.4777590036392212,
        2.613046407699585,
        2.258571147918701,
        -2.5087854862213135,
        2.3550021648406982,
        -2.560384750366211
      ],
      "input": [
        0.7415124177932739,
        2.2060980796813965,
        1.1828439235687256,
        0.890524685382843,
        2.5013535022735596,
        1.6482223272323608
      ],
      "weights": [
        0.5275135040283203,
        2.40683913230896,
        -1.6032309532165527,
        1.9585349559783936,
        -2.065887451171875,
        -2.775766372680664,
        1.9421643018722534,
        1.4942784309387207,
        -0.583864152431488,
        -1.4777590036392212,
        2.613046407699585,
        2.258571147918701,
        -2.5087854862213135,
        2.3550021648406982,
        -2.560384750366211
      ],
      "label": 1,
      "noiseless_label": 1,
      "angles": {
        "0": {
          "1": 0.7415124177932739,
          "2": 2.2060980796813965,
          "3": -0.583864152431488
        },
        "1": {
          "1": 1.1828439235687256,
          "2": 0.890524685382843,
          "3": -1.4777590036392212,
          "4": -2.5087854862213135
        },
        "2": {
          "1": 2.5013535022735596,
          "2": 1.6482223272323608,
          "3": 2.613046407699585,
          "4": 2.3550021648406982
        },
        "3": {
          "1": 1.9421643018722534,
          "2": 1.4942784309387207,
          "3": 2.258571147918701,
          "4": -2.560384750366211
        }
      },
      "predicted_label_pennylane": 1,
      "sigmoid(expval)_pennylane": 0.5973271146083133,
      "tomography": [
        [
          -0.32173871955862055,
          0.42460713029479147
        ],
        [
          0.001818629717018086,
          0.44623890508198827
        ],
        [
          -0.11855209699166028,
          -0.1815224226274738
        ],
        [
          -0.12353989041020484,
          0.13311208079227496
        ],
        [
          -0.158427677990226,
          -0.20635436247415187
        ],
        [
          -0.21039544098713348,
          -0.05676509408888292
        ],
        [
          0.0321533289504534,
          0.10087503795613413
        ],
        [
          0.0754819622976495,
          -0.04655821523005657
        ],
        [
          -0.21199378976189287,
          0.27988549684019765
        ],
        [
          0.0012550884294349751,
          0.2941013384143232
        ],
        [
          -0.0781568152160248,
          -0.11962052564346194
        ],
        [
          -0.0814042787901017,
          0.08774548772132926
        ],
        [
          -0.16107895977387818,
          0.05875680289595747
        ],
        [
          -0.07732422562195104,
          0.1210312028444526
        ],
        [
          0.06977862274093477,
          -0.00024934936241690145
        ],
        [
          -0.014330474596141849,
          -0.05666605623307754
        ]
      ],
      "qibo_sigmoid_expval": 0.5858090215649849,
      "qibo_predicted_label": 1,
      "qibo_correct": true
    },
    "20": {
      "orig_angles": [
        1.200701355934143,
        2.279301166534424,
        1.0946006774902344,
        1.0697710514068604,
        2.276546001434326,
        2.014885663986206,
        1.9421643018722534,
        1.4942784309387207,
        -0.583864152431488,
        -1.4777590036392212,
        2.613046407699585,
        2.258571147918701,
        -2.5087854862213135,
        2.3550021648406982,
        -2.560384750366211
      ],
      "input": [
        1.200701355934143,
        2.279301166534424,
        1.0946006774902344,
        1.0697710514068604,
        2.276546001434326,
        2.014885663986206
      ],
      "weights": [
        0.5275135040283203,
        2.40683913230896,
        -1.6032309532165527,
        1.9585349559783936,
        -2.065887451171875,
        -2.775766372680664,
        1.9421643018722534,
        1.4942784309387207,
        -0.583864152431488,
        -1.4777590036392212,
        2.613046407699585,
        2.258571147918701,
        -2.5087854862213135,
        2.3550021648406982,
        -2.560384750366211
      ],
      "label": 0,
      "noiseless_label": 0,
      "angles": {
        "0": {
          "1": 1.200701355934143,
          "2": 2.279301166534424,
          "3": -0.583864152431488
        },
        "1": {
          "1": 1.0946006774902344,
          "2": 1.0697710514068604,
          "3": -1.4777590036392212,
          "4": -2.5087854862213135
        },
        "2": {
          "1": 2.276546001434326,
          "2": 2.014885663986206,
          "3": 2.613046407699585,
          "4": 2.3550021648406982
        },
        "3": {
          "1": 1.9421643018722534,
          "2": 1.4942784309387207,
          "3": 2.258571147918701,
          "4": -2.560384750366211
        }
      },
      "predicted_label_pennylane": 0,
      "sigmoid(expval)_pennylane": 0.49184343402028347,
      "tomography": [
        [
          -0.3151431847904007,
          0.28387963840840497
        ],
        [
          -0.06536577944520847,
          0.3492215730294449
        ],
        [
          -0.1298442392772419,
          -0.1087232324047116
        ],
        [
          -0.062081936142728,
          0.12755104706294873
        ],
        [
          -0.09855241160831472,
          -0.23568213517282968
        ],
        [
          -0.185460888536637,
          -0.10673715904164668
        ],
        [
          0.051925755796936236,
          0.08779125354988584
        ],
        [
          0.06084412794389121,
          -0.0599803567021311
        ],
        [
          -0.27666110506938363,
          0.3398494671077862
        ],
        [
          -0.011287267409788193,
          0.3669009257043792
        ],
        [
          -0.14982071656890247,
          -0.09038128164830345
        ],
        [
          -0.043128914990309276,
          0.14007444198827199
        ],
        [
          -0.25604162809804343,
          0.06405969548884341
        ],
        [
          -0.1378306892122829,
          0.17285871459710211
        ],
        [
          0.09773830670623586,
          -0.0394034540812172
        ],
        [
          -0.05181608487159266,
          -0.07146450156332054
        ]
      ],
      "qibo_sigmoid_expval": 0.4966667160485049,
      "qibo_predicted_label": 0,
      "qibo_correct": true
    },
    "21": {
      "orig_angles": [
        1.8886348009109497,
        1.7392135858535767,
        0.45503509044647217,
        1.9267170429229736,
        2.5605742931365967,
        2.209780216217041,
        1.9421643018722534,
        1.4942784309387207,
        -0.583864152431488,
        -1.4777590036392212,
        2.613046407699585,
        2.258571147918701,
        -2.5087854862213135,
        2.3550021648406982,
        -2.560384750366211
      ],
      "input": [
        1.8886348009109497,
        1.7392135858535767,
        0.45503509044647217,
        1.9267170429229736,
        2.5605742931365967,
        2.209780216217041
      ],
      "weights": [
        0.5275135040283203,
        2.40683913230896,
        -1.6032309532165527,
        1.9585349559783936,
        -2.065887451171875,
        -2.775766372680664,
        1.9421643018722534,
        1.4942784309387207,
        -0.583864152431488,
        -1.4777590036392212,
        2.613046407699585,
        2.258571147918701,
        -2.5087854862213135,
        2.3550021648406982,
        -2.560384750366211
      ],
      "label": 1,
      "noiseless_label": 0,
      "angles": {
        "0": {
          "1": 1.8886348009109497,
          "2": 1.7392135858535767,
          "3": -0.583864152431488
        },
        "1": {
          "1": 0.45503509044647217,
          "2": 1.9267170429229736,
          "3": -1.4777590036392212,
          "4": -2.5087854862213135
        },
        "2": {
          "1": 2.5605742931365967,
          "2": 2.209780216217041,
          "3": 2.613046407699585,
          "4": 2.3550021648406982
        },
        "3": {
          "1": 1.9421643018722534,
          "2": 1.4942784309387207,
          "3": 2.258571147918701,
          "4": -2.560384750366211
        }
      },
      "predicted_label_pennylane": 0,
      "sigmoid(expval)_pennylane": 0.413742205219879,
      "tomography": [
        [
          -0.21020781579489517,
          0.19970092749798413
        ],
        [
          -0.038338188754545845,
          0.23982520759954712
        ],
        [
          -0.0435121205811082,
          -0.05608332744471956
        ],
        [
          -0.036775184545326176,
          0.046721918174969845
        ],
        [
          0.07130712159620466,
          -0.30240745624009435
        ],
        [
          -0.10634544546727727,
          -0.23753771135690033
        ],
        [
          -0.024927680237913055,
          0.07186433143436469
        ],
        [
          0.06345882809387435,
          0.005711301782745225
        ],
        [
          0.07017915250167447,
          0.4112033593082949
        ],
        [
          0.2558470047304074,
          0.23798804121939204
        ],
        [
          -0.10188151872450858,
          0.007051958336232345
        ],
        [
          0.026359427982658803,
          0.08138221195635187
        ],
        [
          -0.40380133161357584,
          0.19173899835199748
        ],
        [
          -0.17123607400738688,
          0.33298791021897417
        ],
        [
          0.1031350084488254,
          -0.03659838675357681
        ],
        [
          -0.05062875584945688,
          -0.07641890847454333
        ]
      ],
      "qibo_sigmoid_expval": 0.4158094770645927,
      "qibo_predicted_label": 0,
      "qibo_correct": false
    },
    "22": {
      "orig_angles": [
        1.2756117582321167,
        1.8014333248138428,
        0.7703964114189148,
        1.3500722646713257,
        1.007890224456787,
        1.7937778234481812,
        1.9421643018722534,
        1.4942784309387207,
        -0.583864152431488,
        -1.4777590036392212,
        2.613046407699585,
        2.258571147918701,
        -2.5087854862213135,
        2.3550021648406982,
        -2.560384750366211
      ],
      "input": [
        1.2756117582321167,
        1.8014333248138428,
        0.7703964114189148,
        1.3500722646713257,
        1.007890224456787,
        1.7937778234481812
      ],
      "weights": [
        0.5275135040283203,
        2.40683913230896,
        -1.6032309532165527,
        1.9585349559783936,
        -2.065887451171875,
        -2.775766372680664,
        1.9421643018722534,
        1.4942784309387207,
        -0.583864152431488,
        -1.4777590036392212,
        2.613046407699585,
        2.258571147918701,
        -2.5087854862213135,
        2.3550021648406982,
        -2.560384750366211
      ],
      "label": 1,
      "noiseless_label": 1,
      "angles": {
        "0": {
          "1": 1.2756117582321167,
          "2": 1.8014333248138428,
          "3": -0.583864152431488
        },
        "1": {
          "1": 0.7703964114189148,
          "2": 1.3500722646713257,
          "3": -1.4777590036392212,
          "4": -2.5087854862213135
        },
        "2": {
          "1": 1.007890224456787,
          "2": 1.7937778234481812,
          "3": 2.613046407699585,
          "4": 2.3550021648406982
        },
        "3": {
          "1": 1.9421643018722534,
          "2": 1.4942784309387207,
          "3": 2.258571147918701,
          "4": -2.560384750366211
        }
      },
      "predicted_label_pennylane": 1,
      "sigmoid(expval)_pennylane": 0.5305016416734408,
      "tomography": [
        [
          -0.22788113340778723,
          0.1081589932139042
        ],
        [
          -0.09665919349001406,
          0.18788706444793934
        ],
        [
          -0.3350174484021922,
          -0.1581721932762752
        ],
        [
          -0.06073378110296476,
          0.30432896787069497
        ],
        [
          0.040841236128573655,
          -0.19784388398827552
        ],
        [
          -0.07344123493511587,
          -0.15244921656880894
        ],
        [
          0.13716687207287392,
          0.26309454551266004
        ],
        [
          0.1860734089870576,
          -0.1647578821358922
        ],
        [
          -0.11515720856593756,
          0.19108599445093075
        ],
        [
          0.020542296479256004,
          0.18574860257557754
        ],
        [
          -0.324276460280008,
          0.04708182028323016
        ],
        [
          0.10392339721398704,
          0.25404165115769306
        ],
        [
          -0.1781526570184065,
          0.013661389695826837
        ],
        [
          -0.11162339832474427,
          0.09970112022465946
        ],
        [
          0.19008933997150734,
          -0.18092226418888696
        ],
        [
          -0.18554148842115764,
          -0.1178752982797584
        ]
      ],
      "qibo_sigmoid_expval": 0.5199893401555818,
      "qibo_predicted_label": 1,
      "qibo_correct": true
    },
    "23": {
      "orig_angles": [
        2.2349987030029297,
        0.9702234864234924,
        0.8178266286849976,
        1.168317437171936,
        2.2295684814453125,
        2.5531604290008545,
        1.9421643018722534,
        1.4942784309387207,
        -0.583864152431488,
        -1.4777590036392212,
        2.613046407699585,
        2.258571147918701,
        -2.5087854862213135,
        2.3550021648406982,
        -2.560384750366211
      ],
      "input": [
        2.2349987030029297,
        0.9702234864234924,
        0.8178266286849976,
        1.168317437171936,
        2.2295684814453125,
        2.5531604290008545
      ],
      "weights": [
        0.5275135040283203,
        2.40683913230896,
        -1.6032309532165527,
        1.9585349559783936,
        -2.065887451171875,
        -2.775766372680664,
        1.9421643018722534,
        1.4942784309387207,
        -0.583864152431488,
        -1.4777590036392212,
        2.613046407699585,
        2.258571147918701,
        -2.5087854862213135,
        2.3550021648406982,
        -2.560384750366211
      ],
      "label": 1,
      "noiseless_label": 0,
      "angles": {
        "0": {
          "1": 2.2349987030029297,
          "2": 0.9702234864234924,
          "3": -0.583864152431488
        },
        "1": {
          "1": 0.8178266286849976,
          "2": 1.168317437171936,
          "3": -1.4777590036392212,
          "4": -2.5087854862213135
        },
        "2": {
          "1": 2.2295684814453125,
          "2": 2.5531604290008545,
          "3": 2.613046407699585,
          "4": 2.3550021648406982
        },
        "3": {
          "1": 1.9421643018722534,
          "2": 1.4942784309387207,
          "3": 2.258571147918701,
          "4": -2.560384750366211
        }
      },
      "predicted_label_pennylane": 0,
      "sigmoid(expval)_pennylane": 0.43314813266800845,
      "tomography": [
        [
          -0.35804787828437024,
          -0.08041246309430385
        ],
        [
          -0.27920083417274444,
          0.1285840533905951
        ],
        [
          -0.049799079059628625,
          -0.08736415207623502
        ],
        [
          -0.060927556776633876,
          0.058165305783163465
        ],
        [
          0.1899655049893443,
          -0.17038968339183758
        ],
        [
          0.039773409290479636,
          -0.2100215047785691
        ],
        [
          -0.007193532794225828,
          0.06955800518562535
        ],
        [
          0.05799366768712587,
          -0.008236181595479806
        ],
        [
          -0.011216476030865286,
          0.48338174875351936
        ],
        [
          0.23838318935332653,
          0.3274251158091848
        ],
        [
          -0.09997852654831402,
          0.08694805770082467
        ],
        [
          0.09091423177816271,
          0.06365919971854198
        ],
        [
          -0.2729322351907882,
          0.19636326288320438
        ],
        [
          -0.08178270297350039,
          0.26950548889338477
        ],
        [
          0.019253288659894036,
          -0.09010375669943763
        ],
        [
          -0.07713508587077218,
          0.002593746722618851
        ]
      ],
      "qibo_sigmoid_expval": 0.43700322293759947,
      "qibo_predicted_label": 0,
      "qibo_correct": false
    },
    "24": {
      "orig_angles": [
        1.5440016984939575,
        1.0960782766342163,
        1.1117154359817505,
        1.4118311405181885,
        1.441717267036438,
        1.8720303773880005,
        1.9421643018722534,
        1.4942784309387207,
        -0.583864152431488,
        -1.4777590036392212,
        2.613046407699585,
        2.258571147918701,
        -2.5087854862213135,
        2.3550021648406982,
        -2.560384750366211
      ],
      "input": [
        1.5440016984939575,
        1.0960782766342163,
        1.1117154359817505,
        1.4118311405181885,
        1.441717267036438,
        1.8720303773880005
      ],
      "weights": [
        0.5275135040283203,
        2.40683913230896,
        -1.6032309532165527,
        1.9585349559783936,
        -2.065887451171875,
        -2.775766372680664,
        1.9421643018722534,
        1.4942784309387207,
        -0.583864152431488,
        -1.4777590036392212,
        2.613046407699585,
        2.258571147918701,
        -2.5087854862213135,
        2.3550021648406982,
        -2.560384750366211
      ],
      "label": 0,
      "noiseless_label": 1,
      "angles": {
        "0": {
          "1": 1.5440016984939575,
          "2": 1.0960782766342163,
          "3": -0.583864152431488
        },
        "1": {
          "1": 1.1117154359817505,
          "2": 1.4118311405181885,
          "3": -1.4777590036392212,
          "4": -2.5087854862213135
        },
        "2": {
          "1": 1.441717267036438,
          "2": 1.8720303773880005,
          "3": 2.613046407699585,
          "4": 2.3550021648406982
        },
        "3": {
          "1": 1.9421643018722534,
          "2": 1.4942784309387207,
          "3": 2.258571147918701,
          "4": -2.560384750366211
        }
      },
      "predicted_label_pennylane": 1,
      "sigmoid(expval)_pennylane": 0.568131854446086,
      "tomography": [
        [
          -0.33790839950755414,
          0.02488066489049122
        ],
        [
          -0.21224457584773376,
          0.18842017308184836
        ],
        [
          -0.18533830862314266,
          -0.26872300780919867
        ],
        [
          -0.18089518136019248,
          0.2050515271758271
        ],
        [
          0.062340908027459244,
          -0.27474678053533486
        ],
        [
          -0.09824476663174087,
          -0.2145675982080877
        ],
        [
          0.0814503189054325,
          0.25892435762689225
        ],
        [
          0.19396456192830053,
          -0.11862676584310985
        ],
        [
          -0.04284715564846034,
          0.25209435530556235
        ],
        [
          0.09969801625844477,
          0.18957646813430507
        ],
        [
          -0.23040309802880382,
          0.08723116280927704
        ],
        [
          0.1175508886268922,
          0.16961186278520302
        ],
        [
          -0.14803837772844528,
          0.15261967032737747
        ],
        [
          -0.02090616354983772,
          0.17687028433348986
        ],
        [
          0.04914413668651608,
          -0.19886825671176525
        ],
        [
          -0.17159149588911185,
          0.0003193794433207081
        ]
      ],
      "qibo_sigmoid_expval": 0.5679110497092322,
      "qibo_predicted_label": 1,
      "qibo_correct": false
    },
    "25": {
      "orig_angles": [
        1.1544753313064575,
        2.0219204425811768,
        0.7150320410728455,
        1.8409639596939087,
        1.9815313816070557,
        2.314363956451416,
        1.9421643018722534,
        1.4942784309387207,
        -0.583864152431488,
        -1.4777590036392212,
        2.613046407699585,
        2.258571147918701,
        -2.5087854862213135,
        2.3550021648406982,
        -2.560384750366211
      ],
      "input": [
        1.1544753313064575,
        2.0219204425811768,
        0.7150320410728455,
        1.8409639596939087,
        1.9815313816070557,
        2.314363956451416
      ],
      "weights": [
        0.5275135040283203,
        2.40683913230896,
        -1.6032309532165527,
        1.9585349559783936,
        -2.065887451171875,
        -2.775766372680664,
        1.9421643018722534,
        1.4942784309387207,
        -0.583864152431488,
        -1.4777590036392212,
        2.613046407699585,
        2.258571147918701,
        -2.5087854862213135,
        2.3550021648406982,
        -2.560384750366211
      ],
      "label": 1,
      "noiseless_label": 1,
      "angles": {
        "0": {
          "1": 1.1544753313064575,
          "2": 2.0219204425811768,
          "3": -0.583864152431488
        },
        "1": {
          "1": 0.7150320410728455,
          "2": 1.8409639596939087,
          "3": -1.4777590036392212,
          "4": -2.5087854862213135
        },
        "2": {
          "1": 1.9815313816070557,
          "2": 2.314363956451416,
          "3": 2.613046407699585,
          "4": 2.3550021648406982
        },
        "3": {
          "1": 1.9421643018722534,
          "2": 1.4942784309387207,
          "3": 2.258571147918701,
          "4": -2.560384750366211
        }
      },
      "predicted_label_pennylane": 1,
      "sigmoid(expval)_pennylane": 0.5293662654227862,
      "tomography": [
        [
          -0.23304221019265176,
          0.2600449654025141
        ],
        [
          -0.022844849576600906,
          0.2916014874441712
        ],
        [
          -0.15832274195017282,
          -0.01031078547789717
        ],
        [
          0.023674302466778527,
          0.13077338963518065
        ],
        [
          -0.043132882708407996,
          -0.3852295441352159
        ],
        [
          -0.22463573326255515,
          -0.2344566234244252
        ],
        [
          0.12321120046948428,
          0.12585730739761708
        ],
        [
          0.0773515944183278,
          -0.1256287362183265
        ],
        [
          -0.11694999358924062,
          0.2873916425750268
        ],
        [
          0.06833023747499416,
          0.2507577709773225
        ],
        [
          -0.1355194724525372,
          0.038849743305003355
        ],
        [
          0.05901542815438528,
          0.10228539868227464
        ],
        [
          -0.34054508320628973,
          0.05165617432419429
        ],
        [
          -0.2003814004690585,
          0.2075819481141092
        ],
        [
          0.10747452647176758,
          -0.11376227511486364
        ],
        [
          -0.11422669623324604,
          -0.0643230311048173
        ]
      ],
      "qibo_sigmoid_expval": 0.5349429451582145,
      "qibo_predicted_label": 1,
      "qibo_correct": true
    },
    "26": {
      "orig_angles": [
        1.0829095840454102,
        1.7729984521865845,
        1.1434547901153564,
        2.0370800495147705,
        2.467491388320923,
        2.370520830154419,
        1.9421643018722534,
        1.4942784309387207,
        -0.583864152431488,
        -1.4777590036392212,
        2.613046407699585,
        2.258571147918701,
        -2.5087854862213135,
        2.3550021648406982,
        -2.560384750366211
      ],
      "input": [
        1.0829095840454102,
        1.7729984521865845,
        1.1434547901153564,
        2.0370800495147705,
        2.467491388320923,
        2.370520830154419
      ],
      "weights": [
        0.5275135040283203,
        2.40683913230896,
        -1.6032309532165527,
        1.9585349559783936,
        -2.065887451171875,
        -2.775766372680664,
        1.9421643018722534,
        1.4942784309387207,
        -0.583864152431488,
        -1.4777590036392212,
        2.613046407699585,
        2.258571147918701,
        -2.5087854862213135,
        2.3550021648406982,
        -2.560384750366211
      ],
      "label": 0,
      "noiseless_label": 1,
      "angles": {
        "0": {
          "1": 1.0829095840454102,
          "2": 1.7729984521865845,
          "3": -0.583864152431488
        },
        "1": {
          "1": 1.1434547901153564,
          "2": 2.0370800495147705,
          "3": -1.4777590036392212,
          "4": -2.5087854862213135
        },
        "2": {
          "1": 2.467491388320923,
          "2": 2.370520830154419,
          "3": 2.613046407699585,
          "4": 2.3550021648406982
        },
        "3": {
          "1": 1.9421643018722534,
          "2": 1.4942784309387207,
          "3": 2.258571147918701,
          "4": -2.560384750366211
        }
      },
      "predicted_label_pennylane": 1,
      "sigmoid(expval)_pennylane": 0.572807533465638,
      "tomography": [
        [
          -0.2829949470143704,
          0.18401843829671494
        ],
        [
          -0.09475864939206625,
          0.2664071512054047
        ],
        [
          -0.05351362522726288,
          -0.05575389897552417
        ],
        [
          -0.03448245775221744,
          0.05478451136254439
        ],
        [
          -0.11049305024068662,
          -0.4847015012774931
        ],
        [
          -0.320059622655287,
          -0.26640190432721284
        ],
        [
          0.04537600422261106,
          0.10437507926849329
        ],
        [
          0.07564967701553614,
          -0.0580143354955128
        ],
        [
          -0.11860711007088906,
          0.21953493772499771
        ],
        [
          0.03271533533360613,
          0.20643775457008604
        ],
        [
          -0.05445443508988668,
          -0.017262917964001333
        ],
        [
          -0.003006243518247579,
          0.04775609137127553
        ],
        [
          -0.33586458202523833,
          0.14912394631940523
        ],
        [
          -0.14769403037299106,
          0.2700722618008903
        ],
        [
          0.06925339508957754,
          -0.04776753834293407
        ],
        [
          -0.05284724228863811,
          -0.046618327850654756
        ]
      ],
      "qibo_sigmoid_expval": 0.5922641830607915,
      "qibo_predicted_label": 1,
      "qibo_correct": false
    },
    "27": {
      "orig_angles": [
        1.2666646242141724,
        1.951164722442627,
        0.751858115196228,
        1.2967779636383057,
        2.071765422821045,
        1.978972315788269,
        1.9421643018722534,
        1.4942784309387207,
        -0.583864152431488,
        -1.4777590036392212,
        2.613046407699585,
        2.258571147918701,
        -2.5087854862213135,
        2.3550021648406982,
        -2.560384750366211
      ],
      "input": [
        1.2666646242141724,
        1.951164722442627,
        0.751858115196228,
        1.2967779636383057,
        2.071765422821045,
        1.978972315788269
      ],
      "weights": [
        0.5275135040283203,
        2.40683913230896,
        -1.6032309532165527,
        1.9585349559783936,
        -2.065887451171875,
        -2.775766372680664,
        1.9421643018722534,
        1.4942784309387207,
        -0.583864152431488,
        -1.4777590036392212,
        2.613046407699585,
        2.258571147918701,
        -2.5087854862213135,
        2.3550021648406982,
        -2.560384750366211
      ],
      "label": 1,
      "noiseless_label": 1,
      "angles": {
        "0": {
          "1": 1.2666646242141724,
          "2": 1.951164722442627,
          "3": -0.583864152431488
        },
        "1": {
          "1": 0.751858115196228,
          "2": 1.2967779636383057,
          "3": -1.4777590036392212,
          "4": -2.5087854862213135
        },
        "2": {
          "1": 2.071765422821045,
          "2": 1.978972315788269,
          "3": 2.613046407699585,
          "4": 2.3550021648406982
        },
        "3": {
          "1": 1.9421643018722534,
          "2": 1.4942784309387207,
          "3": 2.258571147918701,
          "4": -2.560384750366211
        }
      },
      "predicted_label_pennylane": 1,
      "sigmoid(expval)_pennylane": 0.5136436700172775,
      "tomography": [
        [
          -0.30284920812825994,
          0.250023321819625
        ],
        [
          -0.07440273566451233,
          0.3204353745857391
        ],
        [
          -0.16419936396023982,
          -0.11300849904877919
        ],
        [
          -0.05860928393051105,
          0.15634274796876332
        ],
        [
          -0.006101572181043707,
          -0.30352901888399375
        ],
        [
          -0.15843613939943382,
          -0.19891404052986916
        ],
        [
          0.04488618580047578,
          0.14740826588882844
        ],
        [
          0.1107265165294964,
          -0.06632896681156292
        ],
        [
          -0.15234685317950902,
          0.33919481167229254
        ],
        [
          0.07111858575723969,
          0.3032388577103615
        ],
        [
          -0.18676932647198957,
          -0.027134309997858413
        ],
        [
          0.015759494311499443,
          0.15730116023060203
        ],
        [
          -0.28313421496532665,
          0.04960336111071606
        ],
        [
          -0.16321498515992666,
          0.17701644843699177
        ],
        [
          0.13144099272583032,
          -0.06331771436217788
        ],
        [
          -0.0780774084393917,
          -0.0940164491974913
        ]
      ],
      "qibo_sigmoid_expval": 0.52497918747894,
      "qibo_predicted_label": 1,
      "qibo_correct": true
    },
    "28": {
      "orig_angles": [
        1.5917327404022217,
        2.317453384399414,
        1.3884538412094116,
        1.5481207370758057,
        1.679103970527649,
        2.552288055419922,
        1.9421643018722534,
        1.4942784309387207,
        -0.583864152431488,
        -1.4777590036392212,
        2.613046407699585,
        2.258571147918701,
        -2.5087854862213135,
        2.3550021648406982,
        -2.560384750366211
      ],
      "input": [
        1.5917327404022217,
        2.317453384399414,
        1.3884538412094116,
        1.5481207370758057,
        1.679103970527649,
        2.552288055419922
      ],
      "weights": [
        0.5275135040283203,
        2.40683913230896,
        -1.6032309532165527,
        1.9585349559783936,
        -2.065887451171875,
        -2.775766372680664,
        1.9421643018722534,
        1.4942784309387207,
        -0.583864152431488,
        -1.4777590036392212,
        2.613046407699585,
        2.258571147918701,
        -2.5087854862213135,
        2.3550021648406982,
        -2.560384750366211
      ],
      "label": 1,
      "noiseless_label": 0,
      "angles": {
        "0": {
          "1": 1.5917327404022217,
          "2": 2.317453384399414,
          "3": -0.583864152431488
        },
        "1": {
          "1": 1.3884538412094116,
          "2": 1.5481207370758057,
          "3": -1.4777590036392212,
          "4": -2.5087854862213135
        },
        "2": {
          "1": 1.679103970527649,
          "2": 2.552288055419922,
          "3": 2.613046407699585,
          "4": 2.3550021648406982
        },
        "3": {
          "1": 1.9421643018722534,
          "2": 1.4942784309387207,
          "3": 2.258571147918701,
          "4": -2.560384750366211
        }
      },
      "predicted_label_pennylane": 0,
      "sigmoid(expval)_pennylane": 0.40328669920575166,
      "tomography": [
        [
          -0.24913524824361846,
          0.08963789596879085
        ],
        [
          -0.12022496825894974,
          0.18636999479648148
        ],
        [
          -0.14918135658819448,
          -0.022067061614093202
        ],
        [
          0.0122679008166337,
          0.12572345592206763
        ],
        [
          -0.07999539520414402,
          -0.24173341521259287
        ],
        [
          -0.17618773529718573,
          -0.12020277693257235
        ],
        [
          0.1428106856470861,
          0.025255349413584267
        ],
        [
          -0.008386594177800612,
          -0.12119085110145571
        ],
        [
          -0.32225737293076734,
          0.23784431388130411
        ],
        [
          -0.09351432364822232,
          0.32220050496395924
        ],
        [
          -0.22577823032803113,
          0.03264242467781257
        ],
        [
          0.07224441087244714,
          0.1769051046190789
        ],
        [
          -0.3674201508246061,
          0.11560666357487773
        ],
        [
          -0.18574313404270762,
          0.2638136345348042
        ],
        [
          0.04138515730505854,
          -0.21544637626094768
        ],
        [
          -0.18349537478992106,
          0.009982437152004364
        ]
      ],
      "qibo_sigmoid_expval": 0.401312339887548,
      "qibo_predicted_label": 0,
      "qibo_correct": false
    },
    "29": {
      "orig_angles": [
        0.9272541999816895,
        1.9605292081832886,
        0.8953181505203247,
        1.820469856262207,
        2.092729091644287,
        2.2347681522369385,
        1.9421643018722534,
        1.4942784309387207,
        -0.583864152431488,
        -1.4777590036392212,
        2.613046407699585,
        2.258571147918701,
        -2.5087854862213135,
        2.3550021648406982,
        -2.560384750366211
      ],
      "input": [
        0.9272541999816895,
        1.9605292081832886,
        0.8953181505203247,
        1.820469856262207,
        2.092729091644287,
        2.2347681522369385
      ],
      "weights": [
        0.5275135040283203,
        2.40683913230896,
        -1.6032309532165527,
        1.9585349559783936,
        -2.065887451171875,
        -2.775766372680664,
        1.9421643018722534,
        1.4942784309387207,
        -0.583864152431488,
        -1.4777590036392212,
        2.613046407699585,
        2.258571147918701,
        -2.5087854862213135,
        2.3550021648406982,
        -2.560384750366211
      ],
      "label": 0,
      "noiseless_label": 1,
      "angles": {
        "0": {
          "1": 0.9272541999816895,
          "2": 1.9605292081832886,
          "3": -0.583864152431488
        },
        "1": {
          "1": 0.8953181505203247,
          "2": 1.820469856262207,
          "3": -1.4777590036392212,
          "4": -2.5087854862213135
        },
        "2": {
          "1": 2.092729091644287,
          "2": 2.2347681522369385,
          "3": 2.613046407699585,
          "4": 2.3550021648406982
        },
        "3": {
          "1": 1.9421643018722534,
          "2": 1.4942784309387207,
          "3": 2.258571147918701,
          "4": -2.560384750366211
        }
      },
      "predicted_label_pennylane": 1,
      "sigmoid(expval)_pennylane": 0.5825088503608941,
      "tomography": [
        [
          -0.267401405507194,
          0.26957535101901425
        ],
        [
