{
  "args": {
    "n_input_params": 6,
    "num_qubits": 3,
    "num_layers": 2,
    "initial_number": null,
    "simplify_circuit": false,
    "add_rbs_gates": false,
    "remove_entanglement": false,
    "seed": 43,
    "max_epochs": 3,
    "learning_rate": 0.0001,
    "strategy": "ale_one",
    "class_strategy": "binary",
    "dataset": "yeast",
    "output_qubit": 0,
    "requires_embedding": false,
    "hidden_dim": 128,
    "batch_size": 32,
    "patience": 10,
    "k_folds": 2,
    "debug_k_fold": true,
    "debug_tuning": true,
    "n_trials": 1,
    "n_jobs": 1,
    "output_size": 1
  },
  "accuracy": 0.44692737430167595,
  "qc_configurations": {
    "0": {
      "orig_angles": [
        0.7693539261817932,
        2.0961873531341553,
        1.046461582183838,
        1.462281584739685,
        1.9529268741607666,
        2.1670711040496826,
        1.9368476867675781,
        1.4926035404205322,
        -0.5122701525688171,
        -1.4735169410705566,
        2.6131367683410645,
        2.2558279037475586,
        -2.5087063312530518,
        2.3548810482025146,
        -2.560439348220825,
        2.681788444519043
      ],
      "input": [
        0.7693539261817932,
        2.0961873531341553,
        1.046461582183838,
        1.462281584739685,
        1.9529268741607666,
        2.1670711040496826
      ],
      "weights": [
        0.5275135040283203,
        2.40683913230896,
        -1.6032309532165527,
        1.9585349559783936,
        -2.065887451171875,
        -2.775766372680664,
        1.9368476867675781,
        1.4926035404205322,
        -0.5122701525688171,
        -1.4735169410705566,
        2.6131367683410645,
        2.2558279037475586,
        -2.5087063312530518,
        2.3548810482025146,
        -2.560439348220825,
        2.681788444519043
      ],
      "label": 1,
      "noiseless_label": 0,
      "angles": {
        "0": {
          "1": 0.7693539261817932,
          "2": 2.0961873531341553,
          "3": 1.9368476867675781,
          "4": 2.2558279037475586
        },
        "1": {
          "1": 1.046461582183838,
          "2": 1.462281584739685,
          "3": 1.4926035404205322,
          "4": -1.4735169410705566,
          "5": -2.5087063312530518,
          "6": -2.560439348220825
        },
        "2": {
          "1": 1.9529268741607666,
          "2": 2.1670711040496826,
          "3": -0.5122701525688171,
          "4": 2.6131367683410645,
          "5": 2.3548810482025146,
          "6": 2.681788444519043
        }
      },
      "predicted_label_pennylane": 0,
      "sigmoid(expval)_pennylane": 0.4804899916682403,
      "tomography": [
        [
          0.43207444537995454,
          -0.16326404202647332
        ],
        [
          0.4519903557020302,
          -0.06720699538941058
        ],
        [
          -0.03775315173052511,
          0.19186298251413705
        ],
        [
          -0.023825329673492185,
          0.0005246519012379559
        ],
        [
          0.11025672102086721,
          -0.16871052060855046
        ],
        [
          0.020858289739889242,
          -0.18803965700396927
        ],
        [
          -0.5491979097678139,
          0.1438893899816285
        ],
        [
          -0.08596323918331066,
          -0.36457357823977454
        ]
      ],
      "qibo_sigmoid_expval": 0.4816748783000437,
      "qibo_predicted_label": 0,
      "qibo_correct": false
    },
    "1": {
      "orig_angles": [
        1.380212664604187,
        1.6454805135726929,
        0.9501234889030457,
        1.7594584226608276,
        2.573265790939331,
        2.1083199977874756,
        1.9368476867675781,
        1.4926035404205322,
        -0.5122701525688171,
        -1.4735169410705566,
        2.6131367683410645,
        2.2558279037475586,
        -2.5087063312530518,
        2.3548810482025146,
        -2.560439348220825,
        2.681788444519043
      ],
      "input": [
        1.380212664604187,
        1.6454805135726929,
        0.9501234889030457,
        1.7594584226608276,
        2.573265790939331,
        2.1083199977874756
      ],
      "weights": [
        0.5275135040283203,
        2.40683913230896,
        -1.6032309532165527,
        1.9585349559783936,
        -2.065887451171875,
        -2.775766372680664,
        1.9368476867675781,
        1.4926035404205322,
        -0.5122701525688171,
        -1.4735169410705566,
        2.6131367683410645,
        2.2558279037475586,
        -2.5087063312530518,
        2.3548810482025146,
        -2.560439348220825,
        2.681788444519043
      ],
      "label": 0,
      "noiseless_label": 0,
      "angles": {
        "0": {
          "1": 1.380212664604187,
          "2": 1.6454805135726929,
          "3": 1.9368476867675781,
          "4": 2.2558279037475586
        },
        "1": {
          "1": 0.9501234889030457,
          "2": 1.7594584226608276,
          "3": 1.4926035404205322,
          "4": -1.4735169410705566,
          "5": -2.5087063312530518,
          "6": -2.560439348220825
        },
        "2": {
          "1": 2.573265790939331,
          "2": 2.1083199977874756,
          "3": -0.5122701525688171,
          "4": 2.6131367683410645,
          "5": 2.3548810482025146,
          "6": 2.681788444519043
        }
      },
      "predicted_label_pennylane": 0,
      "sigmoid(expval)_pennylane": 0.45891051552226847,
      "tomography": [
        [
          0.5683679758972706,
          -0.08088927735934232
        ],
        [
          0.28408621720850125,
          0.0079819647914912
        ],
        [
          -0.07988679575686514,
          -0.007598112834290446
        ],
        [
          0.02129614661876859,
          0.019702876720032746
        ],
        [
          0.05554680555879991,
          -0.01730632533511645
        ],
        [
          -0.017480263806575278,
          -0.046148013246605474
        ],
        [
          -0.6812081354842922,
          0.26978788259797815
        ],
        [
          -0.1360666500889949,
          -0.145603583675966
        ]
      ],
      "qibo_sigmoid_expval": 0.49166743818588077,
      "qibo_predicted_label": 0,
      "qibo_correct": true
    },
    "2": {
      "orig_angles": [
        1.0514987707138062,
        1.8649934530258179,
        0.8361763954162598,
        1.338828682899475,
        2.0195863246917725,
        2.4123377799987793,
        1.9368476867675781,
        1.4926035404205322,
        -0.5122701525688171,
        -1.4735169410705566,
        2.6131367683410645,
        2.2558279037475586,
        -2.5087063312530518,
        2.3548810482025146,
        -2.560439348220825,
        2.681788444519043
      ],
      "input": [
        1.0514987707138062,
        1.8649934530258179,
        0.8361763954162598,
        1.338828682899475,
        2.0195863246917725,
        2.4123377799987793
      ],
      "weights": [
        0.5275135040283203,
        2.40683913230896,
        -1.6032309532165527,
        1.9585349559783936,
        -2.065887451171875,
        -2.775766372680664,
        1.9368476867675781,
        1.4926035404205322,
        -0.5122701525688171,
        -1.4735169410705566,
        2.6131367683410645,
        2.2558279037475586,
        -2.5087063312530518,
        2.3548810482025146,
        -2.560439348220825,
        2.681788444519043
      ],
      "label": 0,
      "noiseless_label": 0,
      "angles": {
        "0": {
          "1": 1.0514987707138062,
          "2": 1.8649934530258179,
          "3": 1.9368476867675781,
          "4": 2.2558279037475586
        },
        "1": {
          "1": 0.8361763954162598,
          "2": 1.338828682899475,
          "3": 1.4926035404205322,
          "4": -1.4735169410705566,
          "5": -2.5087063312530518,
          "6": -2.560439348220825
        },
        "2": {
          "1": 2.0195863246917725,
          "2": 2.4123377799987793,
          "3": -0.5122701525688171,
          "4": 2.6131367683410645,
          "5": 2.3548810482025146,
          "6": 2.681788444519043
        }
      },
      "predicted_label_pennylane": 0,
      "sigmoid(expval)_pennylane": 0.49935383190879046,
      "tomography": [
        [
          0.5188722367079688,
          -0.020615768868708195
        ],
        [
          0.4673652338880046,
          -0.04496295889490177
        ],
        [
          -0.049634103889941994,
          0.06951132291651894
        ],
        [
          0.03601739258656276,
          0.003115248733805279
        ],
        [
          0.06847000428935095,
          -0.10545810007540234
        ],
        [
          -0.03996563849448465,
          -0.12564554077213214
        ],
        [
          -0.5746937989163059,
          0.012125590282654183
        ],
        [
          -0.10160186627198652,
          -0.3568694420712957
        ]
      ],
      "qibo_sigmoid_expval": 0.5266414114504839,
      "qibo_predicted_label": 1,
      "qibo_correct": false
    },
    "3": {
      "orig_angles": [
        0.9975472688674927,
        1.8380497694015503,
        1.0954608917236328,
        1.4934386014938354,
        2.387769937515259,
        1.7024847269058228,
        1.9368476867675781,
        1.4926035404205322,
        -0.5122701525688171,
        -1.4735169410705566,
        2.6131367683410645,
        2.2558279037475586,
        -2.5087063312530518,
        2.3548810482025146,
        -2.560439348220825,
        2.681788444519043
      ],
      "input": [
        0.9975472688674927,
        1.8380497694015503,
        1.0954608917236328,
        1.4934386014938354,
        2.387769937515259,
        1.7024847269058228
      ],
      "weights": [
        0.5275135040283203,
        2.40683913230896,
        -1.6032309532165527,
        1.9585349559783936,
        -2.065887451171875,
        -2.775766372680664,
        1.9368476867675781,
        1.4926035404205322,
        -0.5122701525688171,
        -1.4735169410705566,
        2.6131367683410645,
        2.2558279037475586,
        -2.5087063312530518,
        2.3548810482025146,
        -2.560439348220825,
        2.681788444519043
      ],
      "label": 0,
      "noiseless_label": 0,
      "angles": {
        "0": {
          "1": 0.9975472688674927,
          "2": 1.8380497694015503,
          "3": 1.9368476867675781,
          "4": 2.2558279037475586
        },
        "1": {
          "1": 1.0954608917236328,
          "2": 1.4934386014938354,
          "3": 1.4926035404205322,
          "4": -1.4735169410705566,
          "5": -2.5087063312530518,
          "6": -2.560439348220825
        },
        "2": {
          "1": 2.387769937515259,
          "2": 1.7024847269058228,
          "3": -0.5122701525688171,
          "4": 2.6131367683410645,
          "5": 2.3548810482025146,
          "6": 2.681788444519043
        }
      },
      "predicted_label_pennylane": 0,
      "sigmoid(expval)_pennylane": 0.49203653053015595,
      "tomography": [
        [
          0.5325241308848864,
          -0.24023259797926144
        ],
        [
          0.3475570189829725,
          0.0367730900109495
        ],
        [
          -0.032157864021392535,
          0.13209965589722744
        ],
        [
          0.019555687277277325,
          0.04198867977207127
        ],
        [
          0.06502379908564776,
          -0.15222188834142364
        ],
        [
          0.014886041798148078,
          -0.12598256956504053
        ],
        [
          -0.5885713173996123,
          0.2961126728186769
        ],
        [
          -0.03748958823023691,
          -0.19217467614719597
        ]
      ],
      "qibo_sigmoid_expval": 0.48666982626176764,
      "qibo_predicted_label": 0,
      "qibo_correct": true
    },
    "4": {
      "orig_angles": [
        1.9264931678771973,
        1.6516386270523071,
        0.5846562385559082,
        1.2900017499923706,
        2.4373245239257812,
        2.124117612838745,
        1.9368476867675781,
        1.4926035404205322,
        -0.5122701525688171,
        -1.4735169410705566,
        2.6131367683410645,
        2.2558279037475586,
        -2.5087063312530518,
        2.3548810482025146,
        -2.560439348220825,
        2.681788444519043
      ],
      "input": [
        1.9264931678771973,
        1.6516386270523071,
        0.5846562385559082,
        1.2900017499923706,
        2.4373245239257812,
        2.124117612838745
      ],
      "weights": [
        0.5275135040283203,
        2.40683913230896,
        -1.6032309532165527,
        1.9585349559783936,
        -2.065887451171875,
        -2.775766372680664,
        1.9368476867675781,
        1.4926035404205322,
        -0.5122701525688171,
        -1.4735169410705566,
        2.6131367683410645,
        2.2558279037475586,
        -2.5087063312530518,
        2.3548810482025146,
        -2.560439348220825,
        2.681788444519043
      ],
      "label": 1,
      "noiseless_label": 0,
      "angles": {
        "0": {
          "1": 1.9264931678771973,
          "2": 1.6516386270523071,
          "3": 1.9368476867675781,
          "4": 2.2558279037475586
        },
        "1": {
          "1": 0.5846562385559082,
          "2": 1.2900017499923706,
          "3": 1.4926035404205322,
          "4": -1.4735169410705566,
          "5": -2.5087063312530518,
          "6": -2.560439348220825
        },
        "2": {
          "1": 2.4373245239257812,
          "2": 2.124117612838745,
          "3": -0.5122701525688171,
          "4": 2.6131367683410645,
          "5": 2.3548810482025146,
          "6": 2.681788444519043
        }
      },
      "predicted_label_pennylane": 0,
      "sigmoid(expval)_pennylane": 0.49043368640933216,
      "tomography": [
        [
          0.5619032552412567,
          0.020060799261273285
        ],
        [
          0.33406841087946526,
          0.047556228289456604
        ],
        [
          0.10797516154335467,
          -0.1605844324990498
        ],
        [
          0.09354344151732666,
          0.0683203111996531
        ],
        [
          -0.13348232320727518,
          0.08654930123662632
        ],
        [
          -0.13666278218940003,
          -0.006688545985480507
        ],
        [
          -0.6412107066769422,
          0.1353833020529596
        ],
        [
          -0.1101230867904239,
          -0.18302539257787281
        ]
      ],
      "qibo_sigmoid_expval": 0.5166604965694114,
      "qibo_predicted_label": 1,
      "qibo_correct": true
    },
    "5": {
      "orig_angles": [
        1.5488084554672241,
        1.6745468378067017,
        0.5564668774604797,
        1.203992486000061,
        2.4689788818359375,
        1.811840295791626,
        1.9368476867675781,
        1.4926035404205322,
        -0.5122701525688171,
        -1.4735169410705566,
        2.6131367683410645,
        2.2558279037475586,
        -2.5087063312530518,
        2.3548810482025146,
        -2.560439348220825,
        2.681788444519043
      ],
      "input": [
        1.5488084554672241,
        1.6745468378067017,
        0.5564668774604797,
        1.203992486000061,
        2.4689788818359375,
        1.811840295791626
      ],
      "weights": [
        0.5275135040283203,
        2.40683913230896,
        -1.6032309532165527,
        1.9585349559783936,
        -2.065887451171875,
        -2.775766372680664,
        1.9368476867675781,
        1.4926035404205322,
        -0.5122701525688171,
        -1.4735169410705566,
        2.6131367683410645,
        2.2558279037475586,
        -2.5087063312530518,
        2.3548810482025146,
        -2.560439348220825,
        2.681788444519043
      ],
      "label": 1,
      "noiseless_label": 1,
      "angles": {
        "0": {
          "1": 1.5488084554672241,
          "2": 1.6745468378067017,
          "3": 1.9368476867675781,
          "4": 2.2558279037475586
        },
        "1": {
          "1": 0.5564668774604797,
          "2": 1.203992486000061,
          "3": 1.4926035404205322,
          "4": -1.4735169410705566,
          "5": -2.5087063312530518,
          "6": -2.560439348220825
        },
        "2": {
          "1": 2.4689788818359375,
          "2": 1.811840295791626,
          "3": -0.5122701525688171,
          "4": 2.6131367683410645,
          "5": 2.3548810482025146,
          "6": 2.681788444519043
        }
      },
      "predicted_label_pennylane": 1,
      "sigmoid(expval)_pennylane": 0.5083438769181688,
      "tomography": [
        [
          0.5934818190148422,
          -0.14608921577527245
        ],
        [
          0.343107158571077,
          0.03464578459093774
        ],
        [
          0.02322993087589332,
          -0.1200509181868002
        ],
        [
          0.07108800420739021,
          0.06479479193760335
        ],
        [
          -0.08497331407924752,
          0.037645772520324874
        ],
        [
          -0.09227126698553177,
          -0.06390267102474048
        ],
        [
          -0.646099822082467,
          0.1273771956216379
        ],
        [
          -0.04483890975167794,
          -0.1624654811746731
        ]
      ],
      "qibo_sigmoid_expval": 0.48666982626176764,
      "qibo_predicted_label": 0,
      "qibo_correct": false
    },
    "6": {
      "orig_angles": [
        1.9751324653625488,
        1.4229611158370972,
        1.0537188053131104,
        1.6974629163742065,
        1.6444767713546753,
        1.8672055006027222,
        1.9368476867675781,
        1.4926035404205322,
        -0.5122701525688171,
        -1.4735169410705566,
        2.6131367683410645,
        2.2558279037475586,
        -2.5087063312530518,
        2.3548810482025146,
        -2.560439348220825,
        2.681788444519043
      ],
      "input": [
        1.9751324653625488,
        1.4229611158370972,
        1.0537188053131104,
        1.6974629163742065,
        1.6444767713546753,
        1.8672055006027222
      ],
      "weights": [
        0.5275135040283203,
        2.40683913230896,
        -1.6032309532165527,
        1.9585349559783936,
        -2.065887451171875,
        -2.775766372680664,
        1.9368476867675781,
        1.4926035404205322,
        -0.5122701525688171,
        -1.4735169410705566,
        2.6131367683410645,
        2.2558279037475586,
        -2.5087063312530518,
        2.3548810482025146,
        -2.560439348220825,
        2.681788444519043
      ],
      "label": 1,
      "noiseless_label": 0,
      "angles": {
        "0": {
          "1": 1.9751324653625488,
          "2": 1.4229611158370972,
          "3": 1.9368476867675781,
          "4": 2.2558279037475586
        },
        "1": {
          "1": 1.0537188053131104,
          "2": 1.6974629163742065,
          "3": 1.4926035404205322,
          "4": -1.4735169410705566,
          "5": -2.5087063312530518,
          "6": -2.560439348220825
        },
        "2": {
          "1": 1.6444767713546753,
          "2": 1.8672055006027222,
          "3": -0.5122701525688171,
          "4": 2.6131367683410645,
          "5": 2.3548810482025146,
          "6": 2.681788444519043
        }
      },
      "predicted_label_pennylane": 0,
      "sigmoid(expval)_pennylane": 0.479610004585427,
      "tomography": [
        [
          0.4001068234499201,
          -0.009324266933155786
        ],
        [
          0.4488897484241781,
          0.17536588135712422
        ],
        [
          -0.08767360763220343,
          -0.13393825653063138
        ],
        [
          0.1880069979751208,
          0.0761381687508909
        ],
        [
          0.0360870778760818,
          0.05821370770001572
        ],
        [
          -0.164658722856181,
          0.05721610967755293
        ],
        [
          -0.4206012541007587,
          0.4053321333693139
        ],
        [
          -0.14084307329739318,
          -0.3803800776363541
        ]
      ],
      "qibo_sigmoid_expval": 0.4850044983805899,
      "qibo_predicted_label": 0,
      "qibo_correct": false
    },
    "7": {
      "orig_angles": [
        1.497565746307373,
        1.545467734336853,
        0.6073986291885376,
        1.8567901849746704,
        1.8753201961517334,
        1.726616382598877,
        1.9368476867675781,
        1.4926035404205322,
        -0.5122701525688171,
        -1.4735169410705566,
        2.6131367683410645,
        2.2558279037475586,
        -2.5087063312530518,
        2.3548810482025146,
        -2.560439348220825,
        2.681788444519043
      ],
      "input": [
        1.497565746307373,
        1.545467734336853,
        0.6073986291885376,
        1.8567901849746704,
        1.8753201961517334,
        1.726616382598877
      ],
      "weights": [
        0.5275135040283203,
        2.40683913230896,
        -1.6032309532165527,
        1.9585349559783936,
        -2.065887451171875,
        -2.775766372680664,
        1.9368476867675781,
        1.4926035404205322,
        -0.5122701525688171,
        -1.4735169410705566,
        2.6131367683410645,
        2.2558279037475586,
        -2.5087063312530518,
        2.3548810482025146,
        -2.560439348220825,
        2.681788444519043
      ],
      "label": 0,
      "noiseless_label": 0,
      "angles": {
        "0": {
          "1": 1.497565746307373,
          "2": 1.545467734336853,
          "3": 1.9368476867675781,
          "4": 2.2558279037475586
        },
        "1": {
          "1": 0.6073986291885376,
          "2": 1.8567901849746704,
          "3": 1.4926035404205322,
          "4": -1.4735169410705566,
          "5": -2.5087063312530518,
          "6": -2.560439348220825
        },
        "2": {
          "1": 1.8753201961517334,
          "2": 1.726616382598877,
          "3": -0.5122701525688171,
          "4": 2.6131367683410645,
          "5": 2.3548810482025146,
          "6": 2.681788444519043
        }
      },
      "predicted_label_pennylane": 0,
      "sigmoid(expval)_pennylane": 0.46366375340864185,
      "tomography": [
        [
          0.38545843719065165,
          -0.22167622201645654
        ],
        [
          0.42484537901195724,
          -0.0072408679096447465
        ],
        [
          -0.12799080528205586,
          -0.08356263754601687
        ],
        [
          0.15917790832922185,
          0.015251801262765433
        ],
        [
          0.05231408837438585,
          0.069997603638567
        ],
        [
          -0.12255436237591368,
          0.008615194295552454
        ],
        [
          -0.5593922659703146,
          0.3457386800541976
        ],
        [
          -0.01845782128431056,
          -0.34245434737442515
        ]
      ],
      "qibo_sigmoid_expval": 0.4716969549241712,
      "qibo_predicted_label": 0,
      "qibo_correct": true
    },
    "8": {
      "orig_angles": [
        1.5091530084609985,
        1.8176093101501465,
        0.35445478558540344,
        2.168630599975586,
        2.202129364013672,
        1.6680943965911865,
        1.9368476867675781,
        1.4926035404205322,
        -0.5122701525688171,
        -1.4735169410705566,
        2.6131367683410645,
        2.2558279037475586,
        -2.5087063312530518,
        2.3548810482025146,
        -2.560439348220825,
        2.681788444519043
      ],
      "input": [
        1.5091530084609985,
        1.8176093101501465,
        0.35445478558540344,
        2.168630599975586,
        2.202129364013672,
        1.6680943965911865
      ],
      "weights": [
        0.5275135040283203,
        2.40683913230896,
        -1.6032309532165527,
        1.9585349559783936,
        -2.065887451171875,
        -2.775766372680664,
        1.9368476867675781,
        1.4926035404205322,
        -0.5122701525688171,
        -1.4735169410705566,
        2.6131367683410645,
        2.2558279037475586,
        -2.5087063312530518,
        2.3548810482025146,
        -2.560439348220825,
        2.681788444519043
      ],
      "label": 0,
      "noiseless_label": 0,
      "angles": {
        "0": {
          "1": 1.5091530084609985,
          "2": 1.8176093101501465,
          "3": 1.9368476867675781,
          "4": 2.2558279037475586
        },
        "1": {
          "1": 0.35445478558540344,
          "2": 2.168630599975586,
          "3": 1.4926035404205322,
          "4": -1.4735169410705566,
          "5": -2.5087063312530518,
          "6": -2.560439348220825
        },
        "2": {
          "1": 2.202129364013672,
          "2": 1.6680943965911865,
          "3": -0.5122701525688171,
          "4": 2.6131367683410645,
          "5": 2.3548810482025146,
          "6": 2.681788444519043
        }
      },
      "predicted_label_pennylane": 0,
      "sigmoid(expval)_pennylane": 0.41558321663867565,
      "tomography": [
        [
          0.2820273962818479,
          -0.3473601420989277
        ],
        [
          0.29548772681926855,
          -0.12578914092819315
        ],
        [
          -0.08343068545357829,
          -0.08496692506389716
        ],
        [
          0.10941061472916169,
          0.007005196152476634
        ],
        [
          0.002954715555024724,
          0.12407150103216139
        ],
        [
          -0.1486934767113653,
          0.008262912285047462
        ],
        [
          -0.6204472948402379,
          0.4318215450505787
        ],
        [
          -0.06066003242027268,
          -0.2403766550782583
        ]
      ],
      "qibo_sigmoid_expval": 0.44028635073280703,
      "qibo_predicted_label": 0,
      "qibo_correct": true
    },
    "9": {
      "orig_angles": [
        1.0907361507415771,
        1.719589352607727,
        0.9797259569168091,
        0.7450892329216003,
        1.6851195096969604,
        1.919592261314392,
        1.9368476867675781,
        1.4926035404205322,
        -0.5122701525688171,
        -1.4735169410705566,
        2.6131367683410645,
        2.2558279037475586,
        -2.5087063312530518,
        2.3548810482025146,
        -2.560439348220825,
        2.681788444519043
      ],
      "input": [
        1.0907361507415771,
        1.719589352607727,
        0.9797259569168091,
        0.7450892329216003,
        1.6851195096969604,
        1.919592261314392
      ],
      "weights": [
        0.5275135040283203,
        2.40683913230896,
        -1.6032309532165527,
        1.9585349559783936,
        -2.065887451171875,
        -2.775766372680664,
        1.9368476867675781,
        1.4926035404205322,
        -0.5122701525688171,
        -1.4735169410705566,
        2.6131367683410645,
        2.2558279037475586,
        -2.5087063312530518,
        2.3548810482025146,
        -2.560439348220825,
        2.681788444519043
      ],
      "label": 0,
      "noiseless_label": 1,
      "angles": {
        "0": {
          "1": 1.0907361507415771,
          "2": 1.719589352607727,
          "3": 1.9368476867675781,
          "4": 2.2558279037475586
        },
        "1": {
          "1": 0.9797259569168091,
          "2": 0.7450892329216003,
          "3": 1.4926035404205322,
          "4": -1.4735169410705566,
          "5": -2.5087063312530518,
          "6": -2.560439348220825
        },
        "2": {
          "1": 1.6851195096969604,
          "2": 1.919592261314392,
          "3": -0.5122701525688171,
          "4": 2.6131367683410645,
          "5": 2.3548810482025146,
          "6": 2.681788444519043
        }
      },
      "predicted_label_pennylane": 1,
      "sigmoid(expval)_pennylane": 0.5921507686356788,
      "tomography": [
        [
          0.5001347606699841,
          -0.06323220712120373
        ],
        [
          0.6217406411101537,
          0.16071384148137283
        ],
        [
          0.004163768691296025,
          0.012116040104592484
        ],
        [
          0.0976580873785077,
          0.1010304909736355
        ],
        [
          0.013177751860994952,
          -0.10786511814245828
        ],
        [
          -0.011415187968370037,
          -0.20880551213570245
        ],
        [
          -0.4000581793269798,
          0.013644845951383919
        ],
        [
          0.0774821161110021,
          -0.30297418324168196
        ]
      ],
      "qibo_sigmoid_expval": 0.5793242521487495,
      "qibo_predicted_label": 1,
      "qibo_correct": false
    },
    "10": {
      "orig_angles": [
        0.9960139989852905,
        1.8541923761367798,
        1.036740779876709,
        1.3739879131317139,
        2.37503981590271,
        2.045191526412964,
        1.9368476867675781,
        1.4926035404205322,
        -0.5122701525688171,
        -1.4735169410705566,
        2.6131367683410645,
        2.2558279037475586,
        -2.5087063312530518,
        2.3548810482025146,
        -2.560439348220825,
        2.681788444519043
      ],
      "input": [
        0.9960139989852905,
        1.8541923761367798,
        1.036740779876709,
        1.3739879131317139,
        2.37503981590271,
        2.045191526412964
      ],
      "weights": [
        0.5275135040283203,
        2.40683913230896,
        -1.6032309532165527,
        1.9585349559783936,
        -2.065887451171875,
        -2.775766372680664,
        1.9368476867675781,
        1.4926035404205322,
        -0.5122701525688171,
        -1.4735169410705566,
        2.6131367683410645,
        2.2558279037475586,
        -2.5087063312530518,
        2.3548810482025146,
        -2.560439348220825,
        2.681788444519043
      ],
      "label": 0,
      "noiseless_label": 1,
      "angles": {
        "0": {
          "1": 0.9960139989852905,
          "2": 1.8541923761367798,
          "3": 1.9368476867675781,
          "4": 2.2558279037475586
        },
        "1": {
          "1": 1.036740779876709,
          "2": 1.3739879131317139,
          "3": 1.4926035404205322,
          "4": -1.4735169410705566,
          "5": -2.5087063312530518,
          "6": -2.560439348220825
        },
        "2": {
          "1": 2.37503981590271,
          "2": 2.045191526412964,
          "3": -0.5122701525688171,
          "4": 2.6131367683410645,
          "5": 2.3548810482025146,
          "6": 2.681788444519043
        }
      },
      "predicted_label_pennylane": 1,
      "sigmoid(expval)_pennylane": 0.5048723483353311,
      "tomography": [
        [
          0.579444699195135,
          -0.13179113732453535
        ],
        [
          0.3753566996195523,
          0.013835619439423186
        ],
        [
          -0.03586153766696234,
          0.11210152432246843
        ],
        [
          0.01196136421762383,
          0.03924270183221114
        ],
        [
          0.07706368188411519,
          -0.15423932931000797
        ],
        [
          0.013844143204786299,
          -0.13189778475260455
        ],
        [
          -0.6054541375538742,
          0.15047553704912559
        ],
        [
          -0.0749463998427296,
          -0.21932433605630652
        ]
      ],
      "qibo_sigmoid_expval": 0.49166743818588077,
      "qibo_predicted_label": 0,
      "qibo_correct": true
    },
    "11": {
      "orig_angles": [
        2.0419399738311768,
        1.9018832445144653,
        0.7480998039245605,
        1.8456214666366577,
        2.31254506111145,
        1.661973237991333,
        1.9368476867675781,
        1.4926035404205322,
        -0.5122701525688171,
        -1.4735169410705566,
        2.6131367683410645,
        2.2558279037475586,
        -2.5087063312530518,
        2.3548810482025146,
        -2.560439348220825,
        2.681788444519043
      ],
      "input": [
        2.0419399738311768,
        1.9018832445144653,
        0.7480998039245605,
        1.8456214666366577,
        2.31254506111145,
        1.661973237991333
      ],
      "weights": [
        0.5275135040283203,
        2.40683913230896,
        -1.6032309532165527,
        1.9585349559783936,
        -2.065887451171875,
        -2.775766372680664,
        1.9368476867675781,
        1.4926035404205322,
        -0.5122701525688171,
        -1.4735169410705566,
        2.6131367683410645,
        2.2558279037475586,
        -2.5087063312530518,
        2.3548810482025146,
        -2.560439348220825,
        2.681788444519043
      ],
      "label": 1,
      "noiseless_label": 0,
      "angles": {
        "0": {
          "1": 2.0419399738311768,
          "2": 1.9018832445144653,
          "3": 1.9368476867675781,
          "4": 2.2558279037475586
        },
        "1": {
          "1": 0.7480998039245605,
          "2": 1.8456214666366577,
          "3": 1.4926035404205322,
          "4": -1.4735169410705566,
          "5": -2.5087063312530518,
          "6": -2.560439348220825
        },
        "2": {
          "1": 2.31254506111145,
          "2": 1.661973237991333,
          "3": -0.5122701525688171,
          "4": 2.6131367683410645,
          "5": 2.3548810482025146,
          "6": 2.681788444519043
        }
      },
      "predicted_label_pennylane": 0,
      "sigmoid(expval)_pennylane": 0.39974012506364714,
      "tomography": [
        [
          0.3967175244775548,
          -0.11618637836827812
        ],
        [
          0.27242101381475076,
          0.03817639862649873
        ],
        [
          0.054564990854160424,
          -0.18351739787524504
        ],
        [
          0.0820941327288047,
          0.08231552733805367
        ],
        [
          -0.05076667897966167,
          0.11799516638201421
        ],
        [
          -0.16423854622471173,
          -0.012316735402569348
        ],
        [
          -0.6092330888896074,
          0.48918689573852814
        ],
        [
          -0.0927040648190855,
          -0.2014573965866914
        ]
      ],
      "qibo_sigmoid_expval": 0.3949225810582625,
      "qibo_predicted_label": 0,
      "qibo_correct": false
    },
    "12": {
      "orig_angles": [
        2.715569257736206,
        2.5093419551849365,
        1.538120985031128,
        0.8899251818656921,
        1.9606622457504272,
        2.5869765281677246,
        1.9368476867675781,
        1.4926035404205322,
        -0.5122701525688171,
        -1.4735169410705566,
        2.6131367683410645,
        2.2558279037475586,
        -2.5087063312530518,
        2.3548810482025146,
        -2.560439348220825,
        2.681788444519043
      ],
      "input": [
        2.715569257736206,
        2.5093419551849365,
        1.538120985031128,
        0.8899251818656921,
        1.9606622457504272,
        2.5869765281677246
      ],
      "weights": [
        0.5275135040283203,
        2.40683913230896,
        -1.6032309532165527,
        1.9585349559783936,
        -2.065887451171875,
        -2.775766372680664,
        1.9368476867675781,
        1.4926035404205322,
        -0.5122701525688171,
        -1.4735169410705566,
        2.6131367683410645,
        2.2558279037475586,
        -2.5087063312530518,
        2.3548810482025146,
        -2.560439348220825,
        2.681788444519043
      ],
      "label": 0,
      "noiseless_label": 0,
      "angles": {
        "0": {
          "1": 2.715569257736206,
          "2": 2.5093419551849365,
          "3": 1.9368476867675781,
          "4": 2.2558279037475586
        },
        "1": {
          "1": 1.538120985031128,
          "2": 0.8899251818656921,
          "3": 1.4926035404205322,
          "4": -1.4735169410705566,
          "5": -2.5087063312530518,
          "6": -2.560439348220825
        },
        "2": {
          "1": 1.9606622457504272,
          "2": 2.5869765281677246,
          "3": -0.5122701525688171,
          "4": 2.6131367683410645,
          "5": 2.3548810482025146,
          "6": 2.681788444519043
        }
      },
      "predicted_label_pennylane": 0,
      "sigmoid(expval)_pennylane": 0.44260108899852846,
      "tomography": [
        [
          0.1364257291344585,
          0.4054608558534086
        ],
        [
          0.22654014858180527,
          0.31137103182609255
        ],
        [
          0.1486759163859257,
          0.0007720133227826498
        ],
        [
          0.061378793881192294,
          0.1659473992958801
        ],
        [
          -0.20690546345207222,
          -0.3095672154523983
        ],
        [
          -0.33395272272059856,
          -0.21235653572107482
        ],
        [
          -0.4349598862337739,
          0.11495756383300558
        ],
        [
          -0.24873690373276852,
          -0.23615523342283118
        ]
      ],
      "qibo_sigmoid_expval": 0.45512110762641994,
      "qibo_predicted_label": 0,
      "qibo_correct": true
    },
    "13": {
      "orig_angles": [
        2.084599256515503,
        2.5798163414001465,
        1.5618252754211426,
        1.2471462488174438,
        2.1702589988708496,
        2.009671449661255,
        1.9368476867675781,
        1.4926035404205322,
        -0.5122701525688171,
        -1.4735169410705566,
        2.6131367683410645,
        2.2558279037475586,
        -2.5087063312530518,
        2.3548810482025146,
        -2.560439348220825,
        2.681788444519043
      ],
      "input": [
        2.084599256515503,
        2.5798163414001465,
        1.5618252754211426,
        1.2471462488174438,
        2.1702589988708496,
        2.009671449661255
      ],
      "weights": [
        0.5275135040283203,
        2.40683913230896,
        -1.6032309532165527,
        1.9585349559783936,
        -2.065887451171875,
        -2.775766372680664,
        1.9368476867675781,
        1.4926035404205322,
        -0.5122701525688171,
        -1.4735169410705566,
        2.6131367683410645,
        2.2558279037475586,
        -2.5087063312530518,
        2.3548810482025146,
        -2.560439348220825,
        2.681788444519043
      ],
      "label": 0,
      "noiseless_label": 0,
      "angles": {
        "0": {
          "1": 2.084599256515503,
          "2": 2.5798163414001465,
          "3": 1.9368476867675781,
          "4": 2.2558279037475586
        },
        "1": {
          "1": 1.5618252754211426,
          "2": 1.2471462488174438,
          "3": 1.4926035404205322,
          "4": -1.4735169410705566,
          "5": -2.5087063312530518,
          "6": -2.560439348220825
        },
        "2": {
          "1": 2.1702589988708496,
          "2": 2.009671449661255,
          "3": -0.5122701525688171,
          "4": 2.6131367683410645,
          "5": 2.3548810482025146,
          "6": 2.681788444519043
        }
      },
      "predicted_label_pennylane": 0,
      "sigmoid(expval)_pennylane": 0.3967692589887394,
      "tomography": [
        [
          0.31773915840742206,
          0.18482519021379645
        ],
        [
          0.23308455213083729,
          0.19435912722404497
        ],
        [
          0.20464386425074924,
          -0.0056068126075476885
        ],
        [
          0.009132677228748276,
          0.1459835776024862
        ],
        [
          -0.14605523887542396,
          -0.28159718946247797
        ],
        [
          -0.14776297267554805,
          -0.2738873358274854
        ],
        [
          -0.5435852021685185,
          0.33176832687758234
        ],
        [
          -0.17014818147978494,
          -0.27836965014210296
        ]
      ],
      "qibo_sigmoid_expval": 0.43208895029076777,
      "qibo_predicted_label": 0,
      "qibo_correct": true
    },
    "14": {
      "orig_angles": [
        1.6160551309585571,
        1.5946632623672485,
        0.9539041519165039,
        0.9305909872055054,
        2.2048051357269287,
        2.03056001663208,
        1.9368476867675781,
        1.4926035404205322,
        -0.5122701525688171,
        -1.4735169410705566,
        2.6131367683410645,
        2.2558279037475586,
        -2.5087063312530518,
        2.3548810482025146,
        -2.560439348220825,
        2.681788444519043
      ],
      "input": [
        1.6160551309585571,
        1.5946632623672485,
        0.9539041519165039,
        0.9305909872055054,
        2.2048051357269287,
        2.03056001663208
      ],
      "weights": [
        0.5275135040283203,
        2.40683913230896,
        -1.6032309532165527,
        1.9585349559783936,
        -2.065887451171875,
        -2.775766372680664,
        1.9368476867675781,
        1.4926035404205322,
        -0.5122701525688171,
        -1.4735169410705566,
        2.6131367683410645,
        2.2558279037475586,
        -2.5087063312530518,
        2.3548810482025146,
        -2.560439348220825,
        2.681788444519043
      ],
      "label": 1,
      "noiseless_label": 1,
      "angles": {
        "0": {
          "1": 1.6160551309585571,
          "2": 1.5946632623672485,
          "3": 1.9368476867675781,
          "4": 2.2558279037475586
        },
        "1": {
          "1": 0.9539041519165039,
          "2": 0.9305909872055054,
          "3": 1.4926035404205322,
          "4": -1.4735169410705566,
          "5": -2.5087063312530518,
          "6": -2.560439348220825
        },
        "2": {
          "1": 2.2048051357269287,
          "2": 2.03056001663208,
          "3": -0.5122701525688171,
          "4": 2.6131367683410645,
          "5": 2.3548810482025146,
          "6": 2.681788444519043
        }
      },
      "predicted_label_pennylane": 1,
      "sigmoid(expval)_pennylane": 0.5786735981552068,
      "tomography": [
        [
          0.6312134868816929,
          0.05078767910559677
        ],
        [
          0.4614514622708247,
          0.14200161591418606
        ],
        [
          0.06675329337062987,
          -0.05526786511727451
        ],
        [
          0.0789044207074,
          0.10400559174773497
        ],
        [
          -0.0730723874770719,
          -0.037811918648673754
        ],
        [
          -0.10715507222857007,
          -0.08798627006320962
        ],
        [
          -0.5052260540626342,
          0.10181696426708146
        ],
        [
          -0.05539017449552959,
          -0.21599394734306165
        ]
      ],
      "qibo_sigmoid_expval": 0.5793242521487495,
      "qibo_predicted_label": 1,
      "qibo_correct": true
    },
    "15": {
      "orig_angles": [
        1.141039252281189,
        1.9547399282455444,
        0.6415082216262817,
        2.272719383239746,
        2.198822021484375,
        1.997873306274414,
        1.9368476867675781,
        1.4926035404205322,
        -0.5122701525688171,
        -1.4735169410705566,
        2.6131367683410645,
        2.2558279037475586,
        -2.5087063312530518,
        2.3548810482025146,
        -2.560439348220825,
        2.681788444519043
      ],
      "input": [
        1.141039252281189,
        1.9547399282455444,
        0.6415082216262817,
        2.272719383239746,
        2.198822021484375,
        1.997873306274414
      ],
      "weights": [
        0.5275135040283203,
        2.40683913230896,
        -1.6032309532165527,
        1.9585349559783936,
        -2.065887451171875,
        -2.775766372680664,
        1.9368476867675781,
        1.4926035404205322,
        -0.5122701525688171,
        -1.4735169410705566,
        2.6131367683410645,
        2.2558279037475586,
        -2.5087063312530518,
        2.3548810482025146,
        -2.560439348220825,
        2.681788444519043
      ],
      "label": 0,
      "noiseless_label": 0,
      "angles": {
        "0": {
          "1": 1.141039252281189,
          "2": 1.9547399282455444,
          "3": 1.9368476867675781,
          "4": 2.2558279037475586
        },
        "1": {
          "1": 0.6415082216262817,
          "2": 2.272719383239746,
          "3": 1.4926035404205322,
          "4": -1.4735169410705566,
          "5": -2.5087063312530518,
          "6": -2.560439348220825
        },
        "2": {
          "1": 2.198822021484375,
          "2": 1.997873306274414,
          "3": -0.5122701525688171,
          "4": 2.6131367683410645,
          "5": 2.3548810482025146,
          "6": 2.681788444519043
        }
      },
      "predicted_label_pennylane": 0,
      "sigmoid(expval)_pennylane": 0.3926599812875256,
      "tomography": [
        [
          0.29418877668151944,
          -0.2942930576502378
        ],
        [
          0.2653373383996614,
          -0.13870017254581274
        ],
        [
          -0.09543752494202737,
          0.09017889278457855
        ],
        [
          0.02615988616003688,
          -0.03472249771617436
        ],
        [
          0.03769997781329166,
          0.01551722238363214
        ],
        [
          -0.08470095083705598,
          -0.02478104637001631
        ],
        [
          -0.6789651302488948,
          0.37865406066020785
        ],
        [
          -0.142995175854637,
          -0.2894853771819911
        ]
      ],
      "qibo_sigmoid_expval": 0.3949225810582625,
      "qibo_predicted_label": 0,
      "qibo_correct": true
    },
    "16": {
      "orig_angles": [
        1.3929293155670166,
        1.7677085399627686,
        0.6229265928268433,
        1.6500270366668701,
        2.421334743499756,
        2.184022903442383,
        1.9368476867675781,
        1.4926035404205322,
        -0.5122701525688171,
        -1.4735169410705566,
        2.6131367683410645,
        2.2558279037475586,
        -2.5087063312530518,
        2.3548810482025146,
        -2.560439348220825,
        2.681788444519043
      ],
      "input": [
        1.3929293155670166,
        1.7677085399627686,
        0.6229265928268433,
        1.6500270366668701,
        2.421334743499756,
        2.184022903442383
      ],
      "weights": [
        0.5275135040283203,
        2.40683913230896,
        -1.6032309532165527,
        1.9585349559783936,
        -2.065887451171875,
        -2.775766372680664,
        1.9368476867675781,
        1.4926035404205322,
        -0.5122701525688171,
        -1.4735169410705566,
        2.6131367683410645,
        2.2558279037475586,
        -2.5087063312530518,
        2.3548810482025146,
        -2.560439348220825,
        2.681788444519043
      ],
      "label": 0,
      "noiseless_label": 0,
      "angles": {
        "0": {
          "1": 1.3929293155670166,
          "2": 1.7677085399627686,
          "3": 1.9368476867675781,
          "4": 2.2558279037475586
        },
        "1": {
          "1": 0.6229265928268433,
          "2": 1.6500270366668701,
          "3": 1.4926035404205322,
          "4": -1.4735169410705566,
          "5": -2.5087063312530518,
          "6": -2.560439348220825
        },
        "2": {
          "1": 2.421334743499756,
          "2": 2.184022903442383,
          "3": -0.5122701525688171,
          "4": 2.6131367683410645,
          "5": 2.3548810482025146,
          "6": 2.681788444519043
        }
      },
      "predicted_label_pennylane": 0,
      "sigmoid(expval)_pennylane": 0.456921720276054,
      "tomography": [
        [
          0.5332717448262884,
          -0.12552925474124824
        ],
        [
          0.32433457006868105,
          -0.039927921782156435
        ],
        [
          -0.03406415868584978,
          -0.04583106875150007
        ],
        [
          0.05643003364622841,
          0.016143264149024006
        ],
        [
          -0.01955622992890379,
          0.002431568057474752
        ],
        [
          -0.0693108664464171,
          -0.043578094492067745
        ],
        [
          -0.7020634820224798,
          0.1495494109695469
        ],
        [
          -0.1246488165115402,
          -0.22019037422652513
        ]
      ],
      "qibo_sigmoid_expval": 0.4452207648927852,
      "qibo_predicted_label": 0,
      "qibo_correct": true
    },
    "17": {
      "orig_angles": [
        1.3526750802993774,
        1.802286148071289,
        0.5429946780204773,
        1.1420323848724365,
        2.336124897003174,
        2.287773609161377,
        1.9368476867675781,
        1.4926035404205322,
        -0.5122701525688171,
        -1.4735169410705566,
        2.6131367683410645,
        2.2558279037475586,
        -2.5087063312530518,
        2.3548810482025146,
        -2.560439348220825,
        2.681788444519043
      ],
      "input": [
        1.3526750802993774,
        1.802286148071289,
        0.5429946780204773,
        1.1420323848724365,
        2.336124897003174,
        2.287773609161377
      ],
      "weights": [
        0.5275135040283203,
        2.40683913230896,
        -1.6032309532165527,
        1.9585349559783936,
        -2.065887451171875,
        -2.775766372680664,
        1.9368476867675781,
        1.4926035404205322,
        -0.5122701525688171,
        -1.4735169410705566,
        2.6131367683410645,
        2.2558279037475586,
        -2.5087063312530518,
        2.3548810482025146,
        -2.560439348220825,
        2.681788444519043
      ],
      "label": 0,
      "noiseless_label": 1,
      "angles": {
        "0": {
          "1": 1.3526750802993774,
          "2": 1.802286148071289,
          "3": 1.9368476867675781,
          "4": 2.2558279037475586
        },
        "1": {
          "1": 0.5429946780204773,
          "2": 1.1420323848724365,
          "3": 1.4926035404205322,
          "4": -1.4735169410705566,
          "5": -2.5087063312530518,
          "6": -2.560439348220825
        },
        "2": {
          "1": 2.336124897003174,
          "2": 2.287773609161377,
          "3": -0.5122701525688171,
          "4": 2.6131367683410645,
          "5": 2.3548810482025146,
          "6": 2.681788444519043
        }
      },
      "predicted_label_pennylane": 1,
      "sigmoid(expval)_pennylane": 0.5008296309782637,
      "tomography": [
        [
          0.5855115103804116,
          -0.02023253183361451
        ],
        [
          0.38650839118531444,
          -0.0028428764081180335
        ],
        [
          0.019256690577007088,
          -0.04611911324287367
        ],
        [
          0.07119786732858069,
          0.038241755890064844
        ],
        [
          -0.06127886830403017,
          -0.050891464452503546
        ],
        [
          -0.0882212642023062,
          -0.08227222868309803
        ],
        [
          -0.6341571374760646,
          -0.06509809753869952
        ],
        [
          -0.06470066765510342,
          -0.2585822323479448
        ]
      ],
      "qibo_sigmoid_expval": 0.4983333395061454,
      "qibo_predicted_label": 0,
      "qibo_correct": true
    },
    "18": {
      "orig_angles": [
        1.1097060441970825,
        1.9204639196395874,
        0.5935426354408264,
        1.7066936492919922,
        1.6744475364685059,
        2.2893519401550293,
        1.9368476867675781,
        1.4926035404205322,
        -0.5122701525688171,
        -1.4735169410705566,
        2.6131367683410645,
        2.2558279037475586,
        -2.5087063312530518,
        2.3548810482025146,
        -2.560439348220825,
        2.681788444519043
      ],
      "input": [
        1.1097060441970825,
        1.9204639196395874,
        0.5935426354408264,
        1.7066936492919922,
        1.6744475364685059,
        2.2893519401550293
      ],
      "weights": [
        0.5275135040283203,
        2.40683913230896,
        -1.6032309532165527,
        1.9585349559783936,
        -2.065887451171875,
        -2.775766372680664,
        1.9368476867675781,
        1.4926035404205322,
        -0.5122701525688171,
        -1.4735169410705566,
        2.6131367683410645,
        2.2558279037475586,
        -2.5087063312530518,
        2.3548810482025146,
        -2.560439348220825,
        2.681788444519043
      ],
      "label": 0,
      "noiseless_label": 0,
      "angles": {
        "0": {
          "1": 1.1097060441970825,
          "2": 1.9204639196395874,
          "3": 1.9368476867675781,
          "4": 2.2558279037475586
        },
        "1": {
          "1": 0.5935426354408264,
          "2": 1.7066936492919922,
          "3": 1.4926035404205322,
          "4": -1.4735169410705566,
          "5": -2.5087063312530518,
          "6": -2.560439348220825
        },
        "2": {
          "1": 1.6744475364685059,
          "2": 2.2893519401550293,
          "3": -0.5122701525688171,
          "4": 2.6131367683410645,
          "5": 2.3548810482025146,
          "6": 2.681788444519043
        }
      },
      "predicted_label_pennylane": 0,
      "sigmoid(expval)_pennylane": 0.4474488825852511,
      "tomography": [
        [
          0.3631923180024196,
          -0.12753162136488444
        ],
        [
          0.4604736721445555,
          -0.13784324631102163
        ],
        [
          -0.07195722446864646,
          0.05805793690211271
        ],
        [
          0.0641126546928982,
          -0.05137548274436422
        ],
        [
          0.03440713051642877,
          -0.032025194797995885
        ],
        [
          -0.12434790986432415,
          -0.07219741587403289
        ],
        [
          -0.5757958718965244,
          0.12026204534970654
        ],
        [
          -0.10383951176312006,
          -0.4752062713895487
        ]
      ],
      "qibo_sigmoid_expval": 0.4633989206464093,
      "qibo_predicted_label": 0,
      "qibo_correct": true
    },
    "19": {
      "orig_angles": [
        1.8824130296707153,
        1.5262740850448608,
        0.3440157473087311,
        2.381685733795166,
        0.3524402379989624,
        0.0,
        1.9368476867675781,
        1.4926035404205322,
        -0.5122701525688171,
        -1.4735169410705566,
        2.6131367683410645,
        2.2558279037475586,
        -2.5087063312530518,
        2.3548810482025146,
        -2.560439348220825,
        2.681788444519043
      ],
      "input": [
        1.8824130296707153,
        1.5262740850448608,
        0.3440157473087311,
        2.381685733795166,
        0.3524402379989624,
        0.0
      ],
      "weights": [
        0.5275135040283203,
        2.40683913230896,
        -1.6032309532165527,
        1.9585349559783936,
        -2.065887451171875,
        -2.775766372680664,
        1.9368476867675781,
        1.4926035404205322,
        -0.5122701525688171,
        -1.4735169410705566,
        2.6131367683410645,
        2.2558279037475586,
        -2.5087063312530518,
        2.3548810482025146,
        -2.560439348220825,
        2.681788444519043
      ],
      "label": 1,
      "noiseless_label": 0,
      "angles": {
        "0": {
          "1": 1.8824130296707153,
          "2": 1.5262740850448608,
          "3": 1.9368476867675781,
          "4": 2.2558279037475586
        },
        "1": {
          "1": 0.3440157473087311,
          "2": 2.381685733795166,
          "3": 1.4926035404205322,
          "4": -1.4735169410705566,
          "5": -2.5087063312530518,
          "6": -2.560439348220825
        },
        "2": {
          "1": 0.3524402379989624,
          "2": 0.0,
          "3": -0.5122701525688171,
          "4": 2.6131367683410645,
          "5": 2.3548810482025146,
          "6": 2.681788444519043
        }
      },
      "predicted_label_pennylane": 0,
      "sigmoid(expval)_pennylane": 0.4367749979362073,
      "tomography": [
        [
          -0.0952997388969239,
          -0.10377672805292822
        ],
        [
          0.3710075792731256,
          0.22123161874425534
        ],
        [
          -0.11794814062079025,
          -0.06746077727153058
        ],
        [
          0.22530504955829075,
          0.31177348383409464
        ],
        [
          0.11124771100847863,
          0.06750371556635591
        ],
        [
          -0.35659559777039374,
          -0.02705880747322449
        ],
        [
          -0.12100114320779148,
          0.18129255733916327
        ],
        [
          0.517941871065891,
          -0.4080846143970836
        ]
      ],
      "qibo_sigmoid_expval": 0.4534683690013999,
      "qibo_predicted_label": 0,
      "qibo_correct": false
    },
    "20": {
      "orig_angles": [
        0.8703432679176331,
        1.5519459247589111,
        0.7630949020385742,
        1.4140478372573853,
        1.3538800477981567,
        1.8807100057601929,
        1.9368476867675781,
        1.4926035404205322,
        -0.5122701525688171,
        -1.4735169410705566,
        2.6131367683410645,
        2.2558279037475586,
        -2.5087063312530518,
        2.3548810482025146,
        -2.560439348220825,
        2.681788444519043
      ],
      "input": [
        0.8703432679176331,
        1.5519459247589111,
        0.7630949020385742,
        1.4140478372573853,
        1.3538800477981567,
        1.8807100057601929
      ],
      "weights": [
        0.5275135040283203,
        2.40683913230896,
        -1.6032309532165527,
        1.9585349559783936,
        -2.065887451171875,
        -2.775766372680664,
        1.9368476867675781,
        1.4926035404205322,
        -0.5122701525688171,
        -1.4735169410705566,
        2.6131367683410645,
        2.2558279037475586,
        -2.5087063312530518,
        2.3548810482025146,
        -2.560439348220825,
        2.681788444519043
      ],
      "label": 0,
      "noiseless_label": 1,
      "angles": {
        "0": {
          "1": 0.8703432679176331,
          "2": 1.5519459247589111,
          "3": 1.9368476867675781,
          "4": 2.2558279037475586
        },
        "1": {
          "1": 0.7630949020385742,
          "2": 1.4140478372573853,
          "3": 1.4926035404205322,
          "4": -1.4735169410705566,
          "5": -2.5087063312530518,
          "6": -2.560439348220825
        },
        "2": {
          "1": 1.3538800477981567,
          "2": 1.8807100057601929,
          "3": -0.5122701525688171,
          "4": 2.6131367683410645,
          "5": 2.3548810482025146,
          "6": 2.681788444519043
        }
      },
      "predicted_label_pennylane": 1,
      "sigmoid(expval)_pennylane": 0.5348724907883027,
      "tomography": [
        [
          0.33809501266981506,
          -0.14895031740322118
        ],
        [
          0.6185836774628856,
          0.05838733066594126
        ],
        [
          -0.1382172055173027,
          0.06117231514708026
        ],
        [
          0.14468576315803228,
          -0.05940624482796286
        ],
        [
          0.07893736640713536,
          -0.029397700677656843
        ],
        [
          0.0038725735632235275,
          -0.11715797525858519
        ],
        [
          -0.4314700074579469,
          0.1122672910567144
        ],
        [
          0.11725949316420693,
          -0.44360475379960307
        ]
      ],
      "qibo_sigmoid_expval": 0.5415704832167999,
      "qibo_predicted_label": 1,
      "qibo_correct": false
    },
    "21": {
      "orig_angles": [
        1.3443573713302612,
        1.751816749572754,
        0.6340071558952332,
        0.4930011034011841,
        2.4896647930145264,
        2.2948145866394043,
        1.9368476867675781,
        1.4926035404205322,
        -0.5122701525688171,
        -1.4735169410705566,
        2.6131367683410645,
        2.2558279037475586,
        -2.5087063312530518,
        2.3548810482025146,
        -2.560439348220825,
        2.681788444519043
      ],
      "input": [
        1.3443573713302612,
        1.751816749572754,
        0.6340071558952332,
        0.4930011034011841,
        2.4896647930145264,
        2.2948145866394043
      ],
      "weights": [
        0.5275135040283203,
        2.40683913230896,
        -1.6032309532165527,
        1.9585349559783936,
        -2.065887451171875,
        -2.775766372680664,
        1.9368476867675781,
        1.4926035404205322,
        -0.5122701525688171,
        -1.4735169410705566,
        2.6131367683410645,
        2.2558279037475586,
        -2.5087063312530518,
        2.3548810482025146,
        -2.560439348220825,
        2.681788444519043
      ],
      "label": 1,
      "noiseless_label": 1,
      "angles": {
        "0": {
          "1": 1.3443573713302612,
          "2": 1.751816749572754,
          "3": 1.9368476867675781,
          "4": 2.2558279037475586
        },
        "1": {
          "1": 0.6340071558952332,
          "2": 0.4930011034011841,
          "3": 1.4926035404205322,
          "4": -1.4735169410705566,
          "5": -2.5087063312530518,
          "6": -2.560439348220825
        },
        "2": {
          "1": 2.4896647930145264,
          "2": 2.2948145866394043,
          "3": -0.5122701525688171,
          "4": 2.6131367683410645,
          "5": 2.3548810482025146,
          "6": 2.681788444519043
        }
      },
      "predicted_label_pennylane": 1,
      "sigmoid(expval)_pennylane": 0.5657574593973552,
      "tomography": [
        [
          0.6681734898831988,
          0.12835886229093424
        ],
        [
          0.37636629539760563,
          0.0818429063558978
        ],
        [
          0.10067551880022302,
          -0.04668241386516882
        ],
        [
          0.05849760336391799,
          0.07254435779299714
        ],
        [
          -0.09138225659831856,
          -0.12441582440420165
        ],
        [
          -0.05927649275789796,
          -0.11477513200502545
        ],
        [
          -0.4791713130547323,
          -0.24585060544046927
        ],
        [
          -0.005329831544042443,
          -0.19268045230831232
        ]
      ],
      "qibo_sigmoid_expval": 0.5793242521487495,
      "qibo_predicted_label": 1,
      "qibo_correct": true
    },
    "22": {
      "orig_angles": [
        1.0920588970184326,
        1.924486517906189,
        0.6672002673149109,
        0.8252602815628052,
        2.3037569522857666,
        2.01902437210083,
        1.9368476867675781,
        1.4926035404205322,
        -0.5122701525688171,
        -1.4735169410705566,
        2.6131367683410645,
        2.2558279037475586,
        -2.5087063312530518,
        2.3548810482025146,
        -2.560439348220825,
        2.681788444519043
      ],
      "input": [
        1.0920588970184326,
        1.924486517906189,
        0.6672002673149109,
        0.8252602815628052,
        2.3037569522857666,
        2.01902437210083
      ],
      "weights": [
        0.5275135040283203,
        2.40683913230896,
        -1.6032309532165527,
        1.9585349559783936,
        -2.065887451171875,
        -2.775766372680664,
        1.9368476867675781,
        1.4926035404205322,
        -0.5122701525688171,
        -1.4735169410705566,
        2.6131367683410645,
        2.2558279037475586,
        -2.5087063312530518,
        2.3548810482025146,
        -2.560439348220825,
        2.681788444519043
      ],
      "label": 0,
      "noiseless_label": 1,
      "angles": {
        "0": {
          "1": 1.0920588970184326,
          "2": 1.924486517906189,
          "3": 1.9368476867675781,
          "4": 2.2558279037475586
        },
        "1": {
          "1": 0.6672002673149109,
          "2": 0.8252602815628052,
          "3": 1.4926035404205322,
          "4": -1.4735169410705566,
          "5": -2.5087063312530518,
          "6": -2.560439348220825
        },
        "2": {
          "1": 2.3037569522857666,
          "2": 2.01902437210083,
          "3": -0.5122701525688171,
          "4": 2.6131367683410645,
          "5": 2.3548810482025146,
          "6": 2.681788444519043
        }
      },
      "predicted_label_pennylane": 1,
      "sigmoid(expval)_pennylane": 0.5277847765893098,
      "tomography": [
        [
          0.6024253149359308,
          -0.10530177605506899
        ],
        [
          0.4172385375479902,
          0.031309616783680966
        ],
        [
          0.0046065110819491235,
          0.0011096136781708846
        ],
        [
          0.057975932662616365,
          0.05630439712959481
        ],
        [
          -0.04628092235984145,
          -0.14600801504210242
        ],
        [
          -0.04237889483776509,
          -0.17089717541680055
        ],
        [
          -0.5733928717776722,
          -0.08445092224267953
        ],
        [
          0.009004855242248234,
          -0.23220385625444134
        ]
      ],
      "qibo_sigmoid_expval": 0.5415704832167999,
      "qibo_predicted_label": 1,
      "qibo_correct": false
    },
    "23": {
      "orig_angles": [
        1.7811511754989624,
        1.5570365190505981,
        0.44725093245506287,
        0.8265196681022644,
        2.6870312690734863,
        1.8501982688903809,
        1.9368476867675781,
        1.4926035404205322,
        -0.5122701525688171,
        -1.4735169410705566,
        2.6131367683410645,
        2.2558279037475586,
        -2.5087063312530518,
        2.3548810482025146,
        -2.560439348220825,
        2.681788444519043
      ],
      "input": [
        1.7811511754989624,
        1.5570365190505981,
        0.44725093245506287,
        0.8265196681022644,
        2.6870312690734863,
        1.8501982688903809
      ],
      "weights": [
        0.5275135040283203,
        2.40683913230896,
        -1.6032309532165527,
        1.9585349559783936,
        -2.065887451171875,
        -2.775766372680664,
        1.9368476867675781,
        1.4926035404205322,
        -0.5122701525688171,
        -1.4735169410705566,
        2.6131367683410645,
        2.2558279037475586,
        -2.5087063312530518,
        2.3548810482025146,
        -2.560439348220825,
        2.681788444519043
      ],
      "label": 1,
      "noiseless_label": 1,
      "angles": {
        "0": {
          "1": 1.7811511754989624,
          "2": 1.5570365190505981,
          "3": 1.9368476867675781,
          "4": 2.2558279037475586
        },
        "1": {
          "1": 0.44725093245506287,
          "2": 0.8265196681022644,
          "3": 1.4926035404205322,
          "4": -1.4735169410705566,
          "5": -2.5087063312530518,
          "6": -2.560439348220825
        },
        "2": {
          "1": 2.6870312690734863,
          "2": 1.8501982688903809,
          "3": -0.5122701525688171,
          "4": 2.6131367683410645,
          "5": 2.3548810482025146,
          "6": 2.681788444519043
        }
      },
      "predicted_label_pennylane": 1,
      "sigmoid(expval)_pennylane": 0.5356269401262529,
      "tomography": [
        [
          0.6522474449515602,
          -0.03175620832702125
        ],
        [
          0.2877380616435791,
          0.06072167458783937
        ],
        [
          0.1312378814028437,
          -0.1842589834491462
        ],
        [
          0.05395276687030251,
          0.06613381394090376
        ],
        [
          -0.1647073013457982,
          0.09464675076235085
        ],
        [
          -0.08846363712627926,
          -0.03688560477722849
        ],
        [
          -0.6077778013609546,
          -0.006974107621482012
        ],
        [
          -0.060687824201772635,
          -0.10112760017448344
        ]
      ],
      "qibo_sigmoid_expval": 0.5382584045560131,
      "qibo_predicted_label": 1,
      "qibo_correct": true
    },
    "24": {
      "orig_angles": [
        1.4265871047973633,
        1.0974133014678955,
        2.0641770362854004,
        1.8311291933059692,
        2.5564403533935547,
        1.9500116109848022,
        1.9368476867675781,
        1.4926035404205322,
        -0.5122701525688171,
        -1.4735169410705566,
        2.6131367683410645,
        2.2558279037475586,
        -2.5087063312530518,
        2.3548810482025146,
        -2.560439348220825,
        2.681788444519043
      ],
      "input": [
        1.4265871047973633,
        1.0974133014678955,
        2.0641770362854004,
        1.8311291933059692,
        2.5564403533935547,
        1.9500116109848022
      ],
      "weights": [
        0.5275135040283203,
        2.40683913230896,
        -1.6032309532165527,
        1.9585349559783936,
        -2.065887451171875,
        -2.775766372680664,
        1.9368476867675781,
        1.4926035404205322,
        -0.5122701525688171,
        -1.4735169410705566,
        2.6131367683410645,
        2.2558279037475586,
        -2.5087063312530518,
        2.3548810482025146,
        -2.560439348220825,
        2.681788444519043
      ],
      "label": 0,
      "noiseless_label": 1,
      "angles": {
        "0": {
          "1": 1.4265871047973633,
          "2": 1.0974133014678955,
          "3": 1.9368476867675781,
          "4": 2.2558279037475586
        },
        "1": {
          "1": 2.0641770362854004,
          "2": 1.8311291933059692,
          "3": 1.4926035404205322,
          "4": -1.4735169410705566,
          "5": -2.5087063312530518,
          "6": -2.560439348220825
        },
        "2": {
          "1": 2.5564403533935547,
          "2": 1.9500116109848022,
          "3": -0.5122701525688171,
          "4": 2.6131367683410645,
          "5": 2.3548810482025146,
          "6": 2.681788444519043
        }
      },
      "predicted_label_pennylane": 1,
      "sigmoid(expval)_pennylane": 0.5430986314153274,
      "tomography": [
        [
          0.5849850591074991,
          0.2118012777453786
        ],
        [
          0.23457811929537803,
          0.20412605419988397
        ],
        [
          -0.24877842327129873,
          0.19216964666367065
        ],
        [
          -0.06063152983975485,
          0.01240969349410834
        ],
        [
          0.18357022060235917,
          -0.031020304494429232
        ],
        [
          0.03895676666969152,
          -0.006752581133031826
        ],
        [
          -0.3706724931166685,
          0.4709016996839113
        ],
        [
          -0.11935717094587389,
          -0.06302495572836861
        ]
      ],
      "qibo_sigmoid_expval": 0.5597136492671929,
      "qibo_predicted_label": 1,
      "qibo_correct": false
    },
    "25": {
      "orig_angles": [
        0.8164199590682983,
        1.5150355100631714,
        1.0124142169952393,
        0.9674663543701172,
        1.9114598035812378,
        1.5210708379745483,
        1.9368476867675781,
        1.4926035404205322,
        -0.5122701525688171,
        -1.4735169410705566,
        2.6131367683410645,
        2.2558279037475586,
        -2.5087063312530518,
        2.3548810482025146,
        -2.560439348220825,
        2.681788444519043
      ],
      "input": [
        0.8164199590682983,
        1.5150355100631714,
        1.0124142169952393,
        0.9674663543701172,
        1.9114598035812378,
        1.5210708379745483
      ],
      "weights": [
        0.5275135040283203,
        2.40683913230896,
        -1.6032309532165527,
        1.9585349559783936,
        -2.065887451171875,
        -2.775766372680664,
        1.9368476867675781,
        1.4926035404205322,
        -0.5122701525688171,
        -1.4735169410705566,
        2.6131367683410645,
        2.2558279037475586,
        -2.5087063312530518,
        2.3548810482025146,
        -2.560439348220825,
        2.681788444519043
      ],
      "label": 0,
      "noiseless_label": 1,
      "angles": {
        "0": {
          "1": 0.8164199590682983,
          "2": 1.5150355100631714,
          "3": 1.9368476867675781,
          "4": 2.2558279037475586
        },
        "1": {
          "1": 1.0124142169952393,
          "2": 0.9674663543701172,
          "3": 1.4926035404205322,
          "4": -1.4735169410705566,
          "5": -2.5087063312530518,
          "6": -2.560439348220825
        },
        "2": {
          "1": 1.9114598035812378,
          "2": 1.5210708379745483,
          "3": -0.5122701525688171,
          "4": 2.6131367683410645,
          "5": 2.3548810482025146,
          "6": 2.681788444519043
        }
      },
      "predicted_label_pennylane": 1,
      "sigmoid(expval)_pennylane": 0.5933642122951454,
      "tomography": [
        [
          0.5460798433718208,
          -0.24456232718702942
        ],
        [
          0.528514294953466,
          0.18256454816148324
        ],
        [
          -0.06349769360446984,
          0.044422582210543494
        ],
        [
          0.08848328168442286,
          0.06662976515648114
        ],
        [
          0.07058660779122689,
          -0.13529859741937722
        ],
        [
          0.09128503968362198,
          -0.14048193552203458
        ],
        [
          -0.4340036682155347,
          0.08915515894146045
        ],
        [
          0.12046463941682822,
          -0.22108570926473148
        ]
      ],
      "qibo_sigmoid_expval": 0.5597136492671929,
      "qibo_predicted_label": 1,
      "qibo_correct": false
    },
    "26": {
      "orig_angles": [
        2.099457263946533,
        1.7910234928131104,
        1.113897681236267,
        1.1402497291564941,
        2.1282012462615967,
        2.0124292373657227,
        1.9368476867675781,
        1.4926035404205322,
        -0.5122701525688171,
        -1.4735169410705566,
        2.6131367683410645,
        2.2558279037475586,
        -2.5087063312530518,
        2.3548810482025146,
        -2.560439348220825,
        2.681788444519043
      ],
      "input": [
        2.099457263946533,
        1.7910234928131104,
        1.113897681236267,
        1.1402497291564941,
        2.1282012462615967,
        2.0124292373657227
      ],
      "weights": [
        0.5275135040283203,
        2.40683913230896,
        -1.6032309532165527,
        1.9585349559783936,
        -2.065887451171875,
        -2.775766372680664,
        1.9368476867675781,
        1.4926035404205322,
        -0.5122701525688171,
        -1.4735169410705566,
        2.6131367683410645,
        2.2558279037475586,
        -2.5087063312530518,
        2.3548810482025146,
        -2.560439348220825,
        2.681788444519043
      ],
      "label": 1,
      "noiseless_label": 1,
      "angles": {
        "0": {
          "1": 2.099457263946533,
          "2": 1.7910234928131104,
          "3": 1.9368476867675781,
          "4": 2.2558279037475586
        },
        "1": {
          "1": 1.113897681236267,
          "2": 1.1402497291564941,
          "3": 1.4926035404205322,
          "4": -1.4735169410705566,
          "5": -2.5087063312530518,
          "6": -2.560439348220825
        },
        "2": {
          "1": 2.1282012462615967,
          "2": 2.0124292373657227,
          "3": -0.5122701525688171,
          "4": 2.6131367683410645,
          "5": 2.3548810482025146,
          "6": 2.681788444519043
        }
      },
      "predicted_label_pennylane": 1,
      "sigmoid(expval)_pennylane": 0.5062032234159946,
      "tomography": [
        [
          0.513725618355825,
          0.12414963225938372
        ],
        [
          0.392583893991094,
          0.18771663059510169
        ],
        [
          0.11371226516074995,
          -0.0864886328662965
        ],
        [
          0.07743309584347072,
          0.1315813317325716
        ],
        [
          -0.1535413417416516,
          -0.026497697243287807
        ],
        [
          -0.20554882259096166,
          -0.0868927250317234
        ],
        [
          -0.5126681944550833,
          0.2737340573781064
        ],
        [
          -0.1367886453624724,
          -0.2388410257608538
        ]
      ],
      "qibo_sigmoid_expval": 0.5283030450758288,
      "qibo_predicted_label": 1,
      "qibo_correct": true
    },
    "27": {
      "orig_angles": [
        1.4886252880096436,
        1.6965254545211792,
        1.490661859512329,
        1.7876344919204712,
        2.47646427154541,
        2.1387603282928467,
        1.9368476867675781,
        1.4926035404205322,
        -0.5122701525688171,
        -1.4735169410705566,
        2.6131367683410645,
        2.2558279037475586,
        -2.5087063312530518,
        2.3548810482025146,
        -2.560439348220825,
        2.681788444519043
      ],
      "input": [
        1.4886252880096436,
        1.6965254545211792,
        1.490661859512329,
        1.7876344919204712,
        2.47646427154541,
        2.1387603282928467
      ],
      "weights": [
        0.5275135040283203,
        2.40683913230896,
        -1.6032309532165527,
        1.9585349559783936,
        -2.065887451171875,
        -2.775766372680664,
        1.9368476867675781,
        1.4926035404205322,
        -0.5122701525688171,
        -1.4735169410705566,
        2.6131367683410645,
        2.2558279037475586,
        -2.5087063312530518,
        2.3548810482025146,
        -2.560439348220825,
        2.681788444519043
      ],
      "label": 0,
      "noiseless_label": 0,
      "angles": {
        "0": {
          "1": 1.4886252880096436,
          "2": 1.6965254545211792,
          "3": 1.9368476867675781,
          "4": 2.2558279037475586
        },
        "1": {
          "1": 1.490661859512329,
          "2": 1.7876344919204712,
          "3": 1.4926035404205322,
          "4": -1.4735169410705566,
          "5": -2.5087063312530518,
          "6": -2.560439348220825
        },
        "2": {
          "1": 2.47646427154541,
          "2": 2.1387603282928467,
          "3": -0.5122701525688171,
          "4": 2.6131367683410645,
          "5": 2.3548810482025146,
          "6": 2.681788444519043
        }
      },
      "predicted_label_pennylane": 0,
      "sigmoid(expval)_pennylane": 0.44224186263167103,
      "tomography": [
        [
          0.5250283179658655,
          0.08754550479128029
        ],
        [
          0.28254588108502854,
          0.10231689268232615
        ],
        [
          -0.06424000909235184,
          0.07113068366063323
        ],
        [
          -0.006101840892916839,
          0.03350071851517192
        ],
        [
          0.11624523706631826,
          -0.08836196478099223
        ],
        [
          0.008034107337483613,
          -0.0661747721402541
        ],
        [
          -0.61446107991861,
          0.3976257861443322
        ],
        [
          -0.17178389644154862,
          -0.15840269575229038
        ]
      ],
      "qibo_sigmoid_expval": 0.42392857554328783,
      "qibo_predicted_label": 0,
      "qibo_correct": true
    },
    "28": {
      "orig_angles": [
        1.057598352432251,
        1.8789656162261963,
        0.8203180432319641,
        0.9423525333404541,
        2.30143666267395,
        2.298706531524658,
        1.9368476867675781,
        1.4926035404205322,
        -0.5122701525688171,
        -1.4735169410705566,
        2.6131367683410645,
        2.2558279037475586,
        -2.5087063312530518,
        2.3548810482025146,
        -2.560439348220825,
        2.681788444519043
      ],
      "input": [
        1.057598352432251,
        1.8789656162261963,
        0.8203180432319641,
        0.9423525333404541,
        2.30143666267395,
        2.298706531524658
      ],
      "weights": [
        0.5275135040283203,
        2.40683913230896,
        -1.6032309532165527,
        1.9585349559783936,
        -2.065887451171875,
        -2.775766372680664,
        1.9368476867675781,
        1.4926035404205322,
        -0.5122701525688171,
        -1.4735169410705566,
        2.6131367683410645,
        2.2558279037475586,
        -2.5087063312530518,
        2.3548810482025146,
        -2.560439348220825,
        2.681788444519043
      ],
      "label": 0,
      "noiseless_label": 1,
      "angles": {
        "0": {
          "1": 1.057598352432251,
          "2": 1.8789656162261963,
          "3": 1.9368476867675781,
          "4": 2.2558279037475586
        },
        "1": {
          "1": 0.8203180432319641,
          "2": 0.9423525333404541,
          "3": 1.4926035404205322,
          "4": -1.4735169410705566,
          "5": -2.5087063312530518,
          "6": -2.560439348220825
        },
        "2": {
          "1": 2.30143666267395,
          "2": 2.298706531524658,
          "3": -0.5122701525688171,
          "4": 2.6131367683410645,
          "5": 2.3548810482025146,
          "6": 2.681788444519043
        }
      },
      "predicted_label_pennylane": 1,
      "sigmoid(expval)_pennylane": 0.5383376143462111,
      "tomography": [
        [
          0.622679370429822,
          -0.004929111032367983
        ],
        [
          0.4286082365017057,
          0.013087709688886881
        ],
        [
          0.0015257049251156968,
          0.03675708786756162
        ],
        [
          0.042335051290515485,
          0.045278585270458846
        ],
        [
          0.026012261001013056,
          -0.16412398699820843
        ],
        [
          -0.02304016125626822,
          -0.1550840647709416
        ],
        [
          -0.5455289957592244,
          -0.08677113035827838
        ],
        [
          -0.04185171187486906,
          -0.25317200033952747
        ]
      ],
      "qibo_sigmoid_expval": 0.5266414114504839,
      "qibo_predicted_label": 1,
      "qibo_correct": false
    },
    "29": {
      "orig_angles": [
        1.6165471076965332,
        1.8585716485977173,
        0.46425217390060425,
        1.837828516960144,
        2.1704256534576416,
        2.0503273010253906,
        1.9368476867675781,
        1.4926035404205322,
        -0.5122701525688171,
        -1.4735169410705566,
        2.6131367683410645,
        2.2558279037475586,
        -2.5087063312530518,
        2.3548810482025146,
        -2.560439348220825,
        2.681788444519043
      ],
      "input": [
        1.6165471076965332,
        1.8585716485977173,
        0.46425217390060425,
        1.837828516960144,
        2.1704256534576416,
        2.0503273010253906
      ],
      "weights": [
        0.5275135040283203,
        2.40683913230896,
        -1.6032309532165527,
        1.9585349559783936,
        -2.065887451171875,
        -2.775766372680664,
        1.9368476867675781,
        1.4926035404205322,
        -0.5122701525688171,
        -1.4735169410705566,
        2.6131367683410645,
        2.2558279037475586,
        -2.5087063312530518,
        2.3548810482025146,
        -2.560439348220825,
        2.681788444519043
      ],
      "label": 0,
      "noiseless_label": 0,
      "angles": {
        "0": {
          "1": 1.6165471076965332,
          "2": 1.8585716485977173,
          "3": 1.9368476867675781,
          "4": 2.2558279037475586
        },
        "1": {
          "1": 0.46425217390060425,
          "2": 1.837828516960144,
          "3": 1.4926035404205322,
          "4": -1.4735169410705566,
          "5": -2.5087063312530518,
          "6": -2.560439348220825
        },
        "2": {
          "1": 2.1704256534576416,
          "2": 2.0503273010253906,
          "3": -0.5122701525688171,
          "4": 2.6131367683410645,
          "5": 2.3548810482025146,
          "6": 2.681788444519043
        }
      },
      "predicted_label_pennylane": 0,
      "sigmoid(expval)_pennylane": 0.4204803967944236,
      "tomography": [
        [
          0.4095502795008629,
          -0.175852954016668
        ],
        [
          0.3394686930635012,
          -0.07480621090670425
        ],
        [
          -6.454567734304889e-05,
          -0.09237658567786161
        ],
        [
          0.10396294308551053,
          0.02769111489795681
        ],
        [
          -0.0473175024003927,
          0.07979960784535912
        ],
        [
          -0.1509191388403423,
          0.0024533047415101206
        ],
        [
          -0.6825544845130961,
          0.2559802817542798
        ],
        [
          -0.11667292210165098,
          -0.28981405571703045
        ]
      ],
      "qibo_sigmoid_expval": 0.4061268970658573,
      "qibo_predicted_label": 0,
      "qibo_correct": true
    },
    "30": {
      "orig_angles": [
        1.6571286916732788,
        1.6219507455825806,
        1.1246848106384277,
        2.5242528915405273,
        2.452601432800293,
        1.8003476858139038,
        1.9368476867675781,
        1.4926035404205322,
        -0.5122701525688171,
        -1.4735169410705566,
        2.6131367683410645,
        2.2558279037475586,
        -2.5087063312530518,
        2.3548810482025146,
        -2.560439348220825,
        2.681788444519043
      ],
      "input": [
        1.6571286916732788,
        1.6219507455825806,
        1.1246848106384277,
        2.5242528915405273,
        2.452601432800293,
        1.8003476858139038
      ],
      "weights": [
        0.5275135040283203,
        2.40683913230896,
        -1.6032309532165527,
        1.9585349559783936,
        -2.065887451171875,
        -2.775766372680664,
        1.9368476867675781,
        1.4926035404205322,
        -0.5122701525688171,
        -1.4735169410705566,
        2.6131367683410645,
        2.2558279037475586,
        -2.5087063312530518,
        2.3548810482025146,
        -2.560439348220825,
        2.681788444519043
      ],
      "label": 1,
      "noiseless_label": 0,
      "angles": {
        "0": {
          "1": 1.6571286916732788,
          "2": 1.6219507455825806,
          "3": 1.9368476867675781,
          "4": 2.2558279037475586
        },
        "1": {
          "1": 1.1246848106384277,
          "2": 2.5242528915405273,
          "3": 1.4926035404205322,
          "4": -1.4735169410705566,
          "5": -2.5087063312530518,
          "6": -2.560439348220825
        },
        "2": {
          "1": 2.452601432800293,
          "2": 1.8003476858139038,
          "3": -0.5122701525688171,
          "4": 2.6131367683410645,
          "5": 2.3548810482025146,
          "6": 2.681788444519043
        }
      },
      "predicted_label_pennylane": 0,
      "sigmoid(expval)_pennylane": 0.346790482311877,
      "tomography": [
        [
          0.31591866611446867,
          -0.12258866160147076
        ],
        [
          0.17129882676545588,
          -0.0019133769295520686
        ],
        [
          -0.18764971161308572,
          -0.04555863090798223
        ],
        [
          0.03992533692092925,
          -0.018704703118312557
        ],
        [
          0.16118908530750023,
          0.05005577384438112
        ],
        [
          -0.020487826284459623,
          0.02005591248308788
        ],
        [
          -0.602093024040721,
          0.6175405835939716
        ],
        [
          -0.13996398817244698,
          -0.15432683979464024
        ]
      ],
      "qibo_sigmoid_expval": 0.3528199507665029,
      "qibo_predicted_label": 0,
      "qibo_correct": false
    },
    "31": {
      "orig_angles": [
        1.1917651891708374,
        1.3487509489059448,
        1.8318771123886108,
        1.8419138193130493,
        2.258357524871826,
        2.088630437850952,
        1.9368476867675781,
        1.4926035404205322,
        -0.5122701525688171,
        -1.4735169410705566,
        2.6131367683410645,
        2.2558279037475586,
        -2.5087063312530518,
        2.3548810482025146,
        -2.560439348220825,
        2.681788444519043
      ],
      "input": [
        1.1917651891708374,
        1.3487509489059448,
        1.8318771123886108,
        1.8419138193130493,
        2.258357524871826,
        2.088630437850952
      ],
      "weights": [
        0.5275135040283203,
        2.40683913230896,
        -1.6032309532165527,
        1.9585349559783936,
        -2.065887451171875,
        -2.775766372680664,
        1.9368476867675781,
        1.4926035404205322,
        -0.5122701525688171,
        -1.4735169410705566,
        2.6131367683410645,
        2.2558279037475586,
        -2.5087063312530518,
        2.3548810482025146,
        -2.560439348220825,
        2.681788444519043
      ],
      "label": 1,
      "noiseless_label": 1,
      "angles": {
        "0": {
          "1": 1.1917651891708374,
          "2": 1.3487509489059448,
          "3": 1.9368476867675781,
          "4": 2.2558279037475586
        },
        "1": {
          "1": 1.8318771123886108,
          "2": 1.8419138193130493,
          "3": 1.4926035404205322,
          "4": -1.4735169410705566,
          "5": -2.5087063312530518,
          "6": -2.560439348220825
        },
        "2": {
          "1": 2.258357524871826,
          "2": 2.088630437850952,
          "3": -0.5122701525688171,
          "4": 2.6131367683410645,
          "5": 2.3548810482025146,
          "6": 2.681788444519043
        }
      },
      "predicted_label_pennylane": 1,
      "sigmoid(expval)_pennylane": 0.5045271473665157,
      "tomography": [
        [
          0.5165597437557754,
          0.12342555764513827
        ],
        [
          0.33121358995455874,
          0.1928044806766432
        ],
        [
          -0.1917600119766522,
          0.20089538348279357
        ],
        [
          -0.053934604481533824,
          -0.008419989458083709
        ],
        [
          0.22183608033251515,
          -0.050261266585861365
        ],
        [
          0.0820283633574745,
          -0.01624658490326747
        ],
        [
          -0.4736701832116639,
          0.38457198842766366
        ],
        [
          -0.14810351121736046,
          -0.19499155283297873
        ]
      ],
      "qibo_sigmoid_expval": 0.5283030450758288,
      "qibo_predicted_label": 1,
      "qibo_correct": true
    },
    "32": {
      "orig_angles": [
        1.338496208190918,
        1.117822527885437,
        1.5374833345413208,
        1.631608009338379,
        2.017369031906128,
        1.6583865880966187,
        1.9368476867675781,
        1.4926035404205322,
        -0.5122701525688171,
        -1.4735169410705566,
        2.6131367683410645,
        2.2558279037475586,
        -2.5087063312530518,
        2.3548810482025146,
        -2.560439348220825,
        2.681788444519043
      ],
      "input": [
        1.338496208190918,
        1.117822527885437,
        1.5374833345413208,
        1.631608009338379,
        2.017369031906128,
        1.6583865880966187
      ],
      "weights": [
        0.5275135040283203,
        2.40683913230896,
        -1.6032309532165527,
        1.9585349559783936,
        -2.065887451171875,
        -2.775766372680664,
        1.9368476867675781,
        1.4926035404205322,
        -0.5122701525688171,
        -1.4735169410705566,
        2.6131367683410645,
        2.2558279037475586,
        -2.5087063312530518,
        2.3548810482025146,
        -2.560439348220825,
        2.681788444519043
      ],
      "label": 1,
      "noiseless_label": 1,
      "angles": {
        "0": {
          "1": 1.338496208190918,
          "2": 1.117822527885437,
          "3": 1.9368476867675781,
          "4": 2.2558279037475586
        },
        "1": {
          "1": 1.5374833345413208,
          "2": 1.631608009338379,
          "3": 1.4926035404205322,
          "4": -1.4735169410705566,
          "5": -2.5087063312530518,
          "6": -2.560439348220825
        },
        "2": {
          "1": 2.017369031906128,
          "2": 1.6583865880966187,
          "3": -0.5122701525688171,
          "4": 2.6131367683410645,
          "5": 2.3548810482025146,
          "6": 2.681788444519043
        }
      },
      "predicted_label_pennylane": 1,
      "sigmoid(expval)_pennylane": 0.5637621884693029,
      "tomography": [
        [
          0.5792540596298122,
          -0.05661038388341369
        ],
        [
          0.4138749903301197,
          0.2601489529493062
        ],
        [
          -0.19306060807790276,
          0.10063932188188526
        ],
        [
          0.05548841385222371,
          0.0057329240847867466
        ],
        [
          0.15311425866158493,
          -0.019014741483947523
        ],
        [
          0.01987681528485477,
          0.022254255111028767
        ],
        [
          -0.36679031066879336,
          0.3948564207221539
        ],
        [
          -0.04917430566054191,
          -0.23284500838133576
        ]
      ],
      "qibo_sigmoid_expval": 0.5825702064623147,
      "qibo_predicted_label": 1,
      "qibo_correct": true
    },
    "33": {
      "orig_angles": [
        1.6437822580337524,
        1.7800661325454712,
        0.8495982885360718,
        1.344436526298523,
        1.7703756093978882,
        2.929117202758789,
        1.9368476867675781,
        1.4926035404205322,
        -0.5122701525688171,
        -1.4735169410705566,
        2.6131367683410645,
        2.2558279037475586,
        -2.5087063312530518,
        2.3548810482025146,
        -2.560439348220825,
        2.681788444519043
      ],
      "input": [
        1.6437822580337524,
        1.7800661325454712,
        0.8495982885360718,
        1.344436526298523,
        1.7703756093978882,
        2.929117202758789
      ],
      "weights": [
        0.5275135040283203,
        2.40683913230896,
        -1.6032309532165527,
        1.9585349559783936,
        -2.065887451171875,
        -2.775766372680664,
        1.9368476867675781,
        1.4926035404205322,
        -0.5122701525688171,
        -1.4735169410705566,
        2.6131367683410645,
        2.2558279037475586,
        -2.5087063312530518,
        2.3548810482025146,
        -2.560439348220825,
        2.681788444519043
      ],
      "label": 0,
      "noiseless_label": 0,
      "angles": {
        "0": {
          "1": 1.6437822580337524,
          "2": 1.7800661325454712,
          "3": 1.9368476867675781,
          "4": 2.2558279037475586
        },
        "1": {
          "1": 0.8495982885360718,
          "2": 1.344436526298523,
          "3": 1.4926035404205322,
          "4": -1.4735169410705566,
          "5": -2.5087063312530518,
          "6": -2.560439348220825
        },
        "2": {
          "1": 1.7703756093978882,
          "2": 2.929117202758789,
          "3": -0.5122701525688171,
          "4": 2.6131367683410645,
          "5": 2.3548810482025146,
          "6": 2.681788444519043
        }
      },
      "predicted_label_pennylane": 0,
      "sigmoid(expval)_pennylane": 0.4870509179683498,
      "tomography": [
        [
          0.40378193075226704,
          0.23912292080748054
        ],
        [
          0.48455086022699284,
          -0.038265660791571635
        ],
        [
          0.040715909761175194,
          0.0057647184739504035
        ],
        [
          0.12377599143515318,
          0.024720727498232085
        ],
        [
          -0.0028552949955746258,
          -0.06994601598970794
        ],
        [
          -0.14428052972085667,
          0.0037480010225116045
        ],
        [
          -0.5185633924679208,
          -0.03481352520194449
        ],
        [
          -0.25928874010786435,
          -0.4035118530691335
        ]
      ],
      "qibo_sigmoid_expval": 0.4716969549241712,
      "qibo_predicted_label": 0,
      "qibo_correct": true
    },
    "34": {
      "orig_angles": [
        1.1597203016281128,
        1.8801137208938599,
        0.7224026918411255,
        1.4329055547714233,
        2.4276602268218994,
        2.4547715187072754,
        1.9368476867675781,
        1.4926035404205322,
        -0.5122701525688171,
        -1.4735169410705566,
        2.6131367683410645,
        2.2558279037475586,
        -2.5087063312530518,
        2.3548810482025146,
        -2.560439348220825,
        2.681788444519043
      ],
      "input": [
        1.1597203016281128,
        1.8801137208938599,
        0.7224026918411255,
        1.4329055547714233,
        2.4276602268218994,
        2.4547715187072754
      ],
      "weights": [
        0.5275135040283203,
        2.40683913230896,
        -1.6032309532165527,
        1.9585349559783936,
        -2.065887451171875,
        -2.775766372680664,
        1.9368476867675781,
        1.4926035404205322,
        -0.5122701525688171,
        -1.4735169410705566,
        2.6131367683410645,
        2.2558279037475586,
        -2.5087063312530518,
        2.3548810482025146,
        -2.560439348220825,
        2.681788444519043
      ],
      "label": 0,
      "noiseless_label": 0,
      "angles": {
        "0": {
          "1": 1.1597203016281128,
          "2": 1.8801137208938599,
          "3": 1.9368476867675781,
          "4": 2.2558279037475586
        },
        "1": {
          "1": 0.7224026918411255,
          "2": 1.4329055547714233,
          "3": 1.4926035404205322,
          "4": -1.4735169410705566,
          "5": -2.5087063312530518,
          "6": -2.560439348220825
        },
        "2": {
          "1": 2.4276602268218994,
          "2": 2.4547715187072754,
          "3": -0.5122701525688171,
          "4": 2.6131367683410645,
          "5": 2.3548810482025146,
          "6": 2.681788444519043
        }
      },
      "predicted_label_pennylane": 0,
      "sigmoid(expval)_pennylane": 0.47791408555440307,
      "tomography": [
        [
          0.578165888653244,
          -0.037763921045532584
        ],
        [
          0.33931745926180873,
          -0.043954888619130765
        ],
        [
          -0.03476783279996632,
          0.032877176834740174
        ],
        [
          0.021631358320623194,
          0.016477355855090248
        ],
        [
          0.01864074489330875,
          -0.09592734357728712
        ],
        [
          -0.037124479645515115,
          -0.08699403897033821
        ],
        [
          -0.6696648624328143,
          -0.014205332557611111
        ],
        [
          -0.13133852394856182,
          -0.24454496816362253
        ]
      ],
      "qibo_sigmoid_expval": 0.4983333395061454,
      "qibo_predicted_label": 0,
      "qibo_correct": true
    },
    "35": {
      "orig_angles": [
        0.8505473732948303,
        2.0635876655578613,
        0.7612138390541077,
        1.617253303527832,
        1.9847290515899658,
        2.0412447452545166,
        1.9368476867675781,
        1.4926035404205322,
        -0.5122701525688171,
        -1.4735169410705566,
        2.6131367683410645,
        2.2558279037475586,
        -2.5087063312530518,
        2.3548810482025146,
        -2.560439348220825,
        2.681788444519043
      ],
      "input": [
        0.8505473732948303,
        2.0635876655578613,
        0.7612138390541077,
        1.617253303527832,
        1.9847290515899658,
        2.0412447452545166
      ],
      "weights": [
        0.5275135040283203,
        2.40683913230896,
        -1.6032309532165527,
        1.9585349559783936,
        -2.065887451171875,
        -2.775766372680664,
        1.9368476867675781,
        1.4926035404205322,
        -0.5122701525688171,
        -1.4735169410705566,
        2.6131367683410645,
        2.2558279037475586,
        -2.5087063312530518,
        2.3548810482025146,
        -2.560439348220825,
        2.681788444519043
      ],
      "label": 1,
      "noiseless_label": 0,
      "angles": {
        "0": {
          "1": 0.8505473732948303,
          "2": 2.0635876655578613,
          "3": 1.9368476867675781,
          "4": 2.2558279037475586
        },
        "1": {
          "1": 0.7612138390541077,
          "2": 1.617253303527832,
          "3": 1.4926035404205322,
          "4": -1.4735169410705566,
          "5": -2.5087063312530518,
          "6": -2.560439348220825
        },
        "2": {
          "1": 1.9847290515899658,
          "2": 2.0412447452545166,
          "3": -0.5122701525688171,
          "4": 2.6131367683410645,
          "5": 2.3548810482025146,
          "6": 2.681788444519043
        }
      },
      "predicted_label_pennylane": 0,
      "sigmoid(expval)_pennylane": 0.45964581074944777,
      "tomography": [
        [
          0.3918548088105607,
          -0.23955322523562994
        ],
        [
          0.41210670583261666,
          -0.09741916922770899
        ],
        [
          -0.07054220654602611,
          0.15185689003980624
        ],
        [
          0.01009750562624452,
          -0.02680755192227061
        ],
        [
          0.04541649195253801,
          -0.1114198040238599
        ],
        [
          -0.04371392072343633,
          -0.15127390942452387
        ],
        [
