{
  "args": {
    "n_input_params": 4,
    "num_qubits": 3,
    "num_layers": 2,
    "initial_number": null,
    "simplify_circuit": false,
    "add_rbs_gates": false,
    "remove_entanglement": false,
    "seed": 43,
    "max_epochs": 3,
    "learning_rate": 0.0005,
    "strategy": "ale_two",
    "class_strategy": "binary",
    "dataset": "statlog",
    "output_qubit": 2,
    "requires_embedding": false,
    "hidden_dim": 128,
    "batch_size": 32,
    "patience": 10,
    "k_folds": 2,
    "debug_k_fold": true,
    "debug_tuning": true,
    "n_trials": 1,
    "n_jobs": 1,
    "output_size": 1
  },
  "accuracy": 0.5048335123523093,
  "qc_configurations": {
    "0": {
      "orig_angles": [
        1.3512190580368042,
        2.5646345615386963,
        0.9145674109458923,
        1.5722007751464844,
        3.032947540283203,
        -2.3614342212677,
        2.4468579292297363,
        -1.0510255098342896,
        2.9795081615448,
        -1.4444419145584106,
        0.06385383009910583,
        1.11923348903656,
        -2.7044479846954346,
        1.9221490621566772,
        -1.881287693977356,
        1.5582666397094727,
        -0.22181344032287598,
        0.8739335536956787,
        -2.0133049488067627,
        1.1887028217315674
      ],
      "input": [
        1.3512190580368042,
        2.5646345615386963,
        0.9145674109458923,
        1.1887028217315674
      ],
      "weights": [
        1.5722007751464844,
        3.032947540283203,
        -2.3614342212677,
        2.4468579292297363,
        -1.0510255098342896,
        2.9795081615448,
        -1.4444419145584106,
        0.06385383009910583,
        1.11923348903656,
        -2.7044479846954346,
        1.9221490621566772,
        -1.881287693977356,
        1.5582666397094727,
        -0.22181344032287598,
        0.8739335536956787,
        -2.0133049488067627
      ],
      "label": 0,
      "noiseless_label": 0,
      "angles": {
        "0": {
          "1": 1.3512190580368042,
          "2": 2.5646345615386963,
          "3": 2.4468579292297363,
          "4": 1.11923348903656
        },
        "1": {
          "1": 0.9145674109458923,
          "2": 1.5722007751464844,
          "3": -1.0510255098342896,
          "4": -1.4444419145584106,
          "5": -2.7044479846954346,
          "6": -1.881287693977356
        },
        "2": {
          "1": 3.032947540283203,
          "2": -2.3614342212677,
          "3": 2.9795081615448,
          "4": 0.06385383009910583,
          "5": 1.9221490621566772,
          "6": 1.5582666397094727
        }
      },
      "predicted_label_pennylane": 0,
      "sigmoid(expval)_pennylane": 0.43431441259776765,
      "tomography": [
        [
          0.15571500505382785,
          0.33138706450616673
        ],
        [
          -0.41283575134863865,
          0.24019457433905
        ],
        [
          -0.1384467520045209,
          -0.13182493106216908
        ],
        [
          -0.15967062378515698,
          0.19547715271271923
        ],
        [
          0.12483636168553938,
          0.015480226765904187
        ],
        [
          -0.005249266185385237,
          0.16223585836387117
        ],
        [
          0.06674605907080575,
          -0.4206857427878776
        ],
        [
          -0.5582207698573162,
          -0.048410504873213245
        ]
      ],
      "qibo_sigmoid_expval": 0.4386441153736561,
      "qibo_predicted_label": 0,
      "qibo_correct": true
    },
    "1": {
      "orig_angles": [
        0.8617511987686157,
        2.1718690395355225,
        1.2689640522003174,
        1.5722007751464844,
        3.032947540283203,
        -2.3614342212677,
        2.4468579292297363,
        -1.0510255098342896,
        2.9795081615448,
        -1.4444419145584106,
        0.06385383009910583,
        1.11923348903656,
        -2.7044479846954346,
        1.9221490621566772,
        -1.881287693977356,
        1.5582666397094727,
        -0.22181344032287598,
        0.8739335536956787,
        -2.0133049488067627,
        1.3485594987869263
      ],
      "input": [
        0.8617511987686157,
        2.1718690395355225,
        1.2689640522003174,
        1.3485594987869263
      ],
      "weights": [
        1.5722007751464844,
        3.032947540283203,
        -2.3614342212677,
        2.4468579292297363,
        -1.0510255098342896,
        2.9795081615448,
        -1.4444419145584106,
        0.06385383009910583,
        1.11923348903656,
        -2.7044479846954346,
        1.9221490621566772,
        -1.881287693977356,
        1.5582666397094727,
        -0.22181344032287598,
        0.8739335536956787,
        -2.0133049488067627
      ],
      "label": 0,
      "noiseless_label": 0,
      "angles": {
        "0": {
          "1": 0.8617511987686157,
          "2": 2.1718690395355225,
          "3": 2.4468579292297363,
          "4": 1.11923348903656
        },
        "1": {
          "1": 1.2689640522003174,
          "2": 1.5722007751464844,
          "3": -1.0510255098342896,
          "4": -1.4444419145584106,
          "5": -2.7044479846954346,
          "6": -1.881287693977356
        },
        "2": {
          "1": 3.032947540283203,
          "2": -2.3614342212677,
          "3": 2.9795081615448,
          "4": 0.06385383009910583,
          "5": 1.9221490621566772,
          "6": 1.5582666397094727
        }
      },
      "predicted_label_pennylane": 0,
      "sigmoid(expval)_pennylane": 0.4344890964953576,
      "tomography": [
        [
          0.2033844508941189,
          0.2794714377341251
        ],
        [
          -0.34048018270505753,
          0.29562721898976424
        ],
        [
          0.038786119801405776,
          -0.12246394647579076
        ],
        [
          -0.1638122587203864,
          -0.03796934123957102
        ],
        [
          0.11369404004021336,
          0.09407846284988383
        ],
        [
          -0.10828563666020102,
          0.15659854312145094
        ],
        [
          0.12506143777806422,
          -0.4413976449349693
        ],
        [
          -0.5905764878241948,
          -0.12309166533265814
        ]
      ],
      "qibo_sigmoid_expval": 0.41905189485154154,
      "qibo_predicted_label": 0,
      "qibo_correct": true
    },
    "2": {
      "orig_angles": [
        0.6124536395072937,
        1.5285483598709106,
        1.311195969581604,
        1.5722007751464844,
        3.032947540283203,
        -2.3614342212677,
        2.4468579292297363,
        -1.0510255098342896,
        2.9795081615448,
        -1.4444419145584106,
        0.06385383009910583,
        1.11923348903656,
        -2.7044479846954346,
        1.9221490621566772,
        -1.881287693977356,
        1.5582666397094727,
        -0.22181344032287598,
        0.8739335536956787,
        -2.0133049488067627,
        1.597947359085083
      ],
      "input": [
        0.6124536395072937,
        1.5285483598709106,
        1.311195969581604,
        1.597947359085083
      ],
      "weights": [
        1.5722007751464844,
        3.032947540283203,
        -2.3614342212677,
        2.4468579292297363,
        -1.0510255098342896,
        2.9795081615448,
        -1.4444419145584106,
        0.06385383009910583,
        1.11923348903656,
        -2.7044479846954346,
        1.9221490621566772,
        -1.881287693977356,
        1.5582666397094727,
        -0.22181344032287598,
        0.8739335536956787,
        -2.0133049488067627
      ],
      "label": 0,
      "noiseless_label": 0,
      "angles": {
        "0": {
          "1": 0.6124536395072937,
          "2": 1.5285483598709106,
          "3": 2.4468579292297363,
          "4": 1.11923348903656
        },
        "1": {
          "1": 1.311195969581604,
          "2": 1.5722007751464844,
          "3": -1.0510255098342896,
          "4": -1.4444419145584106,
          "5": -2.7044479846954346,
          "6": -1.881287693977356
        },
        "2": {
          "1": 3.032947540283203,
          "2": -2.3614342212677,
          "3": 2.9795081615448,
          "4": 0.06385383009910583,
          "5": 1.9221490621566772,
          "6": 1.5582666397094727
        }
      },
      "predicted_label_pennylane": 0,
      "sigmoid(expval)_pennylane": 0.4345117399450775,
      "tomography": [
        [
          0.15844090391806562,
          0.2500930120362662
        ],
        [
          -0.30738596159529946,
          0.23342933203280147
        ],
        [
          0.1443942677464727,
          -0.044517103527520765
        ],
        [
          -0.07166764208555426,
          -0.18397274521845625
        ],
        [
          0.024685650771555434,
          0.16004732279269368
        ],
        [
          -0.20355042047956268,
          0.04866135897725804
        ],
        [
          0.22815955083064962,
          -0.4236790000381836
        ],
        [
          -0.576599479229798,
          -0.2598230557678669
        ]
      ],
      "qibo_sigmoid_expval": 0.4386441153736561,
      "qibo_predicted_label": 0,
      "qibo_correct": true
    },
    "3": {
      "orig_angles": [
        1.8887611627578735,
        2.8970351219177246,
        1.8338679075241089,
        1.5722007751464844,
        3.032947540283203,
        -2.3614342212677,
        2.4468579292297363,
        -1.0510255098342896,
        2.9795081615448,
        -1.4444419145584106,
        0.06385383009910583,
        1.11923348903656,
        -2.7044479846954346,
        1.9221490621566772,
        -1.881287693977356,
        1.5582666397094727,
        -0.22181344032287598,
        0.8739335536956787,
        -2.0133049488067627,
        1.4035753011703491
      ],
      "input": [
        1.8887611627578735,
        2.8970351219177246,
        1.8338679075241089,
        1.4035753011703491
      ],
      "weights": [
        1.5722007751464844,
        3.032947540283203,
        -2.3614342212677,
        2.4468579292297363,
        -1.0510255098342896,
        2.9795081615448,
        -1.4444419145584106,
        0.06385383009910583,
        1.11923348903656,
        -2.7044479846954346,
        1.9221490621566772,
        -1.881287693977356,
        1.5582666397094727,
        -0.22181344032287598,
        0.8739335536956787,
        -2.0133049488067627
      ],
      "label": 0,
      "noiseless_label": 0,
      "angles": {
        "0": {
          "1": 1.8887611627578735,
          "2": 2.8970351219177246,
          "3": 2.4468579292297363,
          "4": 1.11923348903656
        },
        "1": {
          "1": 1.8338679075241089,
          "2": 1.5722007751464844,
          "3": -1.0510255098342896,
          "4": -1.4444419145584106,
          "5": -2.7044479846954346,
          "6": -1.881287693977356
        },
        "2": {
          "1": 3.032947540283203,
          "2": -2.3614342212677,
          "3": 2.9795081615448,
          "4": 0.06385383009910583,
          "5": 1.9221490621566772,
          "6": 1.5582666397094727
        }
      },
      "predicted_label_pennylane": 0,
      "sigmoid(expval)_pennylane": 0.43479992790568617,
      "tomography": [
        [
          0.27064418669250656,
          0.35726113056953596
        ],
        [
          -0.43380492277662736,
          0.39230978118726795
        ],
        [
          -0.09651570208154372,
          -0.1886358677241859
        ],
        [
          -0.2376971021804739,
          0.14608738437836666
        ],
        [
          0.2336361756004271,
          -0.12719646755996383
        ],
        [
          0.1921549776330874,
          0.2884542740709589
        ],
        [
          0.12973986604232907,
          -0.1883435856068974
        ],
        [
          -0.2602014227007625,
          -0.1528973470341649
        ]
      ],
      "qibo_sigmoid_expval": 0.45842951678320015,
      "qibo_predicted_label": 0,
      "qibo_correct": true
    },
    "4": {
      "orig_angles": [
        1.0267400741577148,
        2.3377058506011963,
        1.6611567735671997,
        1.5722007751464844,
        3.032947540283203,
        -2.3614342212677,
        2.4468579292297363,
        -1.0510255098342896,
        2.9795081615448,
        -1.4444419145584106,
        0.06385383009910583,
        1.11923348903656,
        -2.7044479846954346,
        1.9221490621566772,
        -1.881287693977356,
        1.5582666397094727,
        -0.22181344032287598,
        0.8739335536956787,
        -2.0133049488067627,
        1.1943129301071167
      ],
      "input": [
        1.0267400741577148,
        2.3377058506011963,
        1.6611567735671997,
        1.1943129301071167
      ],
      "weights": [
        1.5722007751464844,
        3.032947540283203,
        -2.3614342212677,
        2.4468579292297363,
        -1.0510255098342896,
        2.9795081615448,
        -1.4444419145584106,
        0.06385383009910583,
        1.11923348903656,
        -2.7044479846954346,
        1.9221490621566772,
        -1.881287693977356,
        1.5582666397094727,
        -0.22181344032287598,
        0.8739335536956787,
        -2.0133049488067627
      ],
      "label": 0,
      "noiseless_label": 0,
      "angles": {
        "0": {
          "1": 1.0267400741577148,
          "2": 2.3377058506011963,
          "3": 2.4468579292297363,
          "4": 1.11923348903656
        },
        "1": {
          "1": 1.6611567735671997,
          "2": 1.5722007751464844,
          "3": -1.0510255098342896,
          "4": -1.4444419145584106,
          "5": -2.7044479846954346,
          "6": -1.881287693977356
        },
        "2": {
          "1": 3.032947540283203,
          "2": -2.3614342212677,
          "3": 2.9795081615448,
          "4": 0.06385383009910583,
          "5": 1.9221490621566772,
          "6": 1.5582666397094727
        }
      },
      "predicted_label_pennylane": 0,
      "sigmoid(expval)_pennylane": 0.4347052607071844,
      "tomography": [
        [
          0.27774217401777546,
          0.2725555089140727
        ],
        [
          -0.32319221169727813,
          0.391427768846624
        ],
        [
          0.037527525492743276,
          -0.13754046039815535
        ],
        [
          -0.18316204175447043,
          -0.03482978013323773
        ],
        [
          0.1931556489774457,
          0.05629531731133042
        ],
        [
          -0.050328639486948934,
          0.25582453329088595
        ],
        [
          0.1425128136629758,
          -0.36894363729747437
        ],
        [
          -0.49752420502667266,
          -0.15296947227948854
        ]
      ],
      "qibo_sigmoid_expval": 0.44851644633881743,
      "qibo_predicted_label": 0,
      "qibo_correct": true
    },
    "5": {
      "orig_angles": [
        0.7509724497795105,
        2.1089367866516113,
        1.4736748933792114,
        1.5722007751464844,
        3.032947540283203,
        -2.3614342212677,
        2.4468579292297363,
        -1.0510255098342896,
        2.9795081615448,
        -1.4444419145584106,
        0.06385383009910583,
        1.11923348903656,
        -2.7044479846954346,
        1.9221490621566772,
        -1.881287693977356,
        1.5582666397094727,
        -0.22181344032287598,
        0.8739335536956787,
        -2.0133049488067627,
        1.5995880365371704
      ],
      "input": [
        0.7509724497795105,
        2.1089367866516113,
        1.4736748933792114,
        1.5995880365371704
      ],
      "weights": [
        1.5722007751464844,
        3.032947540283203,
        -2.3614342212677,
        2.4468579292297363,
        -1.0510255098342896,
        2.9795081615448,
        -1.4444419145584106,
        0.06385383009910583,
        1.11923348903656,
        -2.7044479846954346,
        1.9221490621566772,
        -1.881287693977356,
        1.5582666397094727,
        -0.22181344032287598,
        0.8739335536956787,
        -2.0133049488067627
      ],
      "label": 0,
      "noiseless_label": 0,
      "angles": {
        "0": {
          "1": 0.7509724497795105,
          "2": 2.1089367866516113,
          "3": 2.4468579292297363,
          "4": 1.11923348903656
        },
        "1": {
          "1": 1.4736748933792114,
          "2": 1.5722007751464844,
          "3": -1.0510255098342896,
          "4": -1.4444419145584106,
          "5": -2.7044479846954346,
          "6": -1.881287693977356
        },
        "2": {
          "1": 3.032947540283203,
          "2": -2.3614342212677,
          "3": 2.9795081615448,
          "4": 0.06385383009910583,
          "5": 1.9221490621566772,
          "6": 1.5582666397094727
        }
      },
      "predicted_label_pennylane": 0,
      "sigmoid(expval)_pennylane": 0.4346008542217091,
      "tomography": [
        [
          0.22573816005252365,
          0.2564619266886536
        ],
        [
          -0.30819168376163886,
          0.3218992036132955
        ],
        [
          0.08406879919481723,
          -0.11816605279103037
        ],
        [
          -0.16231760407209683,
          -0.09781897231345182
        ],
        [
          0.13865957277347504,
          0.1193103082760915
        ],
        [
          -0.13818032580729286,
          0.19196357794043878
        ],
        [
          0.1469889259771915,
          -0.41906999718990645
        ],
        [
          -0.5633350655453518,
          -0.15409402845624637
        ]
      ],
      "qibo_sigmoid_expval": 0.425557483188341,
      "qibo_predicted_label": 0,
      "qibo_correct": true
    },
    "6": {
      "orig_angles": [
        0.9094201326370239,
        2.261291027069092,
        1.6978728771209717,
        1.5722007751464844,
        3.032947540283203,
        -2.3614342212677,
        2.4468579292297363,
        -1.0510255098342896,
        2.9795081615448,
        -1.4444419145584106,
        0.06385383009910583,
        1.11923348903656,
        -2.7044479846954346,
        1.9221490621566772,
        -1.881287693977356,
        1.5582666397094727,
        -0.22181344032287598,
        0.8739335536956787,
        -2.0133049488067627,
        1.460875391960144
      ],
      "input": [
        0.9094201326370239,
        2.261291027069092,
        1.6978728771209717,
        1.460875391960144
      ],
      "weights": [
        1.5722007751464844,
        3.032947540283203,
        -2.3614342212677,
        2.4468579292297363,
        -1.0510255098342896,
        2.9795081615448,
        -1.4444419145584106,
        0.06385383009910583,
        1.11923348903656,
        -2.7044479846954346,
        1.9221490621566772,
        -1.881287693977356,
        1.5582666397094727,
        -0.22181344032287598,
        0.8739335536956787,
        -2.0133049488067627
      ],
      "label": 0,
      "noiseless_label": 0,
      "angles": {
        "0": {
          "1": 0.9094201326370239,
          "2": 2.261291027069092,
          "3": 2.4468579292297363,
          "4": 1.11923348903656
        },
        "1": {
          "1": 1.6978728771209717,
          "2": 1.5722007751464844,
          "3": -1.0510255098342896,
          "4": -1.4444419145584106,
          "5": -2.7044479846954346,
          "6": -1.881287693977356
        },
        "2": {
          "1": 3.032947540283203,
          "2": -2.3614342212677,
          "3": 2.9795081615448,
          "4": 0.06385383009910583,
          "5": 1.9221490621566772,
          "6": 1.5582666397094727
        }
      },
      "predicted_label_pennylane": 0,
      "sigmoid(expval)_pennylane": 0.4347256105867812,
      "tomography": [
        [
          0.2750824488622606,
          0.2568767224415389
        ],
        [
          -0.3031820863009553,
          0.38609620469843503
        ],
        [
          0.06664975887393622,
          -0.13011485304898318
        ],
        [
          -0.17615385584245763,
          -0.07378481793911498
        ],
        [
          0.19127830501403023,
          0.08248602768809925
        ],
        [
          -0.08450568727345509,
          0.256321585937309
        ],
        [
          0.1501575708293986,
          -0.3738117125316429
        ],
        [
          -0.5045345209965133,
          -0.16259463926811135
        ]
      ],
      "qibo_sigmoid_expval": 0.44028635073280703,
      "qibo_predicted_label": 0,
      "qibo_correct": true
    },
    "7": {
      "orig_angles": [
        0.7846051454544067,
        2.0961215496063232,
        1.5893945693969727,
        1.5722007751464844,
        3.032947540283203,
        -2.3614342212677,
        2.4468579292297363,
        -1.0510255098342896,
        2.9795081615448,
        -1.4444419145584106,
        0.06385383009910583,
        1.11923348903656,
        -2.7044479846954346,
        1.9221490621566772,
        -1.881287693977356,
        1.5582666397094727,
        -0.22181344032287598,
        0.8739335536956787,
        -2.0133049488067627,
        1.5758975744247437
      ],
      "input": [
        0.7846051454544067,
        2.0961215496063232,
        1.5893945693969727,
        1.5758975744247437
      ],
      "weights": [
        1.5722007751464844,
        3.032947540283203,
        -2.3614342212677,
        2.4468579292297363,
        -1.0510255098342896,
        2.9795081615448,
        -1.4444419145584106,
        0.06385383009910583,
        1.11923348903656,
        -2.7044479846954346,
        1.9221490621566772,
        -1.881287693977356,
        1.5582666397094727,
        -0.22181344032287598,
        0.8739335536956787,
        -2.0133049488067627
      ],
      "label": 0,
      "noiseless_label": 0,
      "angles": {
        "0": {
          "1": 0.7846051454544067,
          "2": 2.0961215496063232,
          "3": 2.4468579292297363,
          "4": 1.11923348903656
        },
        "1": {
          "1": 1.5893945693969727,
          "2": 1.5722007751464844,
          "3": -1.0510255098342896,
          "4": -1.4444419145584106,
          "5": -2.7044479846954346,
          "6": -1.881287693977356
        },
        "2": {
          "1": 3.032947540283203,
          "2": -2.3614342212677,
          "3": 2.9795081615448,
          "4": 0.06385383009910583,
          "5": 1.9221490621566772,
          "6": 1.5582666397094727
        }
      },
      "predicted_label_pennylane": 0,
      "sigmoid(expval)_pennylane": 0.43466531129697683,
      "tomography": [
        [
          0.2469113912590288,
          0.25262717675716273
        ],
        [
          -0.30082591073049947,
          0.34892381670841316
        ],
        [
          0.08941285485249477,
          -0.11203337638718065
        ],
        [
          -0.1546892116763813,
          -0.10539142094910196
        ],
        [
          0.15399586869671367,
          0.11692708602379462
        ],
        [
          -0.13333097723406728,
          0.21170184478099935
        ],
        [
          0.16142751389432375,
          -0.399752211212612
        ],
        [
          -0.5394057368082184,
          -0.1748921468565307
        ]
      ],
      "qibo_sigmoid_expval": 0.42392857554328783,
      "qibo_predicted_label": 0,
      "qibo_correct": true
    },
    "8": {
      "orig_angles": [
        0.7650512456893921,
        2.0197701454162598,
        1.9097388982772827,
        1.5722007751464844,
        3.032947540283203,
        -2.3614342212677,
        2.4468579292297363,
        -1.0510255098342896,
        2.9795081615448,
        -1.4444419145584106,
        0.06385383009910583,
        1.11923348903656,
        -2.7044479846954346,
        1.9221490621566772,
        -1.881287693977356,
        1.5582666397094727,
        -0.22181344032287598,
        0.8739335536956787,
        -2.0133049488067627,
        1.408063292503357
      ],
      "input": [
        0.7650512456893921,
        2.0197701454162598,
        1.9097388982772827,
        1.408063292503357
      ],
      "weights": [
        1.5722007751464844,
        3.032947540283203,
        -2.3614342212677,
        2.4468579292297363,
        -1.0510255098342896,
        2.9795081615448,
        -1.4444419145584106,
        0.06385383009910583,
        1.11923348903656,
        -2.7044479846954346,
        1.9221490621566772,
        -1.881287693977356,
        1.5582666397094727,
        -0.22181344032287598,
        0.8739335536956787,
        -2.0133049488067627
      ],
      "label": 0,
      "noiseless_label": 0,
      "angles": {
        "0": {
          "1": 0.7650512456893921,
          "2": 2.0197701454162598,
          "3": 2.4468579292297363,
          "4": 1.11923348903656
        },
        "1": {
          "1": 1.9097388982772827,
          "2": 1.5722007751464844,
          "3": -1.0510255098342896,
          "4": -1.4444419145584106,
          "5": -2.7044479846954346,
          "6": -1.881287693977356
        },
        "2": {
          "1": 3.032947540283203,
          "2": -2.3614342212677,
          "3": 2.9795081615448,
          "4": 0.06385383009910583,
          "5": 1.9221490621566772,
          "6": 1.5582666397094727
        }
      },
      "predicted_label_pennylane": 0,
      "sigmoid(expval)_pennylane": 0.43484030204108975,
      "tomography": [
        [
          0.28935389449592125,
          0.2261091089081625
        ],
        [
          -0.2616456211725696,
          0.40088651124385927
        ],
        [
          0.12272741610494872,
          -0.09301088476233998
        ],
        [
          -0.13267465772193274,
          -0.15091879537089062
        ],
        [
          0.1901730203170099,
          0.133194182634165
        ],
        [
          -0.15031963133942566,
          0.2607676510823177
        ],
        [
          0.19658068772453863,
          -0.3432502968216981
        ],
        [
          -0.46865016573996154,
          -0.22646973180367125
        ]
      ],
      "qibo_sigmoid_expval": 0.45016600268752216,
      "qibo_predicted_label": 0,
      "qibo_correct": true
    },
    "9": {
      "orig_angles": [
        1.2249747514724731,
        2.518683433532715,
        1.6766282320022583,
        1.5722007751464844,
        3.032947540283203,
        -2.3614342212677,
        2.4468579292297363,
        -1.0510255098342896,
        2.9795081615448,
        -1.4444419145584106,
        0.06385383009910583,
        1.11923348903656,
        -2.7044479846954346,
        1.9221490621566772,
        -1.881287693977356,
        1.5582666397094727,
        -0.22181344032287598,
        0.8739335536956787,
        -2.0133049488067627,
        0.9570509195327759
      ],
      "input": [
        1.2249747514724731,
        2.518683433532715,
        1.6766282320022583,
        0.9570509195327759
      ],
      "weights": [
        1.5722007751464844,
        3.032947540283203,
        -2.3614342212677,
        2.4468579292297363,
        -1.0510255098342896,
        2.9795081615448,
        -1.4444419145584106,
        0.06385383009910583,
        1.11923348903656,
        -2.7044479846954346,
        1.9221490621566772,
        -1.881287693977356,
        1.5582666397094727,
        -0.22181344032287598,
        0.8739335536956787,
        -2.0133049488067627
      ],
      "label": 0,
      "noiseless_label": 0,
      "angles": {
        "0": {
          "1": 1.2249747514724731,
          "2": 2.518683433532715,
          "3": 2.4468579292297363,
          "4": 1.11923348903656
        },
        "1": {
          "1": 1.6766282320022583,
          "2": 1.5722007751464844,
          "3": -1.0510255098342896,
          "4": -1.4444419145584106,
          "5": -2.7044479846954346,
          "6": -1.881287693977356
        },
        "2": {
          "1": 3.032947540283203,
          "2": -2.3614342212677,
          "3": 2.9795081615448,
          "4": 0.06385383009910583,
          "5": 1.9221490621566772,
          "6": 1.5582666397094727
        }
      },
      "predicted_label_pennylane": 0,
      "sigmoid(expval)_pennylane": 0.43471384580836225,
      "tomography": [
        [
          0.2838250802601794,
          0.29317526535089
        ],
        [
          -0.34923905783260123,
          0.40183827627453805
        ],
        [
          -0.006061387558249795,
          -0.15746761309950455
        ],
        [
          -0.2051966701787739,
          0.024297095346319186
        ],
        [
          0.21396036164319365,
          0.00769893457346886
        ],
        [
          0.015004548325818962,
          0.27747125901157904
        ],
        [
          0.1280141424735961,
          -0.339279864669099
        ],
        [
          -0.45747388711729353,
          -0.1366978613007831
        ]
      ],
      "qibo_sigmoid_expval": 0.4435747105505899,
      "qibo_predicted_label": 0,
      "qibo_correct": true
    },
    "10": {
      "orig_angles": [
        0.6704186797142029,
        1.9974223375320435,
        2.109384775161743,
        1.5722007751464844,
        3.032947540283203,
        -2.3614342212677,
        2.4468579292297363,
        -1.0510255098342896,
        2.9795081615448,
        -1.4444419145584106,
        0.06385383009910583,
        1.11923348903656,
        -2.7044479846954346,
        1.9221490621566772,
        -1.881287693977356,
        1.5582666397094727,
        -0.22181344032287598,
        0.8739335536956787,
        -2.0133049488067627,
        1.5281051397323608
      ],
      "input": [
        0.6704186797142029,
        1.9974223375320435,
        2.109384775161743,
        1.5281051397323608
      ],
      "weights": [
        1.5722007751464844,
        3.032947540283203,
        -2.3614342212677,
        2.4468579292297363,
        -1.0510255098342896,
        2.9795081615448,
        -1.4444419145584106,
        0.06385383009910583,
        1.11923348903656,
        -2.7044479846954346,
        1.9221490621566772,
        -1.881287693977356,
        1.5582666397094727,
        -0.22181344032287598,
        0.8739335536956787,
        -2.0133049488067627
      ],
      "label": 0,
      "noiseless_label": 0,
      "angles": {
        "0": {
          "1": 0.6704186797142029,
          "2": 1.9974223375320435,
          "3": 2.4468579292297363,
          "4": 1.11923348903656
        },
        "1": {
          "1": 2.109384775161743,
          "2": 1.5722007751464844,
          "3": -1.0510255098342896,
          "4": -1.4444419145584106,
          "5": -2.7044479846954346,
          "6": -1.881287693977356
        },
        "2": {
          "1": 3.032947540283203,
          "2": -2.3614342212677,
          "3": 2.9795081615448,
          "4": 0.06385383009910583,
          "5": 1.9221490621566772,
          "6": 1.5582666397094727
        }
      },
      "predicted_label_pennylane": 0,
      "sigmoid(expval)_pennylane": 0.43494082790469385,
      "tomography": [
        [
          0.3007896501688502,
          0.19767695283786707
        ],
        [
          -0.22348245952668372,
          0.4124207431225506
        ],
        [
          0.15035461044637338,
          -0.08325946103939116
        ],
        [
          -0.12240319807181219,
          -0.18816392163287854
        ],
        [
          0.22120846458369245,
          0.15447037349172152
        ],
        [
          -0.17446415779187935,
          0.30360217861339034
        ],
        [
          0.20568524330493237,
          -0.30813930458048944
        ],
        [
          -0.423466452521569,
          -0.24186956299156245
        ]
      ],
      "qibo_sigmoid_expval": 0.43208895029076777,
      "qibo_predicted_label": 0,
      "qibo_correct": true
    },
    "11": {
      "orig_angles": [
        1.349631667137146,
        2.570204973220825,
        0.6446654200553894,
        1.5722007751464844,
        3.032947540283203,
        -2.3614342212677,
        2.4468579292297363,
        -1.0510255098342896,
        2.9795081615448,
        -1.4444419145584106,
        0.06385383009910583,
        1.11923348903656,
        -2.7044479846954346,
        1.9221490621566772,
        -1.881287693977356,
        1.5582666397094727,
        -0.22181344032287598,
        0.8739335536956787,
        -2.0133049488067627,
        1.2040313482284546
      ],
      "input": [
        1.349631667137146,
        2.570204973220825,
        0.6446654200553894,
        1.2040313482284546
      ],
      "weights": [
        1.5722007751464844,
        3.032947540283203,
        -2.3614342212677,
        2.4468579292297363,
        -1.0510255098342896,
        2.9795081615448,
        -1.4444419145584106,
        0.06385383009910583,
        1.11923348903656,
        -2.7044479846954346,
        1.9221490621566772,
        -1.881287693977356,
        1.5582666397094727,
        -0.22181344032287598,
        0.8739335536956787,
        -2.0133049488067627
      ],
      "label": 0,
      "noiseless_label": 0,
      "angles": {
        "0": {
          "1": 1.349631667137146,
          "2": 2.570204973220825,
          "3": 2.4468579292297363,
          "4": 1.11923348903656
        },
        "1": {
          "1": 0.6446654200553894,
          "2": 1.5722007751464844,
          "3": -1.0510255098342896,
          "4": -1.4444419145584106,
          "5": -2.7044479846954346,
          "6": -1.881287693977356
        },
        "2": {
          "1": 3.032947540283203,
          "2": -2.3614342212677,
          "3": 2.9795081615448,
          "4": 0.06385383009910583,
          "5": 1.9221490621566772,
          "6": 1.5582666397094727
        }
      },
      "predicted_label_pennylane": 0,
      "sigmoid(expval)_pennylane": 0.4342086733988239,
      "tomography": [
        [
          0.10318185773589673,
          0.3283353526002854
        ],
        [
          -0.41464711403982973,
          0.17173413073710891
        ],
        [
          -0.1733747090654985,
          -0.1184075253851562
        ],
        [
          -0.13899263699250702,
          0.23993808101069877
        ],
        [
          0.0887501541721532,
          0.026890909720159326
        ],
        [
          -0.024195404749522878,
          0.11655190600305931
        ],
        [
          0.04054135887853055,
          -0.44144864678224904
        ],
        [
          -0.5828569666443251,
          -0.011998481999677124
        ]
      ],
      "qibo_sigmoid_expval": 0.4158094770645927,
      "qibo_predicted_label": 0,
      "qibo_correct": true
    },
    "12": {
      "orig_angles": [
        1.1313772201538086,
        2.4338345527648926,
        0.9837946891784668,
        1.5722007751464844,
        3.032947540283203,
        -2.3614342212677,
        2.4468579292297363,
        -1.0510255098342896,
        2.9795081615448,
        -1.4444419145584106,
        0.06385383009910583,
        1.11923348903656,
        -2.7044479846954346,
        1.9221490621566772,
        -1.881287693977356,
        1.5582666397094727,
        -0.22181344032287598,
        0.8739335536956787,
        -2.0133049488067627,
        1.1717803478240967
      ],
      "input": [
        1.1313772201538086,
        2.4338345527648926,
        0.9837946891784668,
        1.1717803478240967
      ],
      "weights": [
        1.5722007751464844,
        3.032947540283203,
        -2.3614342212677,
        2.4468579292297363,
        -1.0510255098342896,
        2.9795081615448,
        -1.4444419145584106,
        0.06385383009910583,
        1.11923348903656,
        -2.7044479846954346,
        1.9221490621566772,
        -1.881287693977356,
        1.5582666397094727,
        -0.22181344032287598,
        0.8739335536956787,
        -2.0133049488067627
      ],
      "label": 0,
      "noiseless_label": 0,
      "angles": {
        "0": {
          "1": 1.1313772201538086,
          "2": 2.4338345527648926,
          "3": 2.4468579292297363,
          "4": 1.11923348903656
        },
        "1": {
          "1": 0.9837946891784668,
          "2": 1.5722007751464844,
          "3": -1.0510255098342896,
          "4": -1.4444419145584106,
          "5": -2.7044479846954346,
          "6": -1.881287693977356
        },
        "2": {
          "1": 3.032947540283203,
          "2": -2.3614342212677,
          "3": 2.9795081615448,
          "4": 0.06385383009910583,
          "5": 1.9221490621566772,
          "6": 1.5582666397094727
        }
      },
      "predicted_label_pennylane": 0,
      "sigmoid(expval)_pennylane": 0.43434584226510886,
      "tomography": [
        [
          0.16734153819673186,
          0.3142464254203336
        ],
        [
          -0.38944783627115453,
          0.25315122114591476
        ],
        [
          -0.07316612634096376,
          -0.13540973563456107
        ],
        [
          -0.1704449537857697,
          0.11015290598016073
        ],
        [
          0.1107447335694608,
          0.04579705342399537
        ],
        [
          -0.04613525493372115,
          0.14726190168854297
        ],
        [
          0.07322900634526572,
          -0.4447041426462976
        ],
        [
          -0.5901916901660951,
          -0.05467928030478614
        ]
      ],
      "qibo_sigmoid_expval": 0.43045377606077095,
      "qibo_predicted_label": 0,
      "qibo_correct": true
    },
    "13": {
      "orig_angles": [
        1.0298935174942017,
        2.28381609916687,
        1.668684959411621,
        1.5722007751464844,
        3.032947540283203,
        -2.3614342212677,
        2.4468579292297363,
        -1.0510255098342896,
        2.9795081615448,
        -1.4444419145584106,
        0.06385383009910583,
        1.11923348903656,
        -2.7044479846954346,
        1.9221490621566772,
        -1.881287693977356,
        1.5582666397094727,
        -0.22181344032287598,
        0.8739335536956787,
        -2.0133049488067627,
        1.5479381084442139
      ],
      "input": [
        1.0298935174942017,
        2.28381609916687,
        1.668684959411621,
        1.5479381084442139
      ],
      "weights": [
        1.5722007751464844,
        3.032947540283203,
        -2.3614342212677,
        2.4468579292297363,
        -1.0510255098342896,
        2.9795081615448,
        -1.4444419145584106,
        0.06385383009910583,
        1.11923348903656,
        -2.7044479846954346,
        1.9221490621566772,
        -1.881287693977356,
        1.5582666397094727,
        -0.22181344032287598,
        0.8739335536956787,
        -2.0133049488067627
      ],
      "label": 0,
      "noiseless_label": 0,
      "angles": {
        "0": {
          "1": 1.0298935174942017,
          "2": 2.28381609916687,
          "3": 2.4468579292297363,
          "4": 1.11923348903656
        },
        "1": {
          "1": 1.668684959411621,
          "2": 1.5722007751464844,
          "3": -1.0510255098342896,
          "4": -1.4444419145584106,
          "5": -2.7044479846954346,
          "6": -1.881287693977356
        },
        "2": {
          "1": 3.032947540283203,
          "2": -2.3614342212677,
          "3": 2.9795081615448,
          "4": 0.06385383009910583,
          "5": 1.9221490621566772,
          "6": 1.5582666397094727
        }
      },
      "predicted_label_pennylane": 0,
      "sigmoid(expval)_pennylane": 0.4347094397599549,
      "tomography": [
        [
          0.28055267117201205,
          0.2727181780134398
        ],
        [
          -0.32306887185949495,
          0.3950601348581622
        ],
        [
          0.041633526996243994,
          -0.12902392361383805
        ],
        [
          -0.17236885437075916,
          -0.041011305173631996
        ],
        [
          0.18545082348081765,
          0.060395852851058834
        ],
        [
          -0.056479032464417295,
          0.24629674629785966
        ],
        [
          0.15251235621221232,
          -0.3686512974448857
        ],
        [
          -0.4980489107909435,
          -0.16609444498531797
        ]
      ],
      "qibo_sigmoid_expval": 0.4419298941260467,
      "qibo_predicted_label": 0,
      "qibo_correct": true
    },
    "14": {
      "orig_angles": [
        0.48512813448905945,
        1.8213975429534912,
        1.9021334648132324,
        1.5722007751464844,
        3.032947540283203,
        -2.3614342212677,
        2.4468579292297363,
        -1.0510255098342896,
        2.9795081615448,
        -1.4444419145584106,
        0.06385383009910583,
        1.11923348903656,
        -2.7044479846954346,
        1.9221490621566772,
        -1.881287693977356,
        1.5582666397094727,
        -0.22181344032287598,
        0.8739335536956787,
        -2.0133049488067627,
        1.5404741764068604
      ],
      "input": [
        0.48512813448905945,
        1.8213975429534912,
        1.9021334648132324,
        1.5404741764068604
      ],
      "weights": [
        1.5722007751464844,
        3.032947540283203,
        -2.3614342212677,
        2.4468579292297363,
        -1.0510255098342896,
        2.9795081615448,
        -1.4444419145584106,
        0.06385383009910583,
        1.11923348903656,
        -2.7044479846954346,
        1.9221490621566772,
        -1.881287693977356,
        1.5582666397094727,
        -0.22181344032287598,
        0.8739335536956787,
        -2.0133049488067627
      ],
      "label": 0,
      "noiseless_label": 0,
      "angles": {
        "0": {
          "1": 0.48512813448905945,
          "2": 1.8213975429534912,
          "3": 2.4468579292297363,
          "4": 1.11923348903656
        },
        "1": {
          "1": 1.9021334648132324,
          "2": 1.5722007751464844,
          "3": -1.0510255098342896,
          "4": -1.4444419145584106,
          "5": -2.7044479846954346,
          "6": -1.881287693977356
        },
        "2": {
          "1": 3.032947540283203,
          "2": -2.3614342212677,
          "3": 2.9795081615448,
          "4": 0.06385383009910583,
          "5": 1.9221490621566772,
          "6": 1.5582666397094727
        }
      },
      "predicted_label_pennylane": 0,
      "sigmoid(expval)_pennylane": 0.4348362994876286,
      "tomography": [
        [
          0.24268530898041082,
          0.20175638263762846
        ],
        [
          -0.23532069056786886,
          0.3373337302403622
        ],
        [
          0.17339827501155006,
          -0.07000335802662293
        ],
        [
          -0.10742228937492686,
          -0.21969097315528457
        ],
        [
          0.17377406934214942,
          0.20030325175365557
        ],
        [
          -0.23923393749213281,
          0.24702227706933505
        ],
        [
          0.20922331259972246,
          -0.3467919591132479
        ],
        [
          -0.474217676681482,
          -0.2428251668939556
        ]
      ],
      "qibo_sigmoid_expval": 0.425557483188341,
      "qibo_predicted_label": 0,
      "qibo_correct": true
    },
    "15": {
      "orig_angles": [
        0.9720556735992432,
        2.419919013977051,
        1.2837730646133423,
        1.5722007751464844,
        3.032947540283203,
        -2.3614342212677,
        2.4468579292297363,
        -1.0510255098342896,
        2.9795081615448,
        -1.4444419145584106,
        0.06385383009910583,
        1.11923348903656,
        -2.7044479846954346,
        1.9221490621566772,
        -1.881287693977356,
        1.5582666397094727,
        -0.22181344032287598,
        0.8739335536956787,
        -2.0133049488067627,
        1.9692453145980835
      ],
      "input": [
        0.9720556735992432,
        2.419919013977051,
        1.2837730646133423,
        1.9692453145980835
      ],
      "weights": [
        1.5722007751464844,
        3.032947540283203,
        -2.3614342212677,
        2.4468579292297363,
        -1.0510255098342896,
        2.9795081615448,
        -1.4444419145584106,
        0.06385383009910583,
        1.11923348903656,
        -2.7044479846954346,
        1.9221490621566772,
        -1.881287693977356,
        1.5582666397094727,
        -0.22181344032287598,
        0.8739335536956787,
        -2.0133049488067627
      ],
      "label": 0,
      "noiseless_label": 0,
      "angles": {
        "0": {
          "1": 0.9720556735992432,
          "2": 2.419919013977051,
          "3": 2.4468579292297363,
          "4": 1.11923348903656
        },
        "1": {
          "1": 1.2837730646133423,
          "2": 1.5722007751464844,
          "3": -1.0510255098342896,
          "4": -1.4444419145584106,
          "5": -2.7044479846954346,
          "6": -1.881287693977356
        },
        "2": {
          "1": 3.032947540283203,
          "2": -2.3614342212677,
          "3": 2.9795081615448,
          "4": 0.06385383009910583,
          "5": 1.9221490621566772,
          "6": 1.5582666397094727
        }
      },
      "predicted_label_pennylane": 0,
      "sigmoid(expval)_pennylane": 0.4344970052678953,
      "tomography": [
        [
          0.21338526000511887,
          0.28823172787871
        ],
        [
          -0.35072298620360326,
          0.30981513309812037
        ],
        [
          -0.004746957062992704,
          -0.15217000396895589
        ],
        [
          -0.1986450859550959,
          0.021962598852642054
        ],
        [
          0.15296200429604973,
          0.06548975662341142
        ],
        [
          -0.06691542967279462,
          0.2043852221301228
        ],
        [
          0.09031932683785093,
          -0.42497508737772
        ],
        [
          -0.5659639113609369,
          -0.07913830354029822
        ]
      ],
      "qibo_sigmoid_expval": 0.44028635073280703,
      "qibo_predicted_label": 0,
      "qibo_correct": true
    },
    "16": {
      "orig_angles": [
        1.0723267793655396,
        2.3513615131378174,
        1.4539047479629517,
        1.5722007751464844,
        3.032947540283203,
        -2.3614342212677,
        2.4468579292297363,
        -1.0510255098342896,
        2.9795081615448,
        -1.4444419145584106,
        0.06385383009910583,
        1.11923348903656,
        -2.7044479846954346,
        1.9221490621566772,
        -1.881287693977356,
        1.5582666397094727,
        -0.22181344032287598,
        0.8739335536956787,
        -2.0133049488067627,
        1.9218581914901733
      ],
      "input": [
        1.0723267793655396,
        2.3513615131378174,
        1.4539047479629517,
        1.9218581914901733
      ],
      "weights": [
        1.5722007751464844,
        3.032947540283203,
        -2.3614342212677,
        2.4468579292297363,
        -1.0510255098342896,
        2.9795081615448,
        -1.4444419145584106,
        0.06385383009910583,
        1.11923348903656,
        -2.7044479846954346,
        1.9221490621566772,
        -1.881287693977356,
        1.5582666397094727,
        -0.22181344032287598,
        0.8739335536956787,
        -2.0133049488067627
      ],
      "label": 0,
      "noiseless_label": 0,
      "angles": {
        "0": {
          "1": 1.0723267793655396,
          "2": 2.3513615131378174,
          "3": 2.4468579292297363,
          "4": 1.11923348903656
        },
        "1": {
          "1": 1.4539047479629517,
          "2": 1.5722007751464844,
          "3": -1.0510255098342896,
          "4": -1.4444419145584106,
          "5": -2.7044479846954346,
          "6": -1.881287693977356
        },
        "2": {
          "1": 3.032947540283203,
          "2": -2.3614342212677,
          "3": 2.9795081615448,
          "4": 0.06385383009910583,
          "5": 1.9221490621566772,
          "6": 1.5582666397094727
        }
      },
      "predicted_label_pennylane": 0,
      "sigmoid(expval)_pennylane": 0.43458988903454704,
      "tomography": [
        [
          0.24832148656461597,
          0.2910101126421883
        ],
        [
          -0.3503721961320593,
          0.35541636817908356
        ],
        [
          0.003976250680568838,
          -0.1365044520415469
        ],
        [
          -0.1787874812174156,
          0.009106131758281802
        ],
        [
          0.1658250644114183,
          0.05047767280430087
        ],
        [
          -0.0458755071058321,
          0.21955624453448364
        ],
        [
          0.12611366467744348,
          -0.39683171634815934
        ],
        [
          -0.5325064382677861,
          -0.12873342054830658
        ]
      ],
      "qibo_sigmoid_expval": 0.43700322293759947,
      "qibo_predicted_label": 0,
      "qibo_correct": true
    },
    "17": {
      "orig_angles": [
        1.0864620208740234,
        2.3919596672058105,
        1.5485711097717285,
        1.5722007751464844,
        3.032947540283203,
        -2.3614342212677,
        2.4468579292297363,
        -1.0510255098342896,
        2.9795081615448,
        -1.4444419145584106,
        0.06385383009910583,
        1.11923348903656,
        -2.7044479846954346,
        1.9221490621566772,
        -1.881287693977356,
        1.5582666397094727,
        -0.22181344032287598,
        0.8739335536956787,
        -2.0133049488067627,
        1.583657145500183
      ],
      "input": [
        1.0864620208740234,
        2.3919596672058105,
        1.5485711097717285,
        1.583657145500183
      ],
      "weights": [
        1.5722007751464844,
        3.032947540283203,
        -2.3614342212677,
        2.4468579292297363,
        -1.0510255098342896,
        2.9795081615448,
        -1.4444419145584106,
        0.06385383009910583,
        1.11923348903656,
        -2.7044479846954346,
        1.9221490621566772,
        -1.881287693977356,
        1.5582666397094727,
        -0.22181344032287598,
        0.8739335536956787,
        -2.0133049488067627
      ],
      "label": 0,
      "noiseless_label": 0,
      "angles": {
        "0": {
          "1": 1.0864620208740234,
          "2": 2.3919596672058105,
          "3": 2.4468579292297363,
          "4": 1.11923348903656
        },
        "1": {
          "1": 1.5485711097717285,
          "2": 1.5722007751464844,
          "3": -1.0510255098342896,
          "4": -1.4444419145584106,
          "5": -2.7044479846954346,
          "6": -1.881287693977356
        },
        "2": {
          "1": 3.032947540283203,
          "2": -2.3614342212677,
          "3": 2.9795081615448,
          "4": 0.06385383009910583,
          "5": 1.9221490621566772,
          "6": 1.5582666397094727
        }
      },
      "predicted_label_pennylane": 0,
      "sigmoid(expval)_pennylane": 0.4346425454211636,
      "tomography": [
        [
          0.26306560137030593,
          0.286617764796243
        ],
        [
          -0.3430482098690815,
          0.37406093496589987
        ],
        [
          0.009702481874149863,
          -0.14288746795959295
        ],
        [
          -0.18763281973032278,
          0.0021993327807709045
        ],
        [
          0.18447852369978565,
          0.043870794999500196
        ],
        [
          -0.035215097626172795,
          0.24310138081343946
        ],
        [
          0.12836411087430802,
          -0.3797819697878292
        ],
        [
          -0.5104270947502584,
          -0.13333545946843778
        ]
      ],
      "qibo_sigmoid_expval": 0.43372560580456077,
      "qibo_predicted_label": 0,
      "qibo_correct": true
    },
    "18": {
      "orig_angles": [
        1.0251798629760742,
        2.4059014320373535,
        1.5338586568832397,
        1.5722007751464844,
        3.032947540283203,
        -2.3614342212677,
        2.4468579292297363,
        -1.0510255098342896,
        2.9795081615448,
        -1.4444419145584106,
        0.06385383009910583,
        1.11923348903656,
        -2.7044479846954346,
        1.9221490621566772,
        -1.881287693977356,
        1.5582666397094727,
        -0.22181344032287598,
        0.8739335536956787,
        -2.0133049488067627,
        1.5457836389541626
      ],
      "input": [
        1.0251798629760742,
        2.4059014320373535,
        1.5338586568832397,
        1.5457836389541626
      ],
      "weights": [
        1.5722007751464844,
        3.032947540283203,
        -2.3614342212677,
        2.4468579292297363,
        -1.0510255098342896,
        2.9795081615448,
        -1.4444419145584106,
        0.06385383009910583,
        1.11923348903656,
        -2.7044479846954346,
        1.9221490621566772,
        -1.881287693977356,
        1.5582666397094727,
        -0.22181344032287598,
        0.8739335536956787,
        -2.0133049488067627
      ],
      "label": 0,
      "noiseless_label": 0,
      "angles": {
        "0": {
          "1": 1.0251798629760742,
          "2": 2.4059014320373535,
          "3": 2.4468579292297363,
          "4": 1.11923348903656
        },
        "1": {
          "1": 1.5338586568832397,
          "2": 1.5722007751464844,
          "3": -1.0510255098342896,
          "4": -1.4444419145584106,
          "5": -2.7044479846954346,
          "6": -1.881287693977356
        },
        "2": {
          "1": 3.032947540283203,
          "2": -2.3614342212677,
          "3": 2.9795081615448,
          "4": 0.06385383009910583,
          "5": 1.9221490621566772,
          "6": 1.5582666397094727
        }
      },
      "predicted_label_pennylane": 0,
      "sigmoid(expval)_pennylane": 0.4346343433680218,
      "tomography": [
        [
          0.25658052492638933,
          0.28039073474811416
        ],
        [
          -0.33572910393065003,
          0.36492826436961384
        ],
        [
          0.01744494804092875,
          -0.1480665347367182
        ],
        [
          -0.19517052414909453,
          -0.00750004871189168
        ],
        [
          0.18660406376551547,
          0.05318864232151668
        ],
        [
          -0.04709726080348782,
          0.2468682012653108
        ],
        [
          0.11988758878956829,
          -0.38705619219130805
        ],
        [
          -0.5191428061534414,
          -0.12156495995293115
        ]
      ],
      "qibo_sigmoid_expval": 0.43208895029076777,
      "qibo_predicted_label": 0,
      "qibo_correct": true
    },
    "19": {
      "orig_angles": [
        0.9121466875076294,
        2.342963218688965,
        1.6474992036819458,
        1.5722007751464844,
        3.032947540283203,
        -2.3614342212677,
        2.4468579292297363,
        -1.0510255098342896,
        2.9795081615448,
        -1.4444419145584106,
        0.06385383009910583,
        1.11923348903656,
        -2.7044479846954346,
        1.9221490621566772,
        -1.881287693977356,
        1.5582666397094727,
        -0.22181344032287598,
        0.8739335536956787,
        -2.0133049488067627,
        1.5467565059661865
      ],
      "input": [
        0.9121466875076294,
        2.342963218688965,
        1.6474992036819458,
        1.5467565059661865
      ],
      "weights": [
        1.5722007751464844,
        3.032947540283203,
        -2.3614342212677,
        2.4468579292297363,
        -1.0510255098342896,
        2.9795081615448,
        -1.4444419145584106,
        0.06385383009910583,
        1.11923348903656,
        -2.7044479846954346,
        1.9221490621566772,
        -1.881287693977356,
        1.5582666397094727,
        -0.22181344032287598,
        0.8739335536956787,
        -2.0133049488067627
      ],
      "label": 0,
      "noiseless_label": 0,
      "angles": {
        "0": {
          "1": 0.9121466875076294,
          "2": 2.342963218688965,
          "3": 2.4468579292297363,
          "4": 1.11923348903656
        },
        "1": {
          "1": 1.6474992036819458,
          "2": 1.5722007751464844,
          "3": -1.0510255098342896,
          "4": -1.4444419145584106,
          "5": -2.7044479846954346,
          "6": -1.881287693977356
        },
        "2": {
          "1": 3.032947540283203,
          "2": -2.3614342212677,
          "3": 2.9795081615448,
          "4": 0.06385383009910583,
          "5": 1.9221490621566772,
          "6": 1.5582666397094727
        }
      },
      "predicted_label_pennylane": 0,
      "sigmoid(expval)_pennylane": 0.4346976718154151,
      "tomography": [
        [
          0.2667473422246009,
          0.2597872308053379
        ],
        [
          -0.3079121934961147,
          0.37567299193276876
        ],
        [
          0.05495560902430051,
          -0.14296945329742908
        ],
        [
          -0.1919479643366159,
          -0.05723917951921642
        ],
        [
          0.19670403232102296,
          0.07502018942234993
        ],
        [
          -0.07426672263185667,
          0.26247570508068535
        ],
        [
          0.13184008777902304,
          -0.380576933976718
        ],
        [
          -0.5117215475134481,
          -0.13793659963999455
        ]
      ],
      "qibo_sigmoid_expval": 0.42392857554328783,
      "qibo_predicted_label": 0,
      "qibo_correct": true
    },
    "20": {
      "orig_angles": [
        0.7398077249526978,
        2.1735944747924805,
        1.854957938194275,
        1.5722007751464844,
        3.032947540283203,
        -2.3614342212677,
        2.4468579292297363,
        -1.0510255098342896,
        2.9795081615448,
        -1.4444419145584106,
        0.06385383009910583,
        1.11923348903656,
        -2.7044479846954346,
        1.9221490621566772,
        -1.881287693977356,
        1.5582666397094727,
        -0.22181344032287598,
        0.8739335536956787,
        -2.0133049488067627,
        1.6874182224273682
      ],
      "input": [
        0.7398077249526978,
        2.1735944747924805,
        1.854957938194275,
        1.6874182224273682
      ],
      "weights": [
        1.5722007751464844,
        3.032947540283203,
        -2.3614342212677,
        2.4468579292297363,
        -1.0510255098342896,
        2.9795081615448,
        -1.4444419145584106,
        0.06385383009910583,
        1.11923348903656,
        -2.7044479846954346,
        1.9221490621566772,
        -1.881287693977356,
        1.5582666397094727,
        -0.22181344032287598,
        0.8739335536956787,
        -2.0133049488067627
      ],
      "label": 0,
      "noiseless_label": 0,
      "angles": {
        "0": {
          "1": 0.7398077249526978,
          "2": 2.1735944747924805,
          "3": 2.4468579292297363,
          "4": 1.11923348903656
        },
        "1": {
          "1": 1.854957938194275,
          "2": 1.5722007751464844,
          "3": -1.0510255098342896,
          "4": -1.4444419145584106,
          "5": -2.7044479846954346,
          "6": -1.881287693977356
        },
        "2": {
          "1": 3.032947540283203,
          "2": -2.3614342212677,
          "3": 2.9795081615448,
          "4": 0.06385383009910583,
          "5": 1.9221490621566772,
          "6": 1.5582666397094727
        }
      },
      "predicted_label_pennylane": 0,
      "sigmoid(expval)_pennylane": 0.4348112452481147,
      "tomography": [
        [
          0.27962160355658217,
          0.22493093436211517
        ],
        [
          -0.26127423074208633,
          0.3882089433064614
        ],
        [
          0.11433560009480988,
          -0.11820540171657266
        ],
        [
          -0.1649621710064448,
          -0.13756087687457086
        ],
        [
          0.20834820864845793,
          0.11957483480965495
        ],
        [
          -0.13069993289881648,
          0.2827345494012889
        ],
        [
          0.1652749119043151,
          -0.3578070781432261
        ],
        [
          -0.48488505938421633,
          -0.1840737069346858
        ]
      ],
      "qibo_sigmoid_expval": 0.43700322293759947,
      "qibo_predicted_label": 0,
      "qibo_correct": true
    },
    "21": {
      "orig_angles": [
        1.2985780239105225,
        2.6961748600006104,
        0.397501677274704,
        1.5722007751464844,
        3.032947540283203,
        -2.3614342212677,
        2.4468579292297363,
        -1.0510255098342896,
        2.9795081615448,
        -1.4444419145584106,
        0.06385383009910583,
        1.11923348903656,
        -2.7044479846954346,
        1.9221490621566772,
        -1.881287693977356,
        1.5582666397094727,
        -0.22181344032287598,
        0.8739335536956787,
        -2.0133049488067627,
        0.9682222008705139
      ],
      "input": [
        1.2985780239105225,
        2.6961748600006104,
        0.397501677274704,
        0.9682222008705139
      ],
      "weights": [
        1.5722007751464844,
        3.032947540283203,
        -2.3614342212677,
        2.4468579292297363,
        -1.0510255098342896,
        2.9795081615448,
        -1.4444419145584106,
        0.06385383009910583,
        1.11923348903656,
        -2.7044479846954346,
        1.9221490621566772,
        -1.881287693977356,
        1.5582666397094727,
        -0.22181344032287598,
        0.8739335536956787,
        -2.0133049488067627
      ],
      "label": 0,
      "noiseless_label": 0,
      "angles": {
        "0": {
          "1": 1.2985780239105225,
          "2": 2.6961748600006104,
          "3": 2.4468579292297363,
          "4": 1.11923348903656
        },
        "1": {
          "1": 0.397501677274704,
          "2": 1.5722007751464844,
          "3": -1.0510255098342896,
          "4": -1.4444419145584106,
          "5": -2.7044479846954346,
          "6": -1.881287693977356
        },
        "2": {
          "1": 3.032947540283203,
          "2": -2.3614342212677,
          "3": 2.9795081615448,
          "4": 0.06385383009910583,
          "5": 1.9221490621566772,
          "6": 1.5582666397094727
        }
      },
      "predicted_label_pennylane": 0,
      "sigmoid(expval)_pennylane": 0.4341399512945153,
      "tomography": [
        [
          0.054095449204992846,
          0.3158543075720779
        ],
        [
          -0.4039055521196921,
          0.1067539119567665
        ],
        [
          -0.21019272862830465,
          -0.12898959068602858
        ],
        [
          -0.1495836964874518,
          0.2891028235420395
        ],
        [
          0.06531364352368763,
          0.05131602102748487
        ],
        [
          -0.05871902982589286,
          0.08879945246819625
        ],
        [
          -0.0055894230216795016,
          -0.4439257558835039
        ],
        [
          -0.5816255655418567,
          0.04874970111474841
        ]
      ],
      "qibo_sigmoid_expval": 0.4223013192323213,
      "qibo_predicted_label": 0,
      "qibo_correct": true
    },
    "22": {
      "orig_angles": [
        1.0784149169921875,
        2.4716336727142334,
        0.6547181606292725,
        1.5722007751464844,
        3.032947540283203,
        -2.3614342212677,
        2.4468579292297363,
        -1.0510255098342896,
        2.9795081615448,
        -1.4444419145584106,
        0.06385383009910583,
        1.11923348903656,
        -2.7044479846954346,
        1.9221490621566772,
        -1.881287693977356,
        1.5582666397094727,
        -0.22181344032287598,
        0.8739335536956787,
        -2.0133049488067627,
        1.286895513534546
      ],
      "input": [
        1.0784149169921875,
        2.4716336727142334,
        0.6547181606292725,
        1.286895513534546
      ],
      "weights": [
        1.5722007751464844,
        3.032947540283203,
        -2.3614342212677,
        2.4468579292297363,
        -1.0510255098342896,
        2.9795081615448,
        -1.4444419145584106,
        0.06385383009910583,
        1.11923348903656,
        -2.7044479846954346,
        1.9221490621566772,
        -1.881287693977356,
        1.5582666397094727,
        -0.22181344032287598,
        0.8739335536956787,
        -2.0133049488067627
      ],
      "label": 0,
      "noiseless_label": 0,
      "angles": {
        "0": {
          "1": 1.0784149169921875,
          "2": 2.4716336727142334,
          "3": 2.4468579292297363,
          "4": 1.11923348903656
        },
        "1": {
          "1": 0.6547181606292725,
          "2": 1.5722007751464844,
          "3": -1.0510255098342896,
          "4": -1.4444419145584106,
          "5": -2.7044479846954346,
          "6": -1.881287693977356
        },
        "2": {
          "1": 3.032947540283203,
          "2": -2.3614342212677,
          "3": 2.9795081615448,
          "4": 0.06385383009910583,
          "5": 1.9221490621566772,
          "6": 1.5582666397094727
        }
      },
      "predicted_label_pennylane": 0,
      "sigmoid(expval)_pennylane": 0.4342120751070572,
      "tomography": [
        [
          0.10365536891532334,
          0.3119889005598868
        ],
        [
          -0.39359063566402924,
          0.17033107095013691
        ],
        [
          -0.10744215942830761,
          -0.13542420082040088
        ],
        [
          -0.16748801469458918,
          0.1550110549404635
        ],
        [
          0.06268610030671089,
          0.059881027439560884
        ],
        [
          -0.06996193703041222,
          0.08629156909702278
        ],
        [
          0.029097656616884987,
          -0.4704570920217349
        ],
        [
          -0.6196469053119551,
          0.005745061574522203
        ]
      ],
      "qibo_sigmoid_expval": 0.42067574785125056,
      "qibo_predicted_label": 0,
      "qibo_correct": true
    },
    "23": {
      "orig_angles": [
        0.7927444577217102,
        2.3028171062469482,
        1.3135756254196167,
        1.5722007751464844,
        3.032947540283203,
        -2.3614342212677,
        2.4468579292297363,
        -1.0510255098342896,
        2.9795081615448,
        -1.4444419145584106,
        0.06385383009910583,
        1.11923348903656,
        -2.7044479846954346,
        1.9221490621566772,
        -1.881287693977356,
        1.5582666397094727,
        -0.22181344032287598,
        0.8739335536956787,
        -2.0133049488067627,
        1.9692717790603638
      ],
      "input": [
        0.7927444577217102,
        2.3028171062469482,
        1.3135756254196167,
        1.9692717790603638
      ],
      "weights": [
        1.5722007751464844,
        3.032947540283203,
        -2.3614342212677,
        2.4468579292297363,
        -1.0510255098342896,
        2.9795081615448,
        -1.4444419145584106,
        0.06385383009910583,
        1.11923348903656,
        -2.7044479846954346,
        1.9221490621566772,
        -1.881287693977356,
        1.5582666397094727,
        -0.22181344032287598,
        0.8739335536956787,
        -2.0133049488067627
      ],
      "label": 0,
      "noiseless_label": 0,
      "angles": {
        "0": {
          "1": 0.7927444577217102,
          "2": 2.3028171062469482,
          "3": 2.4468579292297363,
          "4": 1.11923348903656
        },
        "1": {
          "1": 1.3135756254196167,
          "2": 1.5722007751464844,
          "3": -1.0510255098342896,
          "4": -1.4444419145584106,
          "5": -2.7044479846954346,
          "6": -1.881287693977356
        },
        "2": {
          "1": 3.032947540283203,
          "2": -2.3614342212677,
          "3": 2.9795081615448,
          "4": 0.06385383009910583,
          "5": 1.9221490621566772,
          "6": 1.5582666397094727
        }
      },
      "predicted_label_pennylane": 0,
      "sigmoid(expval)_pennylane": 0.43451302375850176,
      "tomography": [
        [
          0.2067375386519308,
          0.26790975217102864
        ],
        [
          -0.3251857433756623,
          0.2987256029256916
        ],
        [
          0.04319898791571705,
          -0.14672901679031936
        ],
        [
          -0.19602016963339708,
          -0.04151476103254109
        ],
        [
          0.14103261381479937,
          0.09931988962840634
        ],
        [
          -0.11212508466543167,
          0.19266553510422046
        ],
        [
          0.09952373704993647,
          -0.4366899492923918
        ],
        [
          -0.5820494569134087,
          -0.09014945395164015
        ]
      ],
      "qibo_sigmoid_expval": 0.4419298941260467,
      "qibo_predicted_label": 0,
      "qibo_correct": true
    },
    "24": {
      "orig_angles": [
        0.9300369620323181,
        2.3406851291656494,
        1.7682862281799316,
        1.5722007751464844,
        3.032947540283203,
        -2.3614342212677,
        2.4468579292297363,
        -1.0510255098342896,
        2.9795081615448,
        -1.4444419145584106,
        0.06385383009910583,
        1.11923348903656,
        -2.7044479846954346,
        1.9221490621566772,
        -1.881287693977356,
        1.5582666397094727,
        -0.22181344032287598,
        0.8739335536956787,
        -2.0133049488067627,
        1.7776761054992676
      ],
      "input": [
        0.9300369620323181,
        2.3406851291656494,
        1.7682862281799316,
        1.7776761054992676
      ],
      "weights": [
        1.5722007751464844,
        3.032947540283203,
        -2.3614342212677,
        2.4468579292297363,
        -1.0510255098342896,
        2.9795081615448,
        -1.4444419145584106,
        0.06385383009910583,
        1.11923348903656,
        -2.7044479846954346,
        1.9221490621566772,
        -1.881287693977356,
        1.5582666397094727,
        -0.22181344032287598,
        0.8739335536956787,
        -2.0133049488067627
      ],
      "label": 0,
      "noiseless_label": 0,
      "angles": {
        "0": {
          "1": 0.9300369620323181,
          "2": 2.3406851291656494,
          "3": 2.4468579292297363,
          "4": 1.11923348903656
        },
        "1": {
          "1": 1.7682862281799316,
          "2": 1.5722007751464844,
          "3": -1.0510255098342896,
          "4": -1.4444419145584106,
          "5": -2.7044479846954346,
          "6": -1.881287693977356
        },
        "2": {
          "1": 3.032947540283203,
          "2": -2.3614342212677,
          "3": 2.9795081615448,
          "4": 0.06385383009910583,
          "5": 1.9221490621566772,
          "6": 1.5582666397094727
        }
      },
      "predicted_label_pennylane": 0,
      "sigmoid(expval)_pennylane": 0.4347643427029194,
      "tomography": [
        [
          0.2851865931971602,
          0.2525502165875414
        ],
        [
          -0.29646168979198473,
          0.3987572963739378
        ],
        [
          0.06548062607449476,
          -0.14050732741127256
        ],
        [
          -0.18962690182043618,
          -0.07127766434494692
        ],
        [
          0.21240999944410655,
          0.07057174161403419
        ],
        [
          -0.06670846029379404,
          0.28246669328013
        ],
        [
          0.14349495611288865,
          -0.3590939932983379
        ],
        [
          -0.4846988040763432,
          -0.15528403739299887
        ]
      ],
      "qibo_sigmoid_expval": 0.43208895029076777,
      "qibo_predicted_label": 0,
      "qibo_correct": true
    },
    "25": {
      "orig_angles": [
        0.9551142454147339,
        2.375796318054199,
        0.1376708298921585,
        1.5722007751464844,
        3.032947540283203,
        -2.3614342212677,
        2.4468579292297363,
        -1.0510255098342896,
        2.9795081615448,
        -1.4444419145584106,
        0.06385383009910583,
        1.11923348903656,
        -2.7044479846954346,
        1.9221490621566772,
        -1.881287693977356,
        1.5582666397094727,
        -0.22181344032287598,
        0.8739335536956787,
        -2.0133049488067627,
        1.4600504636764526
      ],
      "input": [
        0.9551142454147339,
        2.375796318054199,
        0.1376708298921585,
        1.4600504636764526
      ],
      "weights": [
        1.5722007751464844,
        3.032947540283203,
        -2.3614342212677,
        2.4468579292297363,
        -1.0510255098342896,
        2.9795081615448,
        -1.4444419145584106,
        0.06385383009910583,
        1.11923348903656,
        -2.7044479846954346,
        1.9221490621566772,
        -1.881287693977356,
        1.5582666397094727,
        -0.22181344032287598,
        0.8739335536956787,
        -2.0133049488067627
      ],
      "label": 0,
      "noiseless_label": 0,
      "angles": {
        "0": {
          "1": 0.9551142454147339,
          "2": 2.375796318054199,
          "3": 2.4468579292297363,
          "4": 1.11923348903656
        },
        "1": {
          "1": 0.1376708298921585,
          "2": 1.5722007751464844,
          "3": -1.0510255098342896,
          "4": -1.4444419145584106,
          "5": -2.7044479846954346,
          "6": -1.881287693977356
        },
        "2": {
          "1": 3.032947540283203,
          "2": -2.3614342212677,
          "3": 2.9795081615448,
          "4": 0.06385383009910583,
          "5": 1.9221490621566772,
          "6": 1.5582666397094727
        }
      },
      "predicted_label_pennylane": 0,
      "sigmoid(expval)_pennylane": 0.4341014134720596,
      "tomography": [
        [
          -0.0011903991675532022,
          0.29425952574895176
        ],
        [
          -0.3822512311648457,
          0.03223571600427283
        ],
        [
          -0.12533519077138286,
          -0.11719537925907389
        ],
        [
          -0.1422905571520906,
          0.17655274877435753
        ],
        [
          -0.045146985112870595,
          0.0709908204248309
        ],
        [
          -0.09667146573392554,
          -0.052614938081400095
        ],
        [
          -0.0208660714961742,
          -0.4938466904805764
        ],
        [
          -0.6453176936347342,
          0.07380449458185145
        ]
      ],
      "qibo_sigmoid_expval": 0.42718800842998617,
      "qibo_predicted_label": 0,
      "qibo_correct": true
    },
    "26": {
      "orig_angles": [
        0.7143644094467163,
        2.1016910076141357,
        0.9608687162399292,
        1.5722007751464844,
        3.032947540283203,
        -2.3614342212677,
        2.4468579292297363,
        -1.0510255098342896,
        2.9795081615448,
        -1.4444419145584106,
        0.06385383009910583,
        1.11923348903656,
        -2.7044479846954346,
        1.9221490621566772,
        -1.881287693977356,
        1.5582666397094727,
        -0.22181344032287598,
        0.8739335536956787,
        -2.0133049488067627,
        1.7448080778121948
      ],
      "input": [
        0.7143644094467163,
        2.1016910076141357,
        0.9608687162399292,
        1.7448080778121948
      ],
      "weights": [
        1.5722007751464844,
        3.032947540283203,
        -2.3614342212677,
        2.4468579292297363,
        -1.0510255098342896,
        2.9795081615448,
        -1.4444419145584106,
        0.06385383009910583,
        1.11923348903656,
        -2.7044479846954346,
        1.9221490621566772,
        -1.881287693977356,
        1.5582666397094727,
        -0.22181344032287598,
        0.8739335536956787,
        -2.0133049488067627
      ],
      "label": 0,
      "noiseless_label": 0,
      "angles": {
        "0": {
          "1": 0.7143644094467163,
          "2": 2.1016910076141357,
          "3": 2.4468579292297363,
          "4": 1.11923348903656
        },
        "1": {
          "1": 0.9608687162399292,
          "2": 1.5722007751464844,
          "3": -1.0510255098342896,
          "4": -1.4444419145584106,
          "5": -2.7044479846954346,
          "6": -1.881287693977356
        },
        "2": {
          "1": 3.032947540283203,
          "2": -2.3614342212677,
          "3": 2.9795081615448,
          "4": 0.06385383009910583,
          "5": 1.9221490621566772,
          "6": 1.5582666397094727
        }
      },
      "predicted_label_pennylane": 0,
      "sigmoid(expval)_pennylane": 0.4343352628562674,
      "tomography": [
        [
          0.13615553243520373,
          0.2766442959661113
        ],
        [
          -0.34439512271280315,
          0.2080219462688236
        ],
        [
          0.04412639345056647,
          -0.12735504562216765
        ],
        [
          -0.1709910044939138,
          -0.0446121516181668
        ],
        [
          0.05014985505384588,
          0.11054395373845283
        ],
        [
          -0.13686390177360325,
          0.07576123910070501
        ],
        [
          0.09700781577219703,
          -0.48013045204540017
        ],
        [
          -0.6385201635813824,
          -0.08248409939872364
        ]
      ],
      "qibo_sigmoid_expval": 0.44028635073280703,
      "qibo_predicted_label": 0,
      "qibo_correct": true
    },
    "27": {
      "orig_angles": [
        0.9874697327613831,
        2.3684821128845215,
        1.2046892642974854,
        1.5722007751464844,
        3.032947540283203,
        -2.3614342212677,
        2.4468579292297363,
        -1.0510255098342896,
        2.9795081615448,
        -1.4444419145584106,
        0.06385383009910583,
        1.11923348903656,
        -2.7044479846954346,
        1.9221490621566772,
        -1.881287693977356,
        1.5582666397094727,
        -0.22181344032287598,
        0.8739335536956787,
        -2.0133049488067627,
        2.125969648361206
      ],
      "input": [
        0.9874697327613831,
        2.3684821128845215,
        1.2046892642974854,
        2.125969648361206
      ],
      "weights": [
        1.5722007751464844,
        3.032947540283203,
        -2.3614342212677,
        2.4468579292297363,
        -1.0510255098342896,
        2.9795081615448,
        -1.4444419145584106,
        0.06385383009910583,
        1.11923348903656,
        -2.7044479846954346,
        1.9221490621566772,
        -1.881287693977356,
        1.5582666397094727,
        -0.22181344032287598,
        0.8739335536956787,
        -2.0133049488067627
      ],
      "label": 0,
      "noiseless_label": 0,
      "angles": {
        "0": {
          "1": 0.9874697327613831,
          "2": 2.3684821128845215,
          "3": 2.4468579292297363,
          "4": 1.11923348903656
        },
        "1": {
          "1": 1.2046892642974854,
          "2": 1.5722007751464844,
          "3": -1.0510255098342896,
          "4": -1.4444419145584106,
          "5": -2.7044479846954346,
          "6": -1.881287693977356
        },
        "2": {
          "1": 3.032947540283203,
          "2": -2.3614342212677,
          "3": 2.9795081615448,
          "4": 0.06385383009910583,
          "5": 1.9221490621566772,
          "6": 1.5582666397094727
        }
      },
      "predicted_label_pennylane": 0,
      "sigmoid(expval)_pennylane": 0.43445521104730633,
      "tomography": [
        [
          0.201369262688732,
          0.2941553159258468
        ],
        [
          -0.35971387955184553,
          0.2948811031175316
        ],
        [
          -0.011851201488630073,
          -0.14250249336534418
        ],
        [
          -0.18535404114357673,
          0.03037716026944927
        ],
        [
          0.13305768291363088,
          0.06619290345134285
        ],
        [
          -0.07003907073529055,
          0.17858470409374194
        ],
        [
          0.09339185177636244,
          -0.43568274538918395
        ],
        [
          -0.5802438797055263,
          -0.08209481136578686
        ]
      ],
      "qibo_sigmoid_expval": 0.4435747105505899,
      "qibo_predicted_label": 0,
      "qibo_correct": true
    },
    "28": {
      "orig_angles": [
        1.068065881729126,
        2.3932533264160156,
        1.4416930675506592,
        1.5722007751464844,
        3.032947540283203,
        -2.3614342212677,
        2.4468579292297363,
        -1.0510255098342896,
        2.9795081615448,
        -1.4444419145584106,
        0.06385383009910583,
        1.11923348903656,
        -2.7044479846954346,
        1.9221490621566772,
        -1.881287693977356,
        1.5582666397094727,
        -0.22181344032287598,
        0.8739335536956787,
        -2.0133049488067627,
        1.7710627317428589
      ],
      "input": [
        1.068065881729126,
        2.3932533264160156,
        1.4416930675506592,
        1.7710627317428589
      ],
      "weights": [
        1.5722007751464844,
        3.032947540283203,
        -2.3614342212677,
        2.4468579292297363,
        -1.0510255098342896,
        2.9795081615448,
        -1.4444419145584106,
        0.06385383009910583,
        1.11923348903656,
        -2.7044479846954346,
        1.9221490621566772,
        -1.881287693977356,
        1.5582666397094727,
        -0.22181344032287598,
        0.8739335536956787,
        -2.0133049488067627
      ],
      "label": 0,
      "noiseless_label": 0,
      "angles": {
        "0": {
          "1": 1.068065881729126,
          "2": 2.3932533264160156,
          "3": 2.4468579292297363,
          "4": 1.11923348903656
        },
        "1": {
          "1": 1.4416930675506592,
          "2": 1.5722007751464844,
          "3": -1.0510255098342896,
          "4": -1.4444419145584106,
          "5": -2.7044479846954346,
          "6": -1.881287693977356
        },
        "2": {
          "1": 3.032947540283203,
          "2": -2.3614342212677,
          "3": 2.9795081615448,
          "4": 0.06385383009910583,
          "5": 1.9221490621566772,
          "6": 1.5582666397094727
        }
      },
      "predicted_label_pennylane": 0,
      "sigmoid(expval)_pennylane": 0.43458312822053646,
      "tomography": [
        [
          0.24502800701891247,
          0.29095503283015567
        ],
        [
          -0.35068285416908773,
          0.35116544494065466
        ],
        [
          -0.00036665718230884103,
          -0.14322291048158842
        ],
        [
          -0.1872024305610572,
          0.015428957268590254
        ],
        [
          0.1707641163704104,
          0.04877587369672454
        ],
        [
          -0.043144485603588786,
          0.2257639270819075
        ],
        [
          0.11748670231198013,
          -0.3973196368430727
        ],
        [
          -0.5323524885675263,
          -0.11738659904156507
        ]
      ],
      "qibo_sigmoid_expval": 0.4386441153736561,
      "qibo_predicted_label": 0,
      "qibo_correct": true
    },
    "29": {
      "orig_angles": [
        0.8746455907821655,
        2.301786184310913,
        1.0531113147735596,
        1.5722007751464844,
        3.032947540283203,
        -2.3614342212677,
        2.4468579292297363,
        -1.0510255098342896,
        2.9795081615448,
        -1.4444419145584106,
        0.06385383009910583,
        1.11923348903656,
        -2.7044479846954346,
        1.9221490621566772,
        -1.881287693977356,
        1.5582666397094727,
        -0.22181344032287598,
        0.8739335536956787,
        -2.0133049488067627,
        1.4977623224258423
      ],
      "input": [
        0.8746455907821655,
        2.301786184310913,
        1.0531113147735596,
        1.4977623224258423
      ],
      "weights": [
        1.5722007751464844,
        3.032947540283203,
        -2.3614342212677,
        2.4468579292297363,
        -1.0510255098342896,
        2.9795081615448,
        -1.4444419145584106,
        0.06385383009910583,
        1.11923348903656,
        -2.7044479846954346,
        1.9221490621566772,
        -1.881287693977356,
        1.5582666397094727,
        -0.22181344032287598,
        0.8739335536956787,
        -2.0133049488067627
      ],
      "label": 0,
      "noiseless_label": 0,
      "angles": {
        "0": {
          "1": 0.8746455907821655,
          "2": 2.301786184310913,
          "3": 2.4468579292297363,
          "4": 1.11923348903656
        },
        "1": {
          "1": 1.0531113147735596,
          "2": 1.5722007751464844,
          "3": -1.0510255098342896,
          "4": -1.4444419145584106,
          "5": -2.7044479846954346,
          "6": -1.881287693977356
        },
        "2": {
          "1": 3.032947540283203,
          "2": -2.3614342212677,
          "3": 2.9795081615448,
          "4": 0.06385383009910583,
          "5": 1.9221490621566772,
          "6": 1.5582666397094727
        }
      },
      "predicted_label_pennylane": 0,
      "sigmoid(expval)_pennylane": 0.4343787898933794,
      "tomography": [
        [
          0.16840313165158935,
          0.2888774316044104
        ],
        [
          -0.3565883792030226,
          0.25144580204331174
        ],
        [
          -0.0004408196884412713,
          -0.14062384234215347
        ],
        [
          -0.1840873057643421,
          0.015172533812338171
        ],
        [
          0.09767723734212735,
          0.08586169360542387
        ],
        [
          -0.099565431419912,
          0.1347438254241162
        ],
        [
          0.08114031201119545,
          -0.4614263707456153
        ],
        [
          -0.6126984278084653,
          -0.0635349816223737
        ]
      ],
      "qibo_sigmoid_expval": 0.43700322293759947,
      "qibo_predicted_label": 0,
      "qibo_correct": true
    },
    "30": {
      "orig_angles": [
        1.5607119798660278,
        2.934042453765869,
        0.05992245674133301,
        1.5722007751464844,
        3.032947540283203,
        -2.3614342212677,
        2.4468579292297363,
        -1.0510255098342896,
        2.9795081615448,
        -1.4444419145584106,
        0.06385383009910583,
        1.11923348903656,
        -2.7044479846954346,
        1.9221490621566772,
        -1.881287693977356,
        1.5582666397094727,
        -0.22181344032287598,
        0.8739335536956787,
        -2.0133049488067627,
        1.1207704544067383
      ],
      "input": [
        1.5607119798660278,
        2.934042453765869,
        0.05992245674133301,
        1.1207704544067383
      ],
      "weights": [
        1.5722007751464844,
        3.032947540283203,
        -2.3614342212677,
        2.4468579292297363,
        -1.0510255098342896,
        2.9795081615448,
        -1.4444419145584106,
        0.06385383009910583,
        1.11923348903656,
        -2.7044479846954346,
        1.9221490621566772,
        -1.881287693977356,
        1.5582666397094727,
        -0.22181344032287598,
        0.8739335536956787,
        -2.0133049488067627
      ],
      "label": 0,
      "noiseless_label": 0,
      "angles": {
        "0": {
          "1": 1.5607119798660278,
          "2": 2.934042453765869,
          "3": 2.4468579292297363,
          "4": 1.11923348903656
        },
        "1": {
          "1": 0.05992245674133301,
          "2": 1.5722007751464844,
          "3": -1.0510255098342896,
          "4": -1.4444419145584106,
          "5": -2.7044479846954346,
          "6": -1.881287693977356
        },
        "2": {
          "1": 3.032947540283203,
          "2": -2.3614342212677,
          "3": 2.9795081615448,
          "4": 0.06385383009910583,
          "5": 1.9221490621566772,
          "6": 1.5582666397094727
        }
      },
      "predicted_label_pennylane": 0,
      "sigmoid(expval)_pennylane": 0.4340970330650697,
      "tomography": [
        [
          -0.018384237522262287,
          0.29186880924826925
        ],
        [
          -0.38055913833786364,
          0.010283208045746117
        ],
        [
          -0.32268962970009474,
          -0.10615915971463483
        ],
        [
          -0.10931487674808979,
          0.4342930487600918
        ],
        [
          0.06541255351405878,
          0.06462286396748816
        ],
        [
          -0.07612260819627008,
          0.09058437433996788
        ],
        [
          -0.024972284059552013,
          -0.3967624633437634
        ],
        [
          -0.5179073768773061,
          0.06969821877218876
        ]
      ],
      "qibo_sigmoid_expval": 0.425557483188341,
      "qibo_predicted_label": 0,
      "qibo_correct": true
    },
    "31": {
      "orig_angles": [
        1.3187803030014038,
        2.6444859504699707,
        0.0,
        1.5722007751464844,
        3.032947540283203,
        -2.3614342212677,
        2.4468579292297363,
        -1.0510255098342896,
        2.9795081615448,
        -1.4444419145584106,
        0.06385383009910583,
        1.11923348903656,
        -2.7044479846954346,
        1.9221490621566772,
        -1.881287693977356,
        1.5582666397094727,
        -0.22181344032287598,
        0.8739335536956787,
        -2.0133049488067627,
        1.7908577919006348
      ],
      "input": [
        1.3187803030014038,
        2.6444859504699707,
        0.0,
        1.7908577919006348
      ],
      "weights": [
        1.5722007751464844,
        3.032947540283203,
        -2.3614342212677,
        2.4468579292297363,
        -1.0510255098342896,
        2.9795081615448,
        -1.4444419145584106,
        0.06385383009910583,
        1.11923348903656,
        -2.7044479846954346,
        1.9221490621566772,
        -1.881287693977356,
        1.5582666397094727,
        -0.22181344032287598,
        0.8739335536956787,
        -2.0133049488067627
      ],
      "label": 0,
      "noiseless_label": 0,
      "angles": {
        "0": {
          "1": 1.3187803030014038,
          "2": 2.6444859504699707,
          "3": 2.4468579292297363,
          "4": 1.11923348903656
        },
        "1": {
          "1": 0.0,
          "2": 1.5722007751464844,
          "3": -1.0510255098342896,
          "4": -1.4444419145584106,
          "5": -2.7044479846954346,
          "6": -1.881287693977356
        },
        "2": {
          "1": 3.032947540283203,
          "2": -2.3614342212677,
          "3": 2.9795081615448,
          "4": 0.06385383009910583,
          "5": 1.9221490621566772,
          "6": 1.5582666397094727
        }
      },
      "predicted_label_pennylane": 0,
      "sigmoid(expval)_pennylane": 0.4340959504450258,
      "tomography": [
        [
          -0.02514686540324934,
          0.29570951538870716
        ],
        [
          -0.3864361444051942,
          0.0016455506961275124
        ],
        [
          -0.24805542635213323,
          -0.09069259142761504
        ],
        [
          -0.09608559231819422,
          0.3349688580773253
        ],
        [
          -0.00015845173617833053,
          0.06240817074151023
        ],
        [
          -0.08057681914821305,
          0.004975684004820902
        ],
        [
          -0.033372047899418805,
          -0.4523039965598065
        ],
        [
          -0.5898011394365166,
          0.0861657092500196
        ]
      ],
      "qibo_sigmoid_expval": 0.42718800842998617,
      "qibo_predicted_label": 0,
      "qibo_correct": true
    },
    "32": {
      "orig_angles": [
        1.1755691766738892,
        2.5500271320343018,
        0.0688062235713005,
        1.5722007751464844,
        3.032947540283203,
        -2.3614342212677,
        2.4468579292297363,
        -1.0510255098342896,
        2.9795081615448,
        -1.4444419145584106,
        0.06385383009910583,
        1.11923348903656,
        -2.7044479846954346,
        1.9221490621566772,
        -1.881287693977356,
        1.5582666397094727,
        -0.22181344032287598,
        0.8739335536956787,
        -2.0133049488067627,
        1.257162094116211
      ],
      "input": [
        1.1755691766738892,
        2.5500271320343018,
        0.0688062235713005,
        1.257162094116211
      ],
      "weights": [
        1.5722007751464844,
        3.032947540283203,
        -2.3614342212677,
        2.4468579292297363,
        -1.0510255098342896,
        2.9795081615448,
        -1.4444419145584106,
        0.06385383009910583,
        1.11923348903656,
        -2.7044479846954346,
        1.9221490621566772,
        -1.881287693977356,
        1.5582666397094727,
        -0.22181344032287598,
        0.8739335536956787,
        -2.0133049488067627
      ],
      "label": 0,
      "noiseless_label": 0,
      "angles": {
        "0": {
          "1": 1.1755691766738892,
          "2": 2.5500271320343018,
          "3": 2.4468579292297363,
          "4": 1.11923348903656
        },
        "1": {
          "1": 0.0688062235713005,
          "2": 1.5722007751464844,
          "3": -1.0510255098342896,
          "4": -1.4444419145584106,
          "5": -2.7044479846954346,
          "6": -1.881287693977356
        },
        "2": {
          "1": 3.032947540283203,
          "2": -2.3614342212677,
          "3": 2.9795081615448,
          "4": 0.06385383009910583,
          "5": 1.9221490621566772,
          "6": 1.5582666397094727
        }
      },
      "predicted_label_pennylane": 0,
      "sigmoid(expval)_pennylane": 0.4340973637734902,
      "tomography": [
        [
          -0.010757253862770572,
          0.29872004420562726
        ],
        [
          -0.3888843898055528,
          0.02053842878023579
        ],
        [
          -0.20124444001261965,
          -0.10323956152890293
        ],
        [
          -0.11689085795110904,
          0.2747922167785297
        ],
        [
          -0.015121436097102453,
          0.06497390009071302
        ],
        [
          -0.08555774824583179,
          -0.014231861041034292
        ],
        [
          -0.03144040996513911,
          -0.47061398565126167
        ],
        [
          -0.6139492952672625,
          0.08539938236257028
        ]
      ],
      "qibo_sigmoid_expval": 0.42882011739172643,
      "qibo_predicted_label": 0,
      "qibo_correct": true
    },
    "33": {
      "orig_angles": [
        0.8660722970962524,
        2.2422738075256348,
        0.36215507984161377,
        1.5722007751464844,
        3.032947540283203,
        -2.3614342212677,
        2.4468579292297363,
        -1.0510255098342896,
        2.9795081615448,
        -1.4444419145584106,
        0.06385383009910583,
        1.11923348903656,
        -2.7044479846954346,
        1.9221490621566772,
        -1.881287693977356,
        1.5582666397094727,
        -0.22181344032287598,
        0.8739335536956787,
        -2.0133049488067627,
        0.7028076648712158
      ],
      "input": [
        0.8660722970962524,
        2.2422738075256348,
        0.36215507984161377,
        0.7028076648712158
      ],
      "weights": [
        1.5722007751464844,
        3.032947540283203,
        -2.3614342212677,
        2.4468579292297363,
        -1.0510255098342896,
        2.9795081615448,
        -1.4444419145584106,
        0.06385383009910583,
        1.11923348903656,
        -2.7044479846954346,
        1.9221490621566772,
        -1.881287693977356,
        1.5582666397094727,
        -0.22181344032287598,
        0.8739335536956787,
        -2.0133049488067627
      ],
      "label": 0,
      "noiseless_label": 0,
      "angles": {
        "0": {
          "1": 0.8660722970962524,
          "2": 2.2422738075256348,
          "3": 2.4468579292297363,
          "4": 1.11923348903656
        },
        "1": {
          "1": 0.36215507984161377,
          "2": 1.5722007751464844,
          "3": -1.0510255098342896,
          "4": -1.4444419145584106,
          "5": -2.7044479846954346,
          "6": -1.881287693977356
        },
        "2": {
          "1": 3.032947540283203,
          "2": -2.3614342212677,
          "3": 2.9795081615448,
          "4": 0.06385383009910583,
          "5": 1.9221490621566772,
          "6": 1.5582666397094727
        }
      },
      "predicted_label_pennylane": 0,
      "sigmoid(expval)_pennylane": 0.43413259999190257,
      "tomography": [
        [
          0.03646872563704187,
          0.2945233321701022
        ],
        [
          -0.37852437913180126,
          0.08096339192575397
        ],
        [
          -0.06471539775237638,
          -0.12152807937160565
        ],
        [
          -0.1535271568288133,
          0.09751420192858999
        ],
        [
          -0.029478831171550146,
          0.0746525750178742
        ],
        [
          -0.0994976083294121,
          -0.03184946819598285
        ],
        [
          0.018061458008031495,
          -0.5036822197335481
        ],
        [
          -0.6619044499098026,
          0.023618456802135313
        ]
      ],
      "qibo_sigmoid_expval": 0.4061268970658573,
      "qibo_predicted_label": 0,
      "qibo_correct": true
    },
    "34": {
      "orig_angles": [
        0.690321147441864,
        1.979103922843933,
        1.6699466705322266,
        1.5722007751464844,
        3.032947540283203,
        -2.3614342212677,
        2.4468579292297363,
        -1.0510255098342896,
        2.9795081615448,
        -1.4444419145584106,
        0.06385383009910583,
        1.11923348903656,
        -2.7044479846954346,
        1.9221490621566772,
        -1.881287693977356,
        1.5582666397094727,
        -0.22181344032287598,
        0.8739335536956787,
        -2.0133049488067627,
        1.5663683414459229
      ],
      "input": [
        0.690321147441864,
        1.979103922843933,
        1.6699466705322266,
        1.5663683414459229
      ],
      "weights": [
        1.5722007751464844,
        3.032947540283203,
        -2.3614342212677,
        2.4468579292297363,
        -1.0510255098342896,
        2.9795081615448,
        -1.4444419145584106,
        0.06385383009910583,
        1.11923348903656,
        -2.7044479846954346,
        1.9221490621566772,
        -1.881287693977356,
        1.5582666397094727,
        -0.22181344032287598,
        0.8739335536956787,
        -2.0133049488067627
      ],
      "label": 0,
      "noiseless_label": 0,
      "angles": {
        "0": {
          "1": 0.690321147441864,
          "2": 1.979103922843933,
          "3": 2.4468579292297363,
          "4": 1.11923348903656
        },
        "1": {
          "1": 1.6699466705322266,
          "2": 1.5722007751464844,
          "3": -1.0510255098342896,
          "4": -1.4444419145584106,
          "5": -2.7044479846954346,
          "6": -1.881287693977356
        },
        "2": {
          "1": 3.032947540283203,
          "2": -2.3614342212677,
          "3": 2.9795081615448,
          "4": 0.06385383009910583,
          "5": 1.9221490621566772,
          "6": 1.5582666397094727
        }
      },
      "predicted_label_pennylane": 0,
      "sigmoid(expval)_pennylane": 0.4347101398596103,
      "tomography": [
        [
          0.24579240540030373,
          0.23798921080483734
        ],
        [
          -0.2819703755775951,
          0.3456852898627953
        ],
        [
          0.1199239937572545,
          -0.09662482095984139
        ],
        [
          -0.13733813341572362,
          -0.1469127812649494
        ],
        [
          0.15155719271225315,
          0.1441766550170512
        ],
        [
          -0.16891650942976333,
          0.21166876815688382
        ],
        [
          0.18177734959378894,
          -0.38871587575561856
        ],
        [
          -0.5267493809089927,
          -0.20267579011879724
        ]
      ],
      "qibo_sigmoid_expval": 0.4223013192323213,
      "qibo_predicted_label": 0,
      "qibo_correct": true
    },
    "35": {
      "orig_angles": [
        0.763211190700531,
        2.262523651123047,
        1.8009350299835205,
        1.5722007751464844,
        3.032947540283203,
        -2.3614342212677,
        2.4468579292297363,
        -1.0510255098342896,
        2.9795081615448,
        -1.4444419145584106,
        0.06385383009910583,
        1.11923348903656,
        -2.7044479846954346,
        1.9221490621566772,
        -1.881287693977356,
        1.5582666397094727,
        -0.22181344032287598,
        0.8739335536956787,
        -2.0133049488067627,
        1.718681812286377
      ],
      "input": [
        0.763211190700531,
        2.262523651123047,
        1.8009350299835205,
        1.718681812286377
      ],
      "weights": [
        1.5722007751464844,
        3.032947540283203,
        -2.3614342212677,
        2.4468579292297363,
        -1.0510255098342896,
